-648
478
-34
-735
-451
-531
-1059
14
-561
-205
858
246
0
-1376
285
-250
-3588
-998
83
-1353
120
-1476
-474
-763
499
-1353
-282
601
791
68
209
-90
497
-340
1135
-331
-477
-349
-504
-9
-647
-1164
-1109
106
-638
-342
-497
-266
618
-500
-366
-983
-362
731
227
-355
478
-373
568
-389
1293
-296
-864
677
-1514
191
-581
97
-1097
-1023
134
-355
-856
-877
-144
-565
-6
579
-1552
276
113
-839
122
-503
-1662
-1150
-224
11
-2675
-540
-230
-113
-728
-1266
93
911
95
-960
-218
6
208
450
1610
302
495
-945
224
-1139
190
-807
-40
408
-1218
210
-664
132
-831
-1104
376
-781
-528
270
-240
254
-369
-419
-1192
-711
-581
-669
548
-992
-382
528
-326
-672
159
-762
-969
-519
-1414
229
-875
-140
338
117
106
-904
96
-156
200
6
413
-852
219
-778
-877
-1661
439
-417
-516
843
-1379
-1
-115
-1316
23
-194
262
-810
-679
-1006
322
321
-619
-18
1624
-437
1024
-671
-1197
-123
384
-1897
-201
523
393
-468
-1589
-679
-934
953
612
-1088
-1606
-525
602
24
-577
-337
-664
620
-545
403
-132
-224
761
-548
-203
56
-596
-896
-765
-379
-102
289
-913
-267
-766
-49
-679
-331
269
-121
-989
650
573
-1671
32
1153
533
-77
-1376
1
159
240
-1459
-358
-797
461
349
-371
-1126
-499
-520
-603
1140
-596
251
-910
-642
-1663
-1520
-521
-235
-306
-157
232
-1176
114
-803
-271
-728
-61
154
-88
-479
-507
-657
-1856
-132
-1283
-64
-660
-445
141
-7102
380
-248
-361
512
-199
740
140
434
765
-992
-773
64
481
47
120
-99
524
914
725
-894
-351
-327
-783
-501
-250
115
-314
453
320
-267
23
131
-57
283
-520
1713
53
-761
52
-528
-193
1225
790
-260
89
-864
-189
-1149
260
-372
-1134
-161
-967
-470
-160
-787
-1004
299
-1350
-489
-574
-589
-152
-816
-715
612
-135
-279
-412
397
-825
687
-744
592
-702
-1104
-294
-59
-213
188
-1072
1356
-114
-807
-1443
-496
24
277
-73
791
-265
-901
-103
-20573
-105
-201
447
-607
-584
705
-562
-1100
-1323
-815
144
-855
425
-627
1692
-720
35
-350
-12
-143
-1669
-441
-345
-453
-276
-372
-297
197
-531
-226
789
-568
-147
-162
-530
-26
-535
651
-402
0
129
-91
1092
-1396
429
1189
-452
427
-1265
-78
-287
-817
-787
280
-812
-1016
-918
597
121
-783
243
-468
-410
-852
-608
82
-2460
1236
706
-447
-1633
-844
-83
-772
-822
-70
-868
788
-1064
223
-879
1523
-118
-505
-1389
-688
524
-1025
-320
-358
-1380
-383
-1174
-131
-1340
42
1254
114
-986
-911
-458
212
245
-163
47
-228
437
-1772
-765
-160
-1165
-134
-631
65
-86
311
3288
265
-446
-31
-515
-264
-1036
-572
619
-585
204
607
-926
-683
228
-506
-2038
445
-1022
-493
-373
-614
-239
-1363
541
