-139
-109
-98
-139
-61
-43
-19
-258
51
3
-172
12
-152
-83
-168
5
-290
139
-220
59
-84
63
73
62
-1
6
-183
-175
-98
-24
62
-145
-249
-3
-283
-93
2
-152
37
-235
5
-66
5
13
-169
-92
-53
-160
-98
167
-156
81
-48
-284
18
2
-104
-39
-63
62
-24
156
-33
-6
61
-186
48
-64
-238
-70
-295
-74
-135
-98
-142
-172
-127
-19
-279
-12
-1
212
-137
48
-186
-24
-82
-8
114
66
-89
-28
-323
13
-200
-180
65
-92
-73
6
-117
-81
-197
37
-37
-220
-74
175
-79
-307
29
42
-127
44
-131
-2
-105
-16
-110
-149
-70
-44
25
-32
-88
-133
-223
59
-117
157
-105
-81
-10
-52
-176
65
-112
-186
-203
94
-2
105
242
-274
51
19
90
-116
-56
-333
-36
-86
-266
119
10
109
-7
-265
84
-262
-243
-90
-58
-37
-76
10
-192
-38
-114
8
-55
-44
-196
17
-213
-246
-76
-216
-146
2
-20
-115
-203
13
-271
-248
-120
-148
3
-99
69
-99
-110
-93
-226
-242
-68
-187
-183
54
39
-189
-38
-254
-49
-249
-101
170
176
23
-234
-30
48
-143
-57
-54
-4
-381
-21
-45
-229
-97
101
-158
-150
-263
-78
-125
85
-58
58
-273
-146
-420
-251
93
-81
-171
-119
23
165
-239
47
-52
-107
25
-26
99
123
-141
-23
-138
-179
-92
71
140
-164
15
-44
-159
86
-75
20
16
-130
-72
-151
-107
-40
-172
-171
-56
-1
-81
-201
16
-77
-53
-63
-62
-58
-75
-100
-221
-194
-65
-138
-73
116
-132
57
-150
140
-182
-134
-2
139
-185
27
-248
35
-138
-29
-226
-117
-135
-181
122
-85
-26
-234
-248
-134
-87
-195
-136
-301
25
-113
-145
-101
-79
-215
-149
-213
-225
-255
-98
26
-42
-328
-181
108
-136
-164
-95
-76
-12
113
46
-132
-218
-130
75
-109
165
-66
75
-52
144
-93
-75
-286
-37
-60
-286
-31
-38
-221
-43
-16
5
-85
25
41
-102
140
-146
-230
-91
-197
-178
8
30
28
36
-347
-278
64
61
-225
-62
205
-182
-168
-157
20
-94
-45
-55
-88
-119
-140
10
-259
-78
-19
-294
39
-90
-13
-472
-164
-265
51
-129
109
166
-64
99
98
-209
-260
-12
-98
40
-145
-117
-65
-125
-124
-241
-138
287
-115
141
68
-60
-121
-68
-228
-49
-133
-34
-92
-146
-14
-193
307
23
-392
-227
-2
234
154
-118
-157
85
-201
-184
-173
-3
-104
-269
-190
46
-16
-47
86
-66
-78
-55
-181
56
-81
-31
-48
-28
-102
-280
-136
-99
-45
-25
-127
-72
-131
-150
-220
-87
-84
-80
133
-146
-79
-206
176
-162
-6
77
-113
-17
-88
-1
-193
-67
-162
57
-175
-125
-163
-292
-141
23
-378
-148
-21
-91
-219
18
-260
-19
