6251
5721
3348
2312
2604
1661
4201
-2465
1345
8522
4330
3869
4165
2302
3822
-3784
5375
23
-2040
1469
4189
893
1649
1642
-12153
1300
2334
1226
337
3216
3695
997
1258
2571
-5494
1488
1322
750
-1118
-1647
50
-331
4885
-7867
-4958
-379
1180
-644
-4100
4361
-1976
4109
686
4698
-1956
3969
180
2274
1650
-1693
786
-1423
7758
8961
3757
1910
1008
-186
6045
602
-1557
2219
549
1141
2753
2038
2724
1204
2025
-5108
59
-1177
3772
3068
2222
19
213
-1447
2492
1322
-5280
963
-1408
1757
1274
551
2197
-956
-1970
3864
1841
1907
-1361
-6440
3635
153
9168
323
-490
-1330
-7777
1285
3049
1417
1511
582
-34
-1207
-1579
3123
2613
-164
4376
-7205
1855
632
1036
852
5406
687
-2643
4694
-161
-1382
2839
-5381
7513
4499
4770
1435
-318
5283
2432
-467
-3159
20266
-511
2410
11221
-257
2702
-491
-681
-1790
1993
1446
-3283
1524
-11
8397
-1685
1130
5509
-4004
1140
1996
-2274
8009
-603
-10317
2262
1210
-5652
4245
1468
509
-587
2033
471
-49
1857
-516
605
5477
1587
-3775
-445
-1611
2996
2255
-2914
-2871
19
-1055
4476
5032
-1726
576
519
-3893
-1272
-367
3748
-2442
-7394
5156
1104
2092
3457
689
326
-4519
1169
3680
-7081
653
-49
-17
-4268
13296
-1938
2785
-4231
-395
1546
-7628
17341
2659
-2214
106
81
2797
3000
603
-348
-477
984
-2173
654
5212
-611
-410
4638
-4351
-3126
2830
4660
2467
928
-3676
-754
-2619
-3492
1448
1307
520
