700
134
811
-230
573
-693
20
417
31
386
93
138
494
157
151
424
1391
259
299
98
383
139
621
898
-108
-215
267
153
263
309
-247
423
191
83
334
-195
870
187
-165
68
-60
1327
408
411
-17
450
103
544
419
-177
-487
430
176
151
131
331
-412
78
221
-80
21
-662
418
-315
472
-184
212
19
-314
78
413
287
-502
671
106
40
255
264
410
420
312
438
325
528
475
422
37
570
725
664
-318
-493
31
-839
-236
638
-41
203
364
208
246
-662
155
167
290
-173
367
400
-135
539
-44
314
387
-149
293
168
885
-35
1222
218
148
229
-109
52
-172
1040
-45
-515
-9
160
-64
196
309
142
247
10
-662
704
-168
137
113
93
437
-311
199
412
105
-119
128
242
-398
756
903
518
13
-601
358
-107
100
64
304
261
472
171
139
-157
333
-41
150
-273
335
-158
1003
541
571
462
873
700
291
457
668
422
334
558
783
-51
488
82
287
230
526
373
-134
175
39
361
845
206
79
253
-45
742
575
-327
259
21
-57
572
-52
321
723
238
892
100
435
-171
-42
-185
285
184
-80
281
168
117
745
349
320
116
527
268
29
474
353
119
-148
-45
396
427
606
336
-154
156
395
107
80
-404
698
282
153
429
16
314
621
211
-88
423
-99
380
230
51
188
251
-527
797
363
303
1
256
781
206
513
-153
-336
130
197
182
1122
131
407
97
207
526
405
209
364
546
294
413
27
-38
216
313
563
182
413
-56
107
192
255
1022
356
19
297
431
387
18
343
-187
-207
113
-101
450
336
-38
701
159
286
98
75
847
-65
-405
781
89
382
-10
111
641
469
160
238
61
823
140
80
616
1065
425
526
23
-182
-39
168
464
154
-7
594
420
115
114
73
272
-193
857
220
698
-310
517
354
382
239
-202
558
209
459
-62
102
410
-152
420
-347
-134
489
437
-127
530
751
-12
-454
-486
213
-566
145
222
485
483
37
167
-113
767
-401
289
257
74
760
-415
-458
369
39
542
-68
681
265
-84
398
328
386
161
1016
-278
243
893
-218
447
435
156
573
549
-109
-233
270
361
-71
558
248
383
183
987
-151
100
-48
155
-12
213
1004
505
-371
-160
225
146
188
-224
296
587
536
315
15
436
223
346
192
473
147
215
-62
-183
542
575
-334
8
282
-317
-369
389
548
816
35
787
446
429
147
-55
429
-482
518
299
64
-191
263
190
-67
25
-335
-324
219
63
239
-437
487
497
403
472
146
392
-25
613
352
124
85
403
-193
340
60
197
759
50
-541
776
453
301
659
115
