-459
32
655
1180
-1891
782
23
-444
-837
-121
-581
-514
-271
-662
-756
221
-317
-396
694
351
125
693
-681
-37
66
223
-881
-83
-489
-1013
-409
69
-45
716
-19
-340
784
-905
439
-973
241
-1072
-573
-377
112
162
-299
1191
-285
631
291
5
374
762
1
-291
1291
-1251
-398
883
1303
-145
75
69
-1040
-430
-35
352
-110
-503
-1393
-38
212
188
499
-314
-1005
393
849
865
7
-1252
-1066
-717
436
1360
91
-273
-200
-207
-691
-918
-411
374
13
-714
-703
179
-309
-805
164
-167
503
-274
-91
-486
720
15
23
23
-616
-97
411
-461
-1601
-405
-456
624
537
-403
-1254
-246
-456
-298
320
-910
-511
441
327
1204
-113
31
-76
-735
292
227
-76
-683
393
-170
371
-617
-498
-517
-75
-542
-958
993
-78
-620
-443
-383
853
329
-231
-155
252
-369
-650
-520
-663
-679
-1076
-806
246
398
-823
-770
5
533
-557
-700
668
90
645
752
-39
726
225
-518
-427
913
-1222
-510
-777
-893
782
267
-825
-181
-658
825
-273
-665
-667
-469
830
-458
1109
219
456
879
16
-267
523
-373
-347
-276
41
296
738
-249
-928
704
-172
775
561
8
575
374
-625
494
-104
516
536
-1140
-669
-469
-427
620
-221
-1314
866
29
-1067
-698
-127
20
-167
-566
-19
-763
882
115
138
234
-687
-799
-1064
531
-229
-412
-368
531
-403
-551
