-1536
294
-550
99
-925
-142
-362
-5032
-1032
-81
-577
-2065
-793
-585
197
-253
-889
-189
-863
1755
-443
-316
300
211
429
-664
841
284
-3348
4520
-352
-979
-792
70
-2389
-663
-636
827
1969
-8
328
-24
-589
515
-63
-784
-153
-700
133
-355
-359
107
-1090
1222
-16
879
-234
-854
-466
-71
71
506
-397
-384
1144
1064
-469
-538
-271
-315
50
-347
558
31
-489
-293
-798
-576
-513
-1214
6
-1434
-374
1778
50
270
-818
-364
332
616
202
-3029
-606
-253
534
-1578
107
792
-500
-258
-1489
-412
-15
-550
-508
-74
172
650
-2760
-762
88
98
1695
320
-89
-795
-2805
3463
21
-501
-161
-96
-403
1513
1487
888
174
-133
1607
208
435
-683
-489
-400
540
426
-542
2308
-907
1828
-424
-1715
-504
29
-879
-88
1272
978
1054
1090
-500
-633
-37
-781
-1088
-185
1128
1483
725
1630
-188
1236
-932
-601
216
1063
-23
-699
192
-2346
439
-174
-628
-46
1222
-631
-269
1278
-241
-480
5608
1592
433
280
-227
-2196
819
-203
379
1335
321
104
20
50
307
216
-456
167
1068
562
-15
186
-250
-150
-269
-382
-495
-202
-966
369
-585
-818
-362
-1718
-375
-78
-192
677
30
-110
674
-133
-198
1069
-260
-209
-107
-368
1420
-1804
459
-25
-288
-673
1647
-229
-38
-617
-279
272
1547
-219
-84
98
-992
929
868
-590
509
-1127
-609
824
137
1077
-548
-1189
