276
-45
-11
-126
-71
0
373
337
-708
255
308
751
517
841
0
482
-460
-213
273
-146
102
278
470
0
74
519
367
-57
0
301
-649
1236
52
1113
-512
-60
702
169
-23
366
2
39
486
824
-279
-24
-2130
-36
64
-419
210
-4
174
1184
922
-23
65
119
852
0
-463
-245
-116
-1840
-238
133
19
471
0
52
89
213
553
278
-82
3706
-24
584
442
-389
-318
-193
164
7
506
538
399
86
-339
0
0
-285
-49
-501
0
162
-682
-985
-1802
-769
-1023
-110
-304
-215
618
-3
-125
364
-231
-124
1645
-46
0
296
553
-155
-515
922
582
497
369
283
179
84
106
1007
355
639
421
110
181
26
-50
0
1017
407
359
295
0
12
270
88
70
-2
-78
2229
167
286
35
640
-199
260
385
0
118
409
-151
0
-248
-364
-389
1632
219
122
377
-5
303
30
-314
-115
0
256
397
530
0
-169
934
81
-409
165
-773
288
-29
-210
175
1151
0
88
90
-725
517
-224
130
1143
85
294
0
-65
289
-1041
0
165
-117
565
0
32
248
711
642
-50
-279
226
963
0
81
-246
515
987
106
291
165
105
0
-63
168
191
-12
851
-267
326
-60
115
425
50
0
-98
0
167
268
998
-1
1321
-152
891
-6
251
-1100
158
175
-52
116
1211
39
409
113
-620
-382
197
-28
624
194
-185
69
1442
-58
876
127
1006
100
-12
0
214
0
-15
77
866
181
291
237
-99
321
440
-208
-453
627
-353
110
-319
192
124
-525
-3
-25
-412
16
125
59
0
-678
-4
-101
769
184
690
1285
760
-300
538
-215
-1399
296
0
0
0
550
-262
27
1662
0
-5
203
-209
-126
255
403
0
608
-107
-23
234
567
-309
0
-110
525
467
-699
359
-309
-481
751
-416
3189
-116
128
139
0
1639
112
15
83
-197
377
355
875
621
-26
1478
164
-120
723
824
379
-690
0
-100
258
-273
79
707
0
1728
23
-297
122
-928
-541
246
-9
500
-39
319
1548
-546
107
-14
0
-64
1111
586
-87
248
-173
-751
334
377
921
-600
266
193
0
187
-180
928
-89
110
291
80
76
0
580
642
930
0
-80
-82
233
-138
257
313
-134
276
114
400
523
-39
0
185
-83
449
0
447
392
0
-1759
40
-113
-36
183
239
303
521
-1049
773
86
217
0
-28
391
-1
-486
0
0
159
-13
22
328
-176
-729
1678
-6
233
73
375
946
275
-140
0
1220
-157
-171
480
0
-697
465
369
940
-65
-339
-333
-491
762
-569
432
474
-489
0
509
1142
1796
-313
-591
279
-134
1237
320
114
-674
0
803
443
19
-293
139
-27
415
-465
462
-521
0
227
1459
