960
672
-82
-806
19
-27
438
155
-424
-51
34
435
493
310
329
910
-2582
599
812
-1175
130
1415
-1800
-167
-1566
793
518
1394
142
771
145
510
883
983
175
174
806
845
574
217
-54
-608
1132
1293
124
263
-1743
549
842
340
522
169
-181
-423
-313
-57
419
693
108
440
516
278
427
120
878
140
1280
773
466
-245
-1389
830
186
-92
817
1067
-584
84
532
274
121
-1
320
465
1026
-141
-470
444
-563
-826
780
-1412
592
-285
-2222
633
8
370
-352
215
784
291
-69
-501
383
-3892
399
-46
-132
-156
623
358
628
-483
108
-210
-12
70
229
267
1062
350
238
40
186
747
329
139
-58
392
-687
59
-112
997
1155
452
-91
-243
542
618
1056
-1479
-1310
-1468
713
567
-381
628
54
824
417
-581
41
698
143
254
68
1493
1085
144
798
550
266
-753
-494
52
1
-293
-627
254
847
188
435
1125
1432
612
-773
984
-157
158
796
459
232
-1447
247
695
-1381
868
46
-1176
261
-636
611
211
-611
235
153
-520
-765
-51
346
-204
44
-2878
197
640
-542
111
-1045
458
911
-1101
1034
-1813
268
-172
-250
1492
1299
-730
1028
-2173
-688
-216
498
417
125
4
586
1571
195
1001
1035
337
272
744
600
246
863
-40
-156
-242
223
302
-333
202
1238
867
-2943
-650
-478
784
-555
612
510
802
