167
-842
-16
-145
154
0
272
317
73
183
235
-228
257
180
0
771
449
123
742
325
165
256
213
0
-558
229
314
-1097
0
-197
-15
277
150
-1058
-116
275
562
694
-22
-373
-210
-549
132
108
26
425
236
319
426
464
335
-3
-40
116
322
1445
98
-177
-367
0
139
-307
221
4
-866
4
-503
47
0
-495
-438
315
686
-820
136
260
-1446
381
801
-250
-120
-12
-72
1000
230
-586
583
0
266
0
0
-584
299
77
0
-116
-114
-157
-1019
-50
-817
-740
293
17
347
-3
-401
650
-542
-3
238
-123
0
-73
348
-207
-1107
-181
659
455
-89
306
-62
137
-139
547
413
167
166
-596
-156
-323
389
0
726
225
-63
480
0
94
-39
-57
-367
-2
-192
-31
157
-210
2740
-1087
-143
263
237
0
374
273
319
0
24
273
-230
404
-106
-655
-106
-5
-1028
-380
-945
-663
0
-147
-798
479
0
326
24
-133
196
-158
813
478
126
196
-556
450
0
-74
275
-803
155
137
-283
1000
500
-253
0
-470
-26
25
0
-84
-1294
177
0
291
-634
-182
248
-3
686
209
677
0
105
137
470
487
109
1179
23
-167
0
-54
-243
-179
294
655
-408
1808
-896
454
357
-191
0
-34
0
-134
-255
408
-1
654
-539
229
-51
389
6
809
-663
150
286
428
-139
428
-287
230
-385
-459
217
386
-139
150
-208
323
-371
426
220
120
234
158
0
92
0
519
678
217
660
214
-530
-878
-906
53
-162
138
286
-127
196
60
-1547
-153
-45
-3
-19
-384
1033
1233
271
0
91
-4
393
32
96
422
72
1246
-317
489
-53
-198
-446
0
0
0
279
-15
-133
460
0
256
-1419
313
-261
184
1028
0
319
-179
320
-93
567
-1366
0
-268
289
-361
972
253
-192
-157
352
239
486
312
391
136
0
313
72
508
-567
-441
1168
141
469
192
-117
444
1633
36
545
54
-98
-170
0
125
-224
1759
1023
577
0
395
509
323
395
1126
-199
17
-171
230
182
-7
447
654
-287
-319
0
299
375
43
-120
-207
249
-291
-247
411
228
37
-112
133
0
-101
-303
229
205
-1693
49
65
936
0
603
-78
434
0
-107
106
103
105
-47
239
-89
-159
-782
135
-669
-322
0
-20
262
201
0
1148
1180
0
-2354
486
-101
33
-690
-290
-84
253
-104
492
197
237
0
-108
195
-1
-1731
0
0
87
-15
534
78
-620
337
515
890
-283
-81
236
613
179
-1013
0
138
371
-490
455
0
217
271
357
249
-108
633
-78
-40
25
71
383
67
-273
0
292
243
1
-437
-1470
231
1348
322
-28
396
-478
0
-96
191
-213
-231
193
-8
95
143
-311
-276
0
289
557
