-3
6
0
6
4
-19
-6
43
-5
-6
-3
18
15
-28
15
-11
0
0
-8
-19
0
15
-16
-6
15
0
6
-14
-8
10
6
13
1
4
-19
-11
-8
-11
-6
6
6
15
-6
-3
2
-11
33
9
-3
-11
21
2
-14
13
-6
-3
1
0
-23
9
-6
15
-3
-14
-11
1
-6
-5
13
10
24
-6
6
10
0
-3
-6
21
-6
2
4
6
2
2
-11
21
13
18
-11
0
-14
-11
10
-8
13
-5
2
-6
-5
-11
0
-3
18
28
-8
-3
15
-23
-11
-23
0
-6
-14
-23
6
-6
1
13
18
13
-16
15
-3
9
-11
-16
4
9
-16
24
6
2
-23
0
6
-8
-3
2
0
-6
-5
-3
-16
-6
9
-14
-11
2
9
-3
15
15
-5
6
-19
28
4
6
2
6
15
-11
-3
33
-11
-14
28
10
6
-3
4
-14
9
6
-8
2
-11
15
-8
10
-3
-14
0
-6
15
-3
6
-11
6
-6
10
-16
-5
18
6
-11
-6
13
9
10
9
21
15
-16
0
-14
6
-3
-6
-5
-3
-3
0
0
-11
-11
10
0
-11
1
1
-3
-8
24
28
-14
4
4
-11
-6
1
4
-3
-14
-6
9
2
15
-16
-19
2
15
9
15
6
-19
-6
13
-6
-11
2
33
13
10
-16
-6
15
4
-8
1
0
-8
18
-11
10
13
-11
-14
18
-16
21
18
6
15
0
-6
-3
15
10
-6
2
-8
9
10
6
-11
-14
-6
24
24
18
21
0
-14
-16
-3
18
9
13
-8
6
-3
24
-5
-19
9
-16
-6
-16
6
-3
6
0
-6
9
4
28
-14
-8
0
-16
-3
1
-11
4
9
15
-11
-8
-19
-11
4
-6
15
-5
18
6
-3
-3
-8
-3
10
2
15
21
9
15
-11
6
-14
6
9
-19
-5
10
6
4
-3
-28
18
0
24
-8
-19
9
-14
2
-14
-8
15
-11
21
13
-8
10
-6
1
6
6
-14
-8
21
-14
13
-6
24
-14
-6
-11
-6
4
-11
-14
-3
-3
1
-3
-16
2
0
-8
-6
-23
-8
-8
28
13
0
4
15
-23
0
10
9
6
-6
15
18
21
13
-11
-19
0
0
-8
-19
-3
0
-8
-6
-5
18
28
6
-19
-3
-3
-14
13
-3
-6
4
6
4
-3
-8
0
-5
-16
0
-11
-19
-11
-14
9
-3
18
-19
-3
-11
6
4
6
-3
0
18
9
-11
-3
1
-8
-19
1
-5
-23
21
21
21
6
-11
-14
10
-6
15
2
1
10
6
18
15
1
-19
-16
15
-16
-8
1
-28
6
-16
4
0
-8
13
6
-8
-3
-6
-3
28
28
-5
-11
-19
-5
-8
15
-3
-3
4
24
-16
-3
6
-5
33
21
4
-16
-11
1
2
6
24
-3
-28
-11
6
18
24
2
21
-19
9
43
-14
-14
15
-6
-5
-8
-8
0
21
-3
18
0
0
9
0
0
-14
-11
-14
-3
24
-5
-11
-3
21
9
-3
9
-28
2
2
-8
-3
-6
-14
21
-11
-11
21
-6
15
-11
18
18
-5
10
9
2
15
24
-6
-5
18
0
10
24
-3
-5
-23
4
4
-3
6
-16
18
-6
18
6
1
1
21
-19
-3
13
-19
4
-19
6
-11
24
-23
-6
15
9
-16
24
10
-16
-11
1
1
-14
-8
6
-6
6
4
0
-11
21
1
-19
-14
-19
21
21
24
6
-14
9
0
-14
18
-8
-14
18
9
-14
-19
-11
-14
28
6
13
4
6
0
0
10
-23
4
-3
-6
13
15
-5
18
0
9
10
2
-11
4
-11
2
6
0
-14
0
13
-11
24
13
-3
9
-3
28
-14
4
28
9
15
-19
0
18
6
-3
6
9
24
-3
9
-3
0
24
6
-11
1
6
15
0
-11
9
21
0
15
6
4
0
15
10
18
-3
15
-14
-5
2
13
-11
6
28
-3
-19
-8
-11
2
9
-14
2
0
-19
-8
28
-3
13
13
1
-14
0
6
-8
13
4
4
4
28
0
13
-3
18
15
-3
-14
6
-16
9
-16
6
2
15
-5
-19
-3
6
-11
13
28
1
18
-3
24
10
4
-6
-11
6
-3
18
-19
15
-8
15
-6
4
-16
15
9
-3
-11
-3
15
1
28
-6
9
-6
-8
4
18
10
-8
15
-14
-3
24
1
-3
9
15
-3
9
2
-19
6
2
24
-11
4
-14
-14
6
21
-16
1
15
-19
-19
15
-11
-16
18
6
4
24
-19
9
15
1
9
-8
-16
-6
1
24
28
-3
0
6
6
6
-14
-8
6
9
-11
0
6
-3
-6
-11
-3
0
6
-14
-16
15
13
9
13
-16
13
6
6
6
-11
-11
4
21
-3
-19
0
-5
10
-8
-11
-11
0
-8
15
13
18
13
13
10
1
24
9
18
13
-14
-16
-8
-3
6
10
18
13
-28
0
10
-14
-19
21
-23
-6
-8
9
-6
-3
-23
15
13
-3
-19
9
-3
-8
15
-6
-3
-11
2
-3
-14
13
21
24
1
21
-8
13
-14
-19
0
6
-11
-14
-3
0
-3
0
-11
21
21
18
6
0
1
2
-19
-11
18
0
6
-16
4
15
24
-19
9
10
15
13
-11
-19
6
9
-16
10
-14
-8
-3
10
-14
4
-8
4
9
-11
6
-14
6
-3
-3
10
-14
33
24
-3
