575
792
340
1571
184
1102
561
438
-211
103
-192
696
1215
-495
-266
195
-47
240
989
918
1791
1719
135
965
1367
-8
278
132
148
57
1872
1002
553
1401
1413
100
237
-524
578
588
1108
918
931
-43
243
60
1523
173
943
1661
1147
888
-498
1541
-858
104
757
458
164
-134
230
832
825
1445
600
390
1614
-100
110
1070
1178
1010
851
-179
297
908
720
509
411
679
400
902
453
507
60
1455
913
194
875
-123
1492
607
851
330
480
121
695
530
21
467
-57
-240
-831
758
-547
942
557
426
1649
723
636
-136
-135
-685
866
-464
-258
205
911
1501
895
-806
476
700
265
685
633
-452
757
1572
1290
950
32
795
839
-68
366
447
685
544
754
301
31
140
337
690
659
1666
-235
-338
-52
566
-355
-234
1294
751
345
842
504
513
-188
1979
1175
1623
999
-222
2104
340
1161
-155
92
1382
1333
62
1439
844
1069
747
1061
1163
1776
237
126
274
1199
284
206
803
-787
1986
683
-171
517
1687
12
-729
1011
732
806
507
1348
-10
1269
1480
-10
-53
-195
47
936
630
92
348
97
1059
785
1642
480
762
-211
-436
762
182
202
-319
944
1322
1409
236
473
1029
928
-33
-625
4
758
1157
535
477
344
965
-1182
542
-501
1373
-187
-402
1075
-124
442
877
-579
582
131
725
199
-199
