-207
-227
83
-433
-90
-138
-301
-10
-23
35
119
-22
225
338
525
-231
229
-109
54
-427
-359
-21
125
71
-120
-396
304
-21
247
7
14
-34
-61
-273
-318
123
-362
-623
104
-229
-35
462
477
-132
235
-170
108
-197
-45
-518
49
-73
-115
-94
0
-61
138
-192
-8
-177
-42
552
10
-25
281
27
330
-124
-264
249
-203
-756
-283
901
-545
-702
0
-386
252
75
-11
-331
-335
51
-736
-1
-242
-90
-45
325
-466
329
265
-12
353
-152
-173
957
-62
-344
181
-89
-289
-266
185
-3
52
-315
75
-364
154
493
-59
525
-116
-417
-15
-129
-381
45
52
300
-1020
156
716
46
-199
-50
179
-38
343
21
441
207
408
-175
-202
79
-875
-564
541
147
272
-142
106
-1825
43
0
561
-132
45
-465
-38
68
3
38
-47
-2
276
-281
316
-432
639
-21
799
-312
-294
-7
132
143
-72
4
140
-455
-163
318
-91
-125
421
-117
-530
229
-243
-179
453
1312
-381
203
-56
-168
-565
191
-390
79
-100
434
45
-270
396
-410
-259
0
-267
-628
607
146
-501
79
-84
0
-413
125
224
-80
179
-272
-28
-236
105
91
-35
121
-197
-383
-208
-428
26
0
-317
189
37
-208
-104
-217
170
-387
-123
7
-96
-197
157
-114
196
-101
-908
169
-248
-50
273
279
43
222
-2
-199
-90
776
223
-30
-488
196
-51
51
-235
-206
-410
65
298
42
-143
-655
236
310
-134
123
-73
-74
-638
-611
-292
1
-80
-247
-412
451
456
-35
-103
0
229
207
-91
0
455
132
329
63
-336
248
197
217
243
-85
239
-365
-138
177
-397
-449
-3
-297
597
-121
855
-179
879
-123
0
-57
-194
46
-392
-290
-1
87
206
-362
144
-309
-188
-272
-260
-176
322
-855
907
-191
375
204
-84
499
-180
23
0
0
459
360
259
112
241
-147
227
104
-277
-273
-143
-86
-185
-446
-258
109
27
916
198
235
-550
-236
38
0
-631
91
603
-53
-104
-682
191
218
-163
-102
141
-113
490
-166
-137
68
87
-180
-14
-492
-104
529
-1132
393
35
-235
-358
1374
82
-2
-250
-183
-114
123
152
-235
174
0
-389
-40
-450
-314
7
504
-372
-90
-356
-154
-135
-125
-368
73
-168
9
15
-312
-355
-404
-361
-260
112
232
538
-5
-108
255
-354
261
-523
0
-146
-353
-40
12
85
-263
622
5
-548
177
-610
-121
35
-218
114
-132
-39
61
104
67
0
91
-473
132
-651
-1
1304
-381
-116
405
-11
53
-2
206
-136
290
894
61
-212
264
1367
-396
-331
168
-380
6
-206
-470
302
165
232
333
307
421
822
-476
-473
-405
266
-147
-19
-114
-75
-218
367
66
14
-354
-40
164
173
-1022
-605
22
-124
-513
-1069
-19
-166
274
68
133
-86
678
-58
44
-5
496
-113
232
-820
-288
-392
-68
-497
600
-141
-16
-132
-190
72
6
53
232
-149
-48
-607
-243
482
7
430
41
-252
32
-43
-757
97
-211
224
-542
158
-272
-218
-422
-115
-113
-137
75
-62
-46
-193
-279
-222
146
2
129
-97
196
-35
511
-334
131
-82
525
-138
3
-75
-376
-99
-233
-52
-238
22
694
11
-228
17
222
372
93
-88
-46
-138
185
280
-196
-274
-9
-195
354
104
-24
-15
-532
-485
-3
-449
-59
-320
-977
657
-249
-440
-158
-72
0
-511
-260
1312
-269
-53
-1592
-375
43
-271
37
-509
176
66
141
499
-312
-193
272
255
115
-324
-83
-291
-714
-260
-592
34
-34
33
-196
574
174
-448
-201
155
-52
498
203
734
-118
-282
-69
-233
211
-149
326
217
-194
-67
-7
399
-244
263
54
57
282
462
-86
-150
-106
8
671
-60
-56
255
-1009
12
-66
-160
-181
169
-286
-355
-288
-374
-91
72
-181
-181
-289
-358
11
-140
-365
-102
909
27
-220
-823
302
-95
-66
403
113
-311
-211
-279
-172
-16
-146
777
361
351
-342
-204
677
-201
-500
-529
-124
-966
-41
-103
230
71
-157
-8
-101
-131
-273
-525
-728
-1
234
28
297
-4
122
659
238
-28
-140
430
117
384
-381
195
-276
-187
39
-264
158
-333
-219
-37
-473
19
18
-87
432
128
44
-459
-208
-219
-194
-489
-225
-416
84
620
252
-252
1201
570
-318
-251
174
2
262
58
-198
403
-2
-53
-199
383
142
-129
-913
-7
130
-78
-276
-68
-67
287
-174
107
99
-478
277
-115
667
423
-50
200
-180
58
303
-384
-475
90
0
-367
-349
-84
190
197
404
796
304
-252
326
-586
-3
-128
-696
-44
-51
-453
4
48
-1562
-204
325
-72
-479
-192
-117
0
250
243
-918
256
312
-590
11
-100
-327
385
225
-7
35
-108
-986
42
-321
-635
0
-81
357
131
-271
318
92
-272
153
0
-43
747
36
664
164
246
-219
-433
-948
130
74
16
-445
-424
-134
-35
424
177
-100
327
120
-274
-88
164
-338
-195
193
-11
-70
472
-61
7
0
-1
122
1209
-348
-8
-150
-13
-15
-1
115
-60
-3
-29
239
248
-26
-45
-356
-304
-39
0
192
-42
75
-734
-1
-82
-153
-460
61
-57
6
-79
401
-80
-200
299
-157
322
109
-248
294
650
-197
-108
-230
-306
-424
-63
-716
19
-81
354
0
-121
-402
-31
138
43
-153
12
330
145
-108
-116
-641
-537
182
-428
0
-467
-150
183
-94
-223
-295
-126
-181
-68
8
-421
-217
-704
14
-461
-47
-1
120
-192
198
2
-676
-64
-375
-18
144
-889
-75
325
-477
24
98
-590
-137
-144
685
-119
-92
