-7
-4
-18
-15
9
5
-12
1
2
-1
-10
-8
-17
-15
-10
-15
-7
-12
7
-15
6
16
-2
2
-1
4
9
-1
-5
-10
-12
-9
-2
-4
3
-22
3
-7
0
-2
-4
2
9
-6
2
0
25
-10
-13
-8
4
-13
1
20
12
6
11
-8
6
15
1
4
-8
8
10
13
-6
-2
5
-2
-17
5
1
0
4
1
2
4
3
6
-12
11
4
-30
-12
-2
-11
1
0
7
-5
-8
8
-2
-9
-16
-1
-9
-15
1
-6
-14
-2
7
4
-10
-2
-9
-12
-25
-17
18
-4
-13
-5
-23
-10
-10
2
-1
-5
-9
-5
-12
7
0
-10
1
-8
-1
-12
2
3
2
-2
-17
-7
-12
5
-15
-15
-3
-22
-4
-10
2
1
-19
-8
-13
-1
7
-16
11
0
-3
-2
-10
-5
-3
-1
1
29
10
-2
-6
-2
-17
1
-7
8
14
7
7
8
-10
6
-6
12
5
3
-5
7
-10
7
8
-2
8
2
4
-7
8
19
-15
-5
19
10
7
-20
6
-14
8
17
16
12
-1
-18
3
-4
17
-8
8
-1
-10
2
0
-7
22
2
4
2
-11
-2
24
-15
17
-2
6
-7
4
1
-5
17
0
6
-3
21
5
5
19
-4
-2
3
-4
3
15
2
6
2
-5
7
11
0
-14
11
-3
9
1
12
3
5
-5
3
8
-1
-3
8
-2
-15
3
19
-5
3
8
-6
-11
5
-5
-4
4
-10
20
-11
-12
14
16
-6
-4
-4
-7
-9
-15
-4
-8
-4
-3
-8
-7
0
11
-9
-2
-7
-3
-6
9
14
-1
-11
-5
5
3
3
19
20
5
5
-2
9
-2
-19
-16
-21
-12
-19
-19
-19
-3
-6
-1
2
-2
-1
2
-3
-14
13
-14
-8
-9
-8
-10
1
-1
-6
0
5
-8
11
-8
11
-6
-3
-2
-3
-6
0
-8
10
12
8
10
-1
-2
-4
1
-12
8
-7
8
-7
-4
-1
3
-4
-6
-1
-11
9
8
-14
2
2
4
-19
-7
2
-6
-16
-4
-9
13
-16
-20
-8
-8
-20
-10
-10
3
-13
10
3
4
-22
15
-1
-7
-14
1
0
-6
4
16
13
-2
3
-9
5
7
-2
0
8
14
14
0
-23
-9
10
4
-6
7
-5
11
5
-4
-1
3
3
-8
8
1
3
-3
9
17
11
-3
20
5
4
-4
-4
-4
3
1
13
9
-14
9
2
-2
4
14
23
-5
-7
2
9
-1
23
-5
-2
3
-14
-15
-20
1
-11
1
7
-3
1
-4
2
-3
2
22
5
2
-18
4
3
-2
1
-7
-4
-9
-4
-3
-15
-11
6
0
-1
-1
6
0
7
-15
-10
6
1
3
-9
18
-5
-5
-2
1
-14
-4
10
14
-10
-20
12
12
-3
12
13
-4
11
2
7
6
2
10
8
17
-23
4
6
-1
6
1
0
-12
-8
-5
2
1
0
1
-6
-2
-17
18
6
9
-6
-3
-6
10
-11
-4
-8
18
-7
-5
-2
5
7
-6
1
1
1
3
0
8
-1
-3
14
12
13
-1
-18
12
1
-1
-5
-2
-7
15
-3
-5
-5
9
-7
-4
9
12
4
-4
-9
4
2
2
7
-10
13
-12
-11
-9
-6
6
3
-6
14
-9
8
7
13
30
11
6
15
8
-5
13
0
-11
15
-6
-7
-7
7
-4
5
-11
-16
12
5
3
23
-7
24
-16
6
7
33
2
5
5
10
19
1
3
-8
9
1
-6
4
2
8
16
6
3
-18
-17
2
15
11
12
4
-14
-2
24
5
5
6
20
1
26
12
-6
12
-5
-12
-9
-20
-4
18
-9
-6
11
6
-10
-6
0
21
1
-4
7
13
-13
-1
0
-1
-10
-6
6
-9
4
6
-7
19
-8
12
14
4
-2
21
-6
-8
3
-3
-11
-9
-3
3
13
7
6
-10
0
-1
3
-3
9
-4
-8
1
8
12
5
-3
0
-4
18
4
-6
11
2
8
-2
6
-11
7
7
2
8
-11
2
7
4
-11
-5
4
6
-3
-10
11
5
17
-2
8
17
-2
-10
-12
-4
3
1
5
6
-3
-6
5
9
-15
14
2
5
-3
-1
-2
0
-10
10
-18
-1
-7
-7
-1
19
-12
-10
3
-2
-12
-6
-1
-1
-3
-11
0
1
-5
-5
-10
-4
5
12
8
14
1
-4
21
-10
11
-4
-10
-4
13
-14
14
12
25
6
6
-3
7
-1
17
23
0
3
7
8
14
-4
9
2
-12
-5
-19
-18
9
9
-8
15
-7
7
-2
-9
-5
6
25
0
2
-8
15
-7
-22
5
2
4
-14
23
15
0
1
-1
2
31
-13
-15
4
2
0
-4
15
-2
0
12
6
13
18
-8
-5
-2
21
17
-14
-5
16
12
-2
10
9
16
-8
9
-5
-6
-25
-14
-3
21
16
-18
-16
1
-17
-5
-11
-8
-10
18
8
-7
-2
-9
6
-10
0
-8
-13
-11
4
-4
-12
-16
-7
2
-2
-6
-2
-2
2
0
-3
-12
0
-5
0
0
0
-17
-1
3
-12
-9
-16
-1
20
17
7
8
-9
5
8
-3
1
8
13
23
5
-9
16
-6
9
-10
6
1
-14
-2
-6
2
3
-11
-12
-29
-10
-15
-4
-11
7
2
