-22
-32
94
52
118
-95
-220
-72
188
-23
101
9
287
516
-50
-21
-69
50
-25
18
600
89
204
116
-173
-65
-468
-106
319
-70
58
183
142
-240
215
-316
-94
-290
-6
36
-93
87
-207
37
25
514
16
-60
56
-72
-54
103
22
-39
43
-127
379
382
173
286
-286
365
25
-167
20
-504
66
205
312
-304
-247
254
279
100
-893
345
-4
-4
440
196
-639
133
73
-127
267
-413
-250
-447
-423
-65
-114
-63
-334
72
107
-463
142
134
92
-206
311
-223
296
-697
374
-1177
159
-23
65
-166
-294
311
-204
80
314
-432
152
95
424
-384
159
-146
180
-249
-146
189
-240
55
-16
-238
-227
-199
19
167
-498
-318
13
-16
-119
171
-119
-403
340
-66
-664
-138
209
-1448
-24
-727
-61
46
-129
-283
125
208
-195
-118
-69
114
193
153
23
128
80
-118
51
-11
75
-118
-195
-350
-106
-84
622
234
-182
261
-106
-200
209
577
20
18
253
153
-231
-27
-30
296
99
-88
-201
88
-396
194
448
-297
-24
-45
-141
77
131
403
-156
-454
-197
-21
-297
-550
-182
258
-345
136
151
30
-205
-148
-68
-233
-293
122
-122
60
-228
-240
-2
395
143
-106
-184
-148
-430
44
238
-171
87
-431
104
254
30
157
17
-157
150
73
-213
258
72
43
-58
188
143
-151
-261
56
