5276
13392
-3426
3620
2731
593
13825
6644
9062
-554
-13019
-316
1486
8356
-811
1178
-66
-18696
-3351
2293
-863
-4595
9071
6893
3358
7001
6803
13993
10869
415
-2676
847
1635
5372
660
-26061
293
3947
2825
8650
371
-7794
4145
8442
12176
-18
5320
-1635
10330
2227
9443
-11780
7530
3544
1357
3594
-5147
1360
88
8459
-259
3182
-838
7099
7186
3411
5606
-1370
733
4628
2014
4377
-22
-3159
486
-3487
-1261
24322
-5928
-25993
529
936
-1069
9648
-895
13079
-3739
-1774
3284
-1579
1711
3744
-5766
-780
419
10236
-166
-602
-583
-6116
-3677
3142
-241
3069
-2642
-8900
-1099
-5289
-8144
-292
-6719
-1386
1562
-3167
14300
4908
-3889
-1114
5568
5941
4530
-530
804
-5019
-6165
14144
5359
-645
1825
4612
-1552
4577
1856
1508
-1877
13359
418
10128
683
-9721
2187
-205
3797
-1691
2814
-6472
-3231
8860
3490
-2010
1473
-764
60
2217
2276
5569
-925
-20
-5741
-6489
-1494
192
980
2037
-6708
-73
1402
2636
-758
-2515
-1587
210
8211
2225
1399
-1296
-651
-1736
-4097
1783
8
-1795
2040
892
1345
6144
-1483
-673
1864
-1134
-9901
580
1731
3696
3174
-297
-7109
-553
6336
1681
-2209
-3642
-2065
5641
3309
5826
1260
-3780
-459
7038
-5571
4858
1465
7122
7095
-2990
-5037
10993
1866
-3008
-212
-883
11549
-186
1889
6864
8824
7117
-4741
-7159
-2347
-3931
5911
-549
-4869
3797
2505
2283
5001
5295
1423
-1697
3382
-6195
2664
-2361
81
-569
3680
-3907
2617
10254
9067
6300
-5679
1772
