5
3
1
-2
8
-1
0
-2
4
-2
0
-1
3
0
-2
0
-1
0
-5
-1
-2
5
1
-1
-2
2
-3
-1
-1
-2
-2
1
7
-1
0
-1
1
1
0
0
2
0
1
1
0
6
-2
3
-1
1
0
0
-1
-4
0
-3
1
3
1
2
-1
1
-1
0
-4
0
0
0
-4
3
-2
-4
7
1
-8
2
-6
-2
-2
1
-4
-2
0
-5
-4
13
7
2
-2
-9
-6
-1
3
3
-2
-10
2
-1
1
0
-1
-1
1
2
0
4
-2
0
0
3
-2
0
2
1
0
1
2
-5
0
-1
0
-2
2
0
1
0
-1
1
-1
0
-1
3
-9
-1
28
1
5
-1
-3
-1
-6
0
-2
1
4
1
-3
1
-6
-5
7
1
-2
1
-5
-3
-2
-2
-1
-2
0
0
-1
-7
4
1
-6
1
8
-2
-10
1
24
-1
-1
-3
1
2
-4
17
-17
3
0
2
-2
-3
-2
2
-2
1
-2
-2
1
-1
0
-25
20
3
-4
4
2
-7
12
-3
-12
-3
0
-4
3
-1
2
21
-2
1
28
1
2
2
7
-8
0
-12
3
-4
0
-2
1
2
1
-1
2
-2
3
11
3
1
-3
-2
0
3
2
-4
-2
4
3
-7
1
0
-1
-4
4
2
5
0
-5
-1
-1
-3
-1
5
-2
-1
0
0
0
-3
-2
-1
0
-2
2
-3
2
1
0
1
0
-1
2
6
-4
-3
5
1
-2
0
-1
1
-1
4
-1
-7
7
-2
6
0
8
-2
-2
1
-3
1
-4
-2
13
4
-1
3
5
9
-6
-2
-3
1
-8
9
-1
0
-2
-1
4
-1
4
2
-4
-3
2
-1
4
0
-4
0
-1
-1
2
-2
2
-2
3
-1
1
-2
3
-5
2
-7
4
-1
-1
1
0
-1
-1
11
3
3
-2
-8
0
1
1
3
-1
1
-1
-1
-2
-1
-1
2
-1
-1
0
-1
1
0
0
1
7
-3
-3
1
1
-3
-1
-3
-2
1
2
2
-1
0
1
0
-2
1
-1
1
3
-1
4
-1
1
1
0
2
0
1
3
-4
-1
-2
2
-2
2
0
1
10
2
1
0
-7
-1
-1
1
0
-2
1
0
-3
2
-1
1
1
0
-2
0
-3
2
-2
2
2
2
-1
0
1
0
-2
-1
-3
0
-6
-2
0
-19
-1
7
2
1
-1
7
1
2
0
36
0
-1
-4
-9
-3
-2
0
1
2
3
2
-1
3
-2
2
-2
3
0
-7
5
-1
1
-1
2
-5
5
-1
-10
0
1
0
10
2
0
-9
20
2
10
1
2
-2
-2
0
3
6
-1
0
