0
1
0
1
0
0
0
0
0
0
-2
0
0
0
2
0
0
1
0
1
0
-1
-1
-1
0
0
-1
-1
0
-1
0
0
-1
0
-1
0
-1
-1
0
0
1
4
0
2
0
0
0
0
0
0
0
0
0
0
1
0
-1
0
0
0
-1
0
-1
0
-1
-2
0
1
1
1
0
0
0
0
0
0
0
0
-1
0
0
0
0
-1
0
-1
-1
1
-1
0
0
0
0
1
0
0
-1
-1
0
1
-1
-1
0
0
0
0
0
0
0
0
0
1
0
1
-1
0
1
-1
0
0
3
0
0
1
0
1
0
1
0
2
0
1
0
1
0
0
0
0
3
0
1
0
-1
0
0
0
0
0
0
0
0
-1
0
0
0
0
-1
0
0
0
1
-1
1
-1
-1
0
0
0
-1
-5
0
-2
0
-1
0
1
0
1
0
0
-1
0
0
1
-1
0
0
1
0
0
1
1
0
1
-1
0
0
-1
0
0
-1
0
-1
-1
0
0
0
0
0
0
-1
0
1
1
0
0
-1
0
0
-1
0
0
1
0
-1
0
0
1
1
-1
0
1
1
5
0
3
0
0
0
0
0
0
0
0
0
0
0
-1
0
0
0
0
1
1
-1
-1
0
-2
0
-1
1
-2
0
-1
0
1
0
0
0
0
0
0
0
0
-1
0
1
1
0
0
-2
0
0
0
0
0
0
0
0
1
0
0
2
-1
0
2
0
0
0
1
1
0
0
1
0
-1
-1
0
0
-1
0
-2
2
0
0
0
0
2
1
-2
0
1
0
0
0
-1
0
-1
0
1
2
0
1
0
0
0
0
-1
0
0
1
1
0
0
-1
0
0
-1
-1
0
-1
0
0
1
0
-1
1
-1
0
1
-1
-5
0
-2
0
0
0
1
0
-1
-1
0
-1
-1
0
-2
-1
0
0
0
0
1
1
-1
1
0
-1
-1
0
-1
1
0
0
1
1
0
0
0
-4
0
-2
-1
2
1
0
0
0
0
-1
-1
-1
-1
0
0
1
-1
-1
-1
0
1
0
-1
0
0
0
0
1
2
0
2
0
1
0
0
0
1
0
0
0
0
-1
0
0
0
0
1
0
1
1
-1
0
-2
1
-1
2
0
0
2
0
0
-1
0
1
0
0
-1
2
0
1
1
0
0
-1
-1
-2
0
-1
0
-1
0
0
1
0
0
1
-1
0
0
0
-1
0
1
0
0
-1
2
0
0
0
0
0
-1
0
-1
2
0
-1
0
0
0
1
2
0
1
0
0
0
-1
1
0
0
1
0
0
0
0
3
0
2
-2
2
0
0
1
0
0
-1
-1
-2
-1
-1
0
-3
0
1
-1
0
-1
0
-1
0
0
-1
1
0
-1
0
-2
-1
1
0
-1
0
0
0
0
0
0
-1
0
-1
0
1
1
1
3
1
0
-1
0
-1
-1
1
1
-1
1
5
0
2
0
4
0
-2
-1
-2
0
-2
-1
0
0
1
-1
0
0
-1
1
0
-1
-1
3
0
0
0
-1
0
-3
0
-6
0
1
0
1
1
0
0
0
1
0
1
-1
-1
0
0
0
0
0
1
-2
0
1
2
0
0
-2
-1
-1
2
0
0
2
-1
0
0
0
0
-2
0
-1
-3
0
-1
1
0
0
2
-2
1
1
-2
-1
-2
0
-1
3
0
0
1
0
-1
-3
0
-2
0
0
0
0
2
0
1
1
2
-1
0
-1
-1
1
2
0
0
0
1
-5
0
1
0
0
0
0
0
0
1
0
1
1
-7
0
-2
0
-4
-1
2
0
-2
0
-2
0
0
0
1
0
0
-1
-2
0
-3
0
1
3
0
0
1
0
0
0
0
7
0
-1
0
0
2
1
0
1
3
0
0
-1
0
2
-1
0
0
0
2
-2
-1
1
1
1
0
0
0
0
-3
1
0
0
4
0
4
0
8
0
-2
0
1
0
-1
-1
0
0
1
0
0
1
-1
1
2
-1
0
-2
0
0
-1
0
0
-2
0
-5
0
-1
0
-4
1
0
0
0
0
0
1
-1
-2
1
-1
0
0
0
0
-2
0
-2
2
0
0
-1
-1
1
-4
0
1
1
-1
0
0
0
0
0
0
1
2
1
1
0
0
0
2
-1
1
2
-1
-1
0
0
0
-2
0
0
-1
1
-1
-2
0
-1
-1
0
1
-1
1
-1
1
2
1
-1
0
0
-2
3
2
0
0
-1
0
-3
0
-2
-1
0
-1
0
0
1
-3
0
0
0
-5
0
-6
0
-8
0
3
1
2
0
0
-1
0
-1
1
0
1
1
-2
0
-2
0
1
-3
0
0
0
1
0
-1
0
5
0
0
1
3
1
-1
1
1
1
-1
0
0
-1
3
-1
0
0
0
0
-1
-1
-3
1
0
0
-1
0
-1
-1
0
0
-1
1
0
1
0
2
0
-3
1
-1
0
1
0
0
0
0
2
2
2
0
0
1
0
-1
-2
0
0
-1
1
0
1
1
-1
0
-1
-1
-6
-2
0
0
0
0
0
1
0
0
0
-1
1
0
0
-1
1
0
1
1
-1
1
-1
0
1
-2
0
1
1
0
0
1
0
0
1
0
2
-1
0
2
0
0
1
1
1
2
2
0
-1
0
0
-1
-2
0
0
-1
1
0
1
-1
0
0
0
0
-3
-2
-1
1
-1
-1
0
0
1
1
0
2
1
0
-1
-1
2
1
1
-1
1
-1
0
1
0
0
0
-1
0
-2
0
-1
0
-3
0
4
2
0
0
1
0
1
-1
0
1
2
2
-2
1
1
1
1
-2
0
0
-1
1
1
1
-1
1
1
0
1
4
-2
-1
0
-1
0
0
-1
1
1
1
-1
0
0
0
-1
2
0
0
0
1
0
0
0
0
0
0
1
-1
0
0
-2
0
-5
-1
-3
0
1
0
1
0
-1
0
-1
3
-1
-1
0
0
1
-1
-1
2
-1
0
0
1
0
1
1
0
0
0
-1
-5
0
0
0
0
-1
0
0
1
1
0
0
1
1
0
0
1
-1
0
0
-1
1
-1
0
1
1
0
1
-1
0
0
1
0
-1
0
0
0
0
0
1
0
0
1
0
2
-1
-1
0
0
2
0
-1
2
1
0
-1
1
0
0
-1
0
-1
0
0
-2
0
0
1
-1
-2
-1
0
1
1
-2
2
0
0
-1
0
3
1
0
-2
1
-1
-1
0
0
2
0
0
-1
1
0
4
0
6
0
4
0
0
-1
0
0
0
-2
0
0
-1
0
-1
1
2
1
1
2
0
0
0
1
0
0
-2
0
0
0
1
4
0
0
0
0
-1
0
-1
1
1
-2
-1
0
0
0
-1
1
1
0
0
1
-1
-1
0
0
0
0
1
1
-1
0
-1
0
2
0
1
0
0
0
0
0
0
0
0
0
0
1
0
0
0
0
-1
1
-1
0
0
-2
0
0
1
4
0
2
0
1
0
2
0
0
0
-1
0
0
0
0
-1
0
0
-1
-1
0
-1
-2
0
-2
0
-2
1
-1
0
1
1
1
0
0
-1
0
-1
0
0
0
1
0
0
0
1
1
-2
1
0
2
-1
0
0
0
-1
1
1
0
1
-2
-1
1
0
0
0
1
0
1
0
3
1
0
0
-1
0
-1
0
0
2
0
0
0
0
0
1
-2
0
1
0
-1
0
0
0
1
0
1
1
0
1
0
-1
0
-1
0
0
0
1
0
1
-1
-2
0
1
0
-1
0
0
0
1
1
0
0
1
-2
0
0
-1
-4
0
-2
0
0
1
3
0
-1
-1
0
-1
0
0
0
-1
0
0
0
-1
0
1
-2
0
1
-2
-3
1
-2
-1
-1
0
1
1
0
-2
0
-1
1
0
0
-2
-1
-1
0
1
0
0
0
0
1
1
1
1
0
0
0
0
1
3
-1
0
2
0
1
0
3
-1
1
0
1
0
1
0
-1
1
0
1
-1
0
0
0
-1
0
3
0
3
1
-1
0
-4
1
-4
-1
0
-1
3
-2
0
-1
0
0
0
0
1
-3
1
-1
0
2
0
-1
0
1
2
0
-1
0
1
0
-1
1
0
4
-1
-2
2
0
-1
0
1
0
1
0
2
0
0
-1
-2
1
0
1
-2
1
0
-1
0
-1
4
0
2
0
0
1
-2
1
-3
-1
0
0
2
-2
0
3
0
1
1
0
1
-2
0
-1
0
1
0
-1
0
0
-1
0
0
-1
0
0
-1
-1
0
2
-2
-1
1
0
1
0
-2
0
-1
0
2
0
0
-1
-1
0
-1
0
-3
-2
0
0
0
-1
2
1
1
1
0
-1
-4
1
-1
1
-2
-1
2
4
0
-2
0
-6
1
0
-2
3
-1
-2
2
-1
1
0
-2
-1
3
0
2
1
0
0
-1
0
0
2
-1
-1
0
0
-8
0
3
-1
4
-1
1
-1
1
-1
-2
1
-1
1
0
0
0
0
0
0
2
0
-1
2
0
0
-5
2
-3
3
0
-2
4
-1
0
0
0
1
-2
1
-4
5
1
-1
2
0
-1
1
-2
-3
5
-1
-2
-1
1
0
0
1
-1
3
0
-3
-1
0
-3
0
1
0
1
-2
1
-1
-1
-1
-4
0
0
1
0
1
0
0
0
1
1
0
0
1
0
1
-2
1
-2
1
-1
-1
3
-6
1
4
0
6
-1
1
-3
4
-1
0
2
0
0
0
0
-3
1
-2
0
-4
0
0
-1
-1
1
1
-1
-2
0
0
10
0
-1
1
-3
-2
2
0
-2
-1
-2
0
-1
1
0
-1
0
0
1
1
1
1
-1
3
0
-1
-4
-1
-1
4
-4
-2
3
7
0
2
0
5
-4
-1
-1
-3
-2
7
4
-2
1
3
-3
0
5
-1
2
1
-1
1
-8
1
0
0
1
-1
-3
-1
-13
-1
0
-1
3
0
0
0
-2
2
-2
1
-1
-1
2
0
0
1
-1
2
-5
0
-1
4
2
0
-6
0
-1
5
-3
-3
5
-3
0
0
0
0
-7
1
-3
-5
2
9
7
1
-1
5
-3
-1
7
-2
-2
-4
0
0
-11
0
-1
1
2
-3
-5
0
-2
0
0
1
1
3
-1
0
0
5
-5
-1
2
-2
4
1
0
0
0
4
-9
0
-1
1
-1
0
-2
-1
-1
4
-3
-1
4
-14
1
-2
0
-5
-6
2
-1
-5
0
8
6
1
1
3
-1
-2
4
-3
1
-7
0
0
-8
-2
2
1
1
-3
-2
1
15
1
0
1
-2
2
-1
0
-2
4
-3
-1
1
-1
4
-1
0
1
1
4
-5
-2
-1
4
0
-1
-4
-4
1
-5
-4
1
3
5
0
5
0
19
0
-2
1
3
-2
6
1
-1
1
1
-3
2
4
0
2
1
-1
1
14
1
0
-2
2
-2
-2
0
-7
-1
-2
-1
-4
2
0
-1
1
-2
-3
1
1
-2
2
0
1
1
0
0
-2
1
2
5
2
1
-5
-5
2
-9
-4
0
5
-1
-1
0
0
0
0
1
4
4
2
4
7
2
-2
3
-3
4
4
-1
-3
-5
0
0
14
1
-2
-2
3
-3
-2
1
0
0
-1
0
-1
4
-2
0
3
1
-5
-2
4
-4
4
1
0
0
1
1
-5
0
0
1
-2
0
-2
-4
2
-7
-4
2
4
-8
1
-10
0
-18
-1
4
3
4
0
5
5
3
0
2
0
3
3
-2
1
-9
0
0
15
-1
2
-1
2
-3
-2
2
7
1
1
1
3
3
-1
0
3
1
-3
-2
3
-2
4
-1
0
0
1
1
-2
-2
0
4
0
0
-3
-1
1
1
-1
1
3
0
0
3
0
19
1
-3
0
-2
-2
-2
-1
0
1
0
0
1
-1
0
2
1
0
0
-3
1
-1
-2
1
-2
2
0
0
0
-2
-2
-8
-4
0
0
0
-1
-1
1
1
1
0
0
1
1
0
-1
2
0
0
5
1
1
-4
-2
3
0
-2
2
5
0
-1
0
0
-1
3
1
2
-2
2
-5
4
1
-1
0
-1
2
-2
-1
-3
-4
1
0
0
0
-2
-3
2
-3
3
0
1
0
0
0
-3
-7
-1
0
-2
-2
-3
-1
4
2
-1
1
0
0
1
-2
4
0
0
1
-1
0
-2
-1
2
1
-2
2
3
-1
1
-5
0
-18
2
6
1
-2
0
-4
2
2
0
0
0
2
-1
-1
1
-7
1
0
-2
-1
2
-2
1
-2
1
0
-1
1
2
1
7
-5
-1
0
-1
-1
-2
-1
3
2
-1
-1
0
0
1
-2
3
-1
-1
3
1
0
-3
0
3
1
0
-1
2
-2
0
-2
0
6
0
-3
0
1
-1
-3
0
0
0
-1
2
-2
-2
0
1
2
-1
0
-2
0
0
-2
1
-1
1
0
2
-1
-1
-2
-10
2
1
0
0
1
-1
1
1
0
-1
0
1
0
-1
-1
1
0
0
4
0
1
-4
0
4
3
0
0
4
1
-1
0
0
0
1
1
-1
1
2
-4
2
1
0
-1
2
-3
-3
-1
-2
-2
1
-1
-4
0
-2
-4
1
-2
1
0
1
-1
0
0
-4
2
1
0
-1
0
-2
0
2
2
-3
1
0
0
0
-2
3
0
0
0
0
0
-2
1
3
2
0
0
2
2
1
4
0
-5
1
5
-1
0
-1
-3
1
0
-1
0
0
-2
-2
-1
1
-4
1
0
-4
-1
2
-3
0
-1
0
0
-3
1
0
1
8
2
1
0
0
0
-1
0
0
0
-3
0
0
0
0
-2
1
0
0
-2
1
0
-1
0
0
0
1
1
0
0
0
-1
0
-2
0
1
0
2
1
-1
-1
0
-1
-1
0
0
0
-1
0
0
0
-1
0
0
0
1
-1
1
1
0
-1
0
2
-1
2
0
2
0
0
0
-1
0
1
0
0
-1
0
0
0
0
-1
-1
2
-1
-2
0
-2
0
-1
0
1
2
0
0
0
0
0
0
0
0
0
2
0
-1
-2
-1
1
-2
1
0
2
-1
-1
1
0
-1
0
1
0
2
-1
1
1
0
-1
-1
1
0
1
0
2
0
0
0
-1
0
1
0
-1
2
0
0
0
-1
1
1
1
1
1
0
-1
0
-1
0
2
1
0
-1
0
2
0
2
0
-2
0
1
0
-2
-2
-1
0
-2
0
0
0
-1
0
1
0
1
0
0
0
1
-1
1
1
-1
1
0
-1
0
-1
0
2
-1
0
0
-1
-1
2
0
-1
0
0
0
0
-1
0
2
2
-3
1
-1
-2
1
-3
-1
3
2
0
3
0
-5
0
-6
0
2
3
-4
-1
0
-2
-1
0
0
1
0
2
0
1
0
0
0
-1
0
0
4
1
0
1
0
-9
0
3
-1
2
1
0
0
2
0
-2
1
0
1
-1
-1
0
1
0
0
4
-1
-2
-2
0
0
-3
0
-5
-2
4
3
0
-2
-1
-1
0
0
-2
0
5
-7
1
0
-6
-1
0
1
1
2
4
0
-2
1
1
0
-2
1
-1
5
1
2
2
0
-3
-1
1
0
1
1
-1
0
1
-1
-3
0
3
1
-3
1
0
0
0
-2
6
1
-3
0
0
1
-1
0
-4
-2
4
2
1
-6
0
6
0
6
-1
-4
3
-4
0
-1
-5
-1
0
0
1
2
1
0
1
1
0
0
-2
-1
0
3
1
1
2
0
10
0
-2
1
-3
1
0
0
0
-2
-2
-1
2
0
-4
0
-1
1
0
-3
3
2
-2
-3
0
-1
-3
4
-3
2
6
1
1
7
-1
-5
0
-20
-5
1
0
5
-1
3
-5
1
1
2
-1
-1
4
4
2
1
0
0
9
1
1
2
2
0
-3
0
-16
-1
2
0
7
-2
-1
0
-6
-4
-3
1
2
3
0
-1
0
1
0
-1
2
0
-4
-3
1
0
-4
5
-5
5
9
2
2
-1
-1
0
0
1
-9
0
-1
9
1
1
-12
1
-1
5
-1
-4
5
4
-3
0
1
0
12
1
-1
4
3
3
-5
0
-3
-1
1
0
2
-5
-3
-1
-6
-8
-4
0
7
4
1
1
0
0
0
-1
0
0
0
0
-1
1
-1
4
-3
2
8
1
1
-9
0
8
0
19
-7
-4
-1
6
-1
2
-9
3
1
4
0
-2
5
3
1
-1
0
0
10
-2
1
2
2
1
-2
1
18
0
-1
1
-5
-4
-2
-1
-6
-7
-3
0
5
2
1
0
-1
0
0
0
2
1
0
0
-1
-1
-3
6
-1
6
7
-5
1
7
-1
1
0
-17
-3
2
-7
-2
-3
-8
-3
4
1
3
-3
-3
0
6
3
0
0
1
1
1
-1
0
3
0
-7
-1
-13
-1
-2
-1
9
0
-2
1
4
4
-3
-1
5
-1
2
1
0
2
-1
3
-8
1
9
0
4
0
-4
11
-2
7
14
-7
3
-3
-1
1
0
1
-2
0
-15
-2
3
-16
-11
2
-3
7
-3
-7
-2
5
-4
-2
1
0
3
1
-3
1
5
4
-10
1
-1
0
-1
0
4
4
-5
1
11
5
-4
-3
11
-2
7
-1
0
0
0
7
-15
-1
11
1
-3
1
-1
8
-1
5
11
-6
2
-14
1
0
0
17
-3
-3
-11
-4
-1
-12
-8
4
1
5
-1
-6
2
4
1
-4
0
0
1
-2
3
1
4
1
-7
2
13
1
1
1
-7
1
-3
0
8
5
-3
-3
9
-1
7
0
-1
1
1
6
-9
-2
10
3
-2
0
-2
-2
2
-10
5
-7
2
2
-1
7
0
2
8
0
4
-1
-3
-16
3
0
2
1
-3
6
-7
3
3
0
0
2
-21
2
0
-2
3
0
0
-1
0
0
-4
-1
1
6
-1
1
6
5
-3
-3
5
-5
1
1
1
1
2
0
-3
1
-6
3
5
1
-3
1
3
-17
12
-12
4
1
-1
-1
0
1
14
0
4
-5
3
-22
-1
-5
-3
2
-4
11
-12
2
-4
-5
1
1
-28
1
-3
-2
5
5
2
1
1
1
-1
-1
1
10
-4
1
5
13
-3
-7
8
-10
3
-1
0
0
4
3
-6
-1
-11
3
-3
1
-1
-1
2
-13
9
-7
3
-3
0
-13
0
-3
11
0
5
-2
0
-19
1
-1
1
2
-1
8
-6
2
1
-9
0
-1
-23
-2
3
-1
4
2
0
3
-1
2
2
0
-2
8
-3
0
6
11
-2
-6
7
-6
3
1
-1
1
3
3
-3
-3
-9
4
-1
0
-2
-6
2
3
1
0
2
-3
-1
5
0
16
3
-1
3
2
-3
-3
4
-3
2
-2
-1
1
-7
0
2
-1
0
1
13
1
0
-2
2
1
5
-1
7
0
-3
-2
-8
-8
0
0
-4
-5
-1
-2
2
2
-1
1
1
1
5
-1
4
1
1
5
4
1
-2
-8
4
3
5
-3
4
1
-1
-1
0
0
5
1
9
5
3
-3
5
-6
-2
-3
-2
3
-11
0
-4
-7
2
0
14
1
-3
-4
3
4
8
0
2
1
-1
-2
-3
-15
-2
-1
-10
-3
-1
-5
1
0
-3
-1
0
0
6
-2
8
0
2
2
-2
0
-1
-7
2
5
4
0
3
6
1
-8
0
-16
4
3
6
4
0
-3
5
-5
1
-2
0
2
-6
0
1
-10
1
0
15
-2
3
-2
2
2
5
2
-8
2
2
0
5
-11
-1
-1
-7
-3
-1
-5
1
1
-3
1
-1
0
5
-1
5
-2
0
4
-1
0
-2
-1
4
1
-1
1
2
-4
0
-2
0
10
-1
-2
-2
0
-2
3
0
0
1
-1
2
-2
-2
0
2
1
0
0
-1
1
0
-3
0
1
1
-1
7
-1
-1
-2
-13
4
0
0
0
0
-1
1
-1
2
-1
1
1
0
1
-1
1
0
1
5
2
1
-2
-3
6
3
1
1
4
0
-1
1
0
-1
-2
1
-1
-1
3
5
2
-2
-2
-2
1
-6
-2
0
-3
-5
2
-1
2
1
-3
-5
1
3
1
0
1
0
0
-1
-5
5
0
0
0
-1
-1
0
-3
4
-4
0
0
0
2
-3
4
0
1
2
-2
0
-1
-2
4
2
1
3
3
7
1
4
0
-10
-2
3
-2
-2
0
4
2
-3
0
-1
1
-3
0
0
1
-8
1
0
1
-1
3
-3
0
2
0
0
-8
1
0
0
9
4
0
0
0
-1
0
-1
-4
2
-3
0
-1
0
1
-4
1
0
2
-1
0
-1
-1
-1
-1
0
-2
0
-1
3
0
-1
0
4
-1
1
-1
1
0
1
1
0
0
0
0
0
-1
-1
1
0
0
0
0
0
0
1
1
2
0
1
-4
0
1
-1
0
0
0
0
0
0
2
0
0
-1
0
0
1
0
-1
0
0
-1
3
-1
0
0
-1
-3
-2
-1
-5
0
-1
-1
-1
0
0
0
-1
0
-1
2
1
1
2
0
0
1
1
0
-1
-1
-1
1
1
0
1
0
-1
2
2
3
0
0
-1
0
1
0
0
0
-3
0
1
1
4
0
2
-1
-2
1
0
0
0
-1
2
0
1
0
0
0
-1
-1
0
0
-3
0
0
-5
1
1
0
-4
-1
-2
0
1
0
0
1
0
-1
1
0
0
0
0
0
2
0
0
1
-1
0
1
2
2
1
0
6
0
-1
0
1
0
-1
0
0
1
2
-1
2
0
-2
-1
0
0
-1
-1
0
1
1
-3
0
-2
-1
-2
-3
-2
-4
1
-1
6
-1
-5
0
4
-3
2
0
0
-2
2
2
-1
1
2
1
1
0
-1
2
0
0
0
2
1
0
4
2
3
-1
0
-11
0
1
-1
2
2
-2
0
-3
3
3
0
2
-1
-1
0
1
0
-1
-1
5
0
-9
-4
2
-1
-1
-5
-6
-2
-9
2
-1
-2
0
0
0
0
-5
-1
3
-5
2
1
3
-2
-1
5
1
2
-1
1
-2
2
1
0
1
1
-1
5
5
6
-3
0
-1
0
1
0
1
2
-6
0
-3
3
6
0
4
0
-3
0
1
-1
-1
-6
7
1
-7
0
-1
0
-1
-3
-4
-2
-6
0
-1
-9
1
9
0
-3
-4
-5
1
0
0
1
2
-1
0
4
0
2
1
2
0
4
-1
0
2
-2
2
3
3
4
-1
1
13
1
-1
1
-1
2
-5
0
-4
3
5
-1
4
-1
-3
0
0
0
-1
-5
5
1
-7
-6
-1
-3
-1
-3
-3
3
-6
7
0
6
-1
-6
0
-19
-4
3
9
-8
-2
-5
1
-3
2
2
0
0
-5
4
3
0
0
1
-17
1
-1
2
3
6
-8
-1
-12
-1
-1
0
9
-3
-3
0
0
-4
4
1
3
5
0
1
1
-3
-1
-2
0
0
14
-7
4
-2
-1
-5
-5
8
-13
12
0
-2
0
0
0
2
-3
-1
13
-7
3
-6
0
-8
-3
7
0
-3
-8
6
-3
3
1
0
-21
1
-2
4
6
11
-12
1
0
0
0
0
3
-8
-8
1
7
-12
9
0
4
9
3
-1
0
-6
-1
-4
-2
0
22
-2
-3
1
-1
-4
-3
3
-10
7
0
-11
1
10
0
17
-4
-7
10
-6
0
-5
1
-6
1
6
0
-1
-2
6
1
5
-1
0
-18
-2
3
2
4
8
-8
2
12
1
1
1
-7
-6
-6
-1
3
-9
7
0
4
5
2
0
-1
-4
0
-3
0
-2
18
-8
-3
-2
0
6
-1
6
-5
9
0
4
-1
1
0
-35
12
4
-9
18
-5
1
-5
-10
2
3
-2
-9
-11
5
4
1
0
3
18
2
-1
1
3
9
-3
-2
1
-1
-6
-1
15
-1
-3
8
12
-8
5
-1
-1
5
4
3
1
-3
-2
3
-9
1
-6
-9
8
-1
0
11
-2
6
-13
17
0
-2
1
0
0
2
21
-1
-18
26
4
6
-13
-17
-6
6
-3
-15
-19
6
-5
3
1
1
25
1
-4
2
7
16
-2
1
1
1
-2
-1
5
4
-7
9
18
-18
11
-4
-5
8
10
-4
0
-7
-1
9
-16
-1
-17
-2
-5
1
0
7
-1
5
-9
11
0
-9
2
0
0
33
15
-8
-14
19
0
3
-10
-15
3
5
-1
-12
-10
6
1
5
-1
-1
21
-3
6
1
5
11
-3
4
-1
2
3
0
-10
1
-5
5
17
-14
8
-3
-3
5
9
2
-1
-5
0
8
-10
-5
-13
-6
-4
-1
0
12
2
-11
0
-4
1
-3
-1
10
0
-24
6
3
-6
-20
-5
19
-10
-6
3
-1
-4
10
-8
1
4
1
0
4
10
3
-1
-1
2
8
12
-2
15
2
-7
-2
8
10
-2
9
-10
10
3
-3
-6
-8
1
3
2
-1
0
2
-1
2
-7
-7
9
0
0
20
3
-21
-5
-3
2
3
0
-1
0
2
11
-1
-15
-32
6
32
-23
-10
-7
-3
-4
18
-12
2
-5
1
1
2
15
0
-5
-2
5
15
18
1
2
4
-2
-3
4
17
-5
11
-23
14
9
-7
-15
-13
3
-6
1
-3
2
8
-2
-1
-13
-1
-5
1
0
14
2
-15
-2
-4
1
7
2
-15
0
22
8
-7
-10
-24
0
26
-18
-12
4
-2
-1
12
-6
3
1
1
0
-2
9
-3
6
-1
4
10
11
4
-15
3
4
-1
-6
13
-4
7
-16
13
6
-6
-13
-10
3
4
0
-2
2
8
-1
-5
-12
-2
-3
-2
0
1
2
5
4
-8
1
-8
-1
7
0
0
-7
2
8
14
-5
9
-6
1
2
-5
-3
1
1
-1
3
0
1
3
-18
3
-1
-2
1
5
4
-2
15
2
-5
-2
-1
-14
-1
0
-3
3
3
-2
-6
-4
-2
3
3
0
3
-1
5
1
11
-3
8
0
0
4
5
6
3
-12
3
2
-1
-1
0
1
-11
-1
12
18
5
19
-15
2
-6
-9
-3
6
1
0
-4
-1
2
2
-23
1
-5
-4
3
9
7
1
2
4
-1
-3
0
-23
-2
2
-9
10
6
-5
-14
-10
-6
-6
2
0
5
-1
9
-1
18
1
-5
1
0
2
3
7
3
-9
2
12
2
-11
0
-1
-8
-4
10
17
0
16
-10
-1
3
-7
-1
2
2
1
1
-3
1
-1
-20
-3
5
-2
3
7
3
4
-17
4
2
-1
1
-18
-2
0
-6
8
5
-5
-11
-5
-5
3
1
1
4
0
6
-3
14
0
-1
-2
0
-2
4
0
2
-2
2
-5
-1
-1
0
9
-2
0
0
-6
-4
-1
-3
2
2
-1
0
-4
3
-1
4
0
1
2
5
3
-1
-3
-1
3
-3
-1
8
-1
-1
-2
-9
6
0
0
4
-2
2
0
-3
3
-1
3
2
0
0
-1
1
0
-4
1
5
1
0
-3
7
3
2
-5
3
1
-1
1
0
0
-5
0
4
-4
4
1
-7
2
-4
-3
-1
-8
5
0
-3
-3
2
1
3
0
-4
-6
0
5
-4
1
1
1
0
-2
-3
8
-1
0
7
0
5
0
-7
3
-5
-4
1
0
1
-4
3
0
-5
2
-4
1
0
-2
4
2
2
-2
3
9
1
1
0
-8
-3
-1
2
-6
-1
1
-4
0
1
-1
0
-5
4
1
0
-6
1
0
4
-3
5
-4
0
3
-3
3
-9
2
0
0
7
8
-1
0
6
-1
4
-1
-6
4
-4
2
0
1
0
-5
1
-1
-3
1
0
0
1
0
0
0
1
-1
-1
2
0
0
0
7
-1
0
0
-3
-1
0
1
0
0
0
1
0
-1
-1
1
-1
0
0
-3
-1
0
0
1
-3
-1
1
-3
0
0
-1
-3
0
-1
-1
0
-1
2
0
0
0
0
0
1
0
0
1
0
-1
-1
1
0
0
1
-1
-1
-1
1
-2
-3
0
0
0
0
0
-1
0
0
-1
0
0
2
0
0
2
1
0
-2
0
-1
1
0
0
-2
0
0
2
2
-4
-1
-1
0
0
0
0
-2
0
-3
0
0
1
4
0
-1
-1
-2
1
1
-1
0
-1
2
0
-1
0
0
0
0
0
0
0
0
-1
-2
-3
1
0
0
-6
0
0
0
-2
-1
1
1
-1
-1
2
0
0
0
1
0
3
0
0
-2
0
0
0
2
-3
0
-1
3
0
0
0
3
0
-1
0
-1
1
3
0
1
0
-2
-1
0
0
-1
0
0
1
-2
0
0
-2
1
0
-3
-2
2
-3
-2
3
-1
-5
0
17
-1
1
-4
10
-2
-1
1
1
1
1
2
0
-3
-2
2
-1
0
0
4
1
0
3
1
-3
-3
0
-4
0
-1
0
-2
2
-2
-1
-1
1
3
0
-1
-3
-1
1
1
0
0
-1
4
0
1
0
2
-1
2
-2
-6
-2
1
-6
-4
0
0
0
0
-1
0
0
-3
9
2
-1
4
1
-2
4
2
2
-4
0
-2
3
0
0
7
1
-1
5
3
-6
-5
0
0
0
0
0
-1
3
-5
1
1
5
7
0
-3
-3
-2
0
1
-2
0
-7
6
0
6
1
-1
0
1
-1
-4
-2
1
-4
-2
-4
2
9
0
-17
-1
-3
-4
11
0
0
3
-1
0
3
1
1
-1
1
0
6
-1
0
5
-2
2
3
2
-4
-3
0
4
1
1
1
1
2
-3
0
0
4
5
0
-2
-3
-3
0
0
-1
0
-7
4
-1
4
-2
-2
-2
2
-6
-3
4
2
-6
-2
1
0
-7
0
3
5
2
7
-20
-3
2
4
3
1
1
2
2
-6
-2
2
-1
0
2
11
2
0
2
1
-5
-4
-1
1
0
-4
0
7
-3
-2
-1
7
6
4
1
-5
0
1
1
1
-4
0
-3
-2
1
6
-3
4
-2
3
-12
-5
9
0
-8
-4
0
1
0
0
1
10
-1
14
-26
3
7
11
6
-3
3
2
0
-8
0
-3
5
0
1
10
1
-3
4
2
-10
-5
0
1
0
-1
0
2
-9
-5
0
13
5
9
1
-12
4
4
-2
1
-7
0
-7
-4
-1
4
-1
-3
0
1
-8
-3
5
0
-7
-2
-2
3
12
0
-3
7
-5
10
-22
-1
6
9
1
1
3
1
1
-4
2
0
8
-1
-1
10
-2
3
2
2
-7
-4
1
-3
1
2
0
-5
-7
-3
-1
11
6
7
0
-9
1
4
1
0
-5
0
-6
-2
-3
4
-6
-3
-2
2
-8
-1
3
-2
7
-1
-2
2
0
0
-21
8
4
6
23
-6
7
10
15
2
0
-1
-10
0
-3
4
-1
0
4
-28
3
-1
1
1
-8
9
-2
15
0
-8
-1
14
0
-1
1
-6
-8
4
1
-7
10
4
3
1
-4
-2
3
-6
2
-17
-7
8
-2
3
-14
-1
3
-9
13
-3
2
4
0
0
1
13
-1
5
34
5
13
18
23
-7
-1
-1
-17
-1
-2
-5
5
1
2
-39
1
-5
2
2
-15
14
1
2
1
-2
-2
4
5
-3
4
-13
-21
10
0
-18
17
10
-6
1
-8
-1
8
-12
-1
-31
-2
-5
1
1
-11
-1
2
-6
7
-2
6
4
2
0
19
10
-8
5
26
0
11
14
14
4
0
0
-13
1
0
1
10
-1
-1
-32
-3
6
1
1
-12
10
3
-16
2
4
-1
-11
2
-2
1
-8
-16
7
0
-15
11
9
4
0
-6
0
7
-7
-5
-25
-9
-4
-2
3
4
2
-11
-8
15
-1
-9
1
8
0
-27
-10
5
-12
-14
-6
-11
7
19
3
-6
-3
8
8
-2
4
0
0
6
12
3
-1
-1
0
-7
9
-2
22
2
-7
-1
11
10
1
2
-10
-5
4
0
-2
1
0
3
2
-1
-2
3
1
1
20
-11
10
-1
3
6
3
-19
-17
24
-1
4
3
-2
0
0
-15
-1
-22
-22
6
-14
12
30
-9
-13
-3
15
12
-1
-5
5
1
3
15
0
-6
-2
0
-15
15
1
2
4
-2
-3
4
17
1
5
-23
-12
8
-2
-9
1
1
-9
2
-4
-1
11
0
-1
27
-4
-6
1
1
4
2
-13
-13
16
-1
17
4
-14
0
27
-12
-9
-17
-17
1
-11
8
19
5
-10
0
10
9
0
0
8
-1
-2
13
-3
7
-1
0
-12
9
4
-23
3
3
-1
-8
13
0
2
-16
-10
6
-1
-7
0
1
7
1
-3
0
10
1
-5
22
-7
-4
-2
2
6
2
5
-8
3
0
-10
-1
7
0
-11
-4
4
1
5
-6
-13
1
7
2
-6
-2
3
7
-1
4
0
0
5
8
3
-1
-2
-1
-4
-5
-2
15
2
-3
-2
3
-13
1
-2
12
5
3
0
3
-8
-3
3
3
0
-1
0
4
0
-6
-9
8
0
3
11
4
7
-15
6
-1
3
0
-1
0
-1
-10
-1
-2
3
6
-21
1
14
-7
-12
-3
9
12
0
-4
3
1
2
13
0
-5
-4
-2
-8
-5
1
1
4
0
-3
1
-22
2
0
17
8
6
-1
2
-14
-7
-9
2
-1
0
1
8
0
0
-2
-5
1
1
8
2
8
-12
3
0
17
2
-11
0
12
-6
-9
1
5
0
-16
1
9
4
-9
0
5
7
1
0
5
-1
-1
9
-3
6
-2
-1
-6
-6
3
-15
4
1
-1
-3
-17
2
-1
14
7
5
-1
2
-10
-5
7
1
0
0
2
5
-2
-1
-4
-1
-3
2
1
4
-1
-4
-3
1
-3
-1
0
0
2
2
3
2
-1
-5
-1
0
3
2
2
-1
-4
3
0
4
0
1
3
-4
3
-1
-4
-3
-2
-4
-1
2
-1
1
-2
-4
6
1
-1
-2
0
3
1
2
0
0
3
2
0
-1
-1
0
-1
-2
-4
6
0
3
3
7
2
-9
-4
1
2
-1
0
0
-1
2
-1
5
2
5
-5
-3
4
-5
1
-1
-8
5
-1
-3
0
2
1
-4
0
-4
-6
-5
-5
-6
1
1
1
1
-2
-1
7
3
0
3
4
5
1
4
-3
-4
-6
1
-1
-1
-4
2
0
-5
0
-5
2
1
2
4
0
-7
-4
1
7
1
-1
0
-1
2
-6
4
1
0
-3
-2
3
1
2
0
-5
2
0
0
1
0
-1
-4
-3
5
-4
-4
-4
-3
3
-3
2
-1
-1
4
7
3
0
1
2
4
0
4
0
-4
3
0
0
0
-5
0
0
-3
2
0
0
0
0
0
0
1
0
0
1
0
1
0
0
0
-1
0
-1
0
-1
0
1
0
0
1
0
0
1
0
-1
0
-1
4
-1
0
0
1
-1
-1
1
0
1
-1
-1
-6
0
-1
-1
0
0
-1
0
-1
0
0
0
1
0
0
1
0
0
-1
3
-1
0
1
1
-2
0
2
-1
-1
1
0
0
0
0
1
0
0
0
1
-1
0
2
1
1
0
0
-1
1
0
-1
-1
0
3
0
0
1
1
-2
-1
-1
0
0
0
0
-3
-1
-2
0
0
1
-2
0
-2
-1
-1
1
0
0
0
0
1
0
-1
1
1
0
1
1
0
0
2
0
-1
-1
1
-1
0
0
1
2
0
-1
0
1
0
1
0
1
0
1
0
1
0
-1
-1
1
3
0
0
0
1
-1
-1
-2
1
0
0
0
4
0
-1
0
0
0
-2
0
-2
0
-1
0
0
-1
0
0
0
1
0
3
0
-1
2
2
-3
-1
1
1
-2
0
-1
-4
0
17
1
-1
-2
3
-2
1
-1
2
1
1
2
0
0
-1
2
-1
0
0
-11
0
0
3
1
-1
0
1
1
0
-2
-1
-7
2
-1
0
2
-2
-2
0
-1
-1
-1
0
1
1
0
-1
2
1
2
4
1
-1
3
3
-5
-1
3
0
-4
1
0
0
0
-1
3
0
-3
3
2
0
-2
3
-1
2
2
2
-1
-1
-2
0
0
0
-11
1
-1
5
0
-4
-1
0
0
-1
0
0
-3
2
-2
0
3
0
-3
0
-4
-3
-1
0
1
0
0
-6
3
0
5
2
-1
0
1
3
-4
-2
2
1
-3
0
2
8
0
-16
2
2
-2
3
0
1
-1
1
0
1
0
1
0
1
1
1
-1
0
-10
-1
1
3
1
-2
-1
-1
-1
0
1
1
5
2
-1
0
3
0
-3
0
-4
-2
-2
0
0
0
0
-6
2
0
4
4
-1
-1
3
2
-2
3
3
-3
-2
-3
-1
-7
0
17
3
-1
-1
-3
-2
0
-3
2
1
0
2
2
3
-2
2
-1
0
1
4
1
0
2
0
-1
1
0
7
0
-4
0
0
-3
0
0
-1
3
-2
0
0
-3
2
1
1
0
0
-3
-2
1
-5
4
3
-1
4
1
-4
7
9
-8
-5
1
1
0
0
0
5
1
2
-6
3
-4
-3
5
-2
0
2
1
4
-2
-3
2
0
0
10
1
-3
3
-1
-5
2
0
2
-1
-1
0
0
-7
0
0
-2
8
-5
0
-2
-3
5
-2
0
-1
0
-8
-4
0
-11
2
-2
0
2
3
-3
4
6
-4
-3
4
2
11
0
-17
3
1
0
-4
0
-2
-2
2
1
0
1
1
2
0
0
4
-2
-1
7
-2
2
2
0
-3
0
1
-8
0
2
0
0
-6
0
0
-1
7
-4
0
-2
-3
4
1
0
-1
0
-7
-2
-3
-9
3
-3
-2
3
-5
-1
2
8
-11
-3
-5
1
-2
0
5
-3
1
7
0
-5
-7
-2
-5
2
-2
0
-6
7
-1
3
-1
0
3
15
2
-1
1
-1
-1
7
-1
14
-1
-6
-1
7
1
1
-1
-8
3
-3
1
4
4
3
3
1
0
0
1
-3
1
4
3
7
-2
4
-12
-1
1
17
-15
-5
2
3
0
0
0
-5
0
12
4
5
-15
1
-4
-6
-6
0
-11
10
-2
-4
4
0
2
16
1
-5
2
-2
-6
11
1
2
-1
-1
-1
2
4
2
0
-15
1
-5
1
5
10
7
-6
0
-1
0
4
-8
-1
2
2
-4
0
2
-8
-1
1
12
-12
-3
10
4
5
0
-5
-4
-2
9
2
0
-10
0
-5
3
-5
0
-9
7
0
0
7
-2
-1
15
-3
5
1
-2
-3
7
3
-15
1
3
-1
-6
2
2
0
-11
2
-5
1
4
6
7
3
0
-1
0
4
-4
-5
2
-1
-3
-3
3
-5
2
-7
10
-1
-1
-8
0
5
0
-9
-5
2
-2
2
-6
1
1
-14
2
-5
-2
3
4
0
4
-1
0
5
-15
2
-1
-2
-2
-1
-2
-2
13
0
-4
-1
8
5
2
-1
8
-4
-2
1
6
7
-1
3
1
1
-1
2
1
1
5
-1
8
-2
4
-10
3
-13
17
1
-3
3
2
-1
0
0
-11
0
-6
3
5
-6
7
-18
-7
-12
-1
7
9
-1
-4
3
0
3
-19
0
-5
-2
-4
-7
-1
1
1
0
-1
-2
3
9
5
0
8
-11
-5
1
10
12
-1
-9
1
0
0
8
1
-1
14
0
-6
1
1
-8
2
-9
14
-1
-2
14
3
-10
0
9
-7
-4
-4
1
0
-2
4
-14
4
-10
0
5
4
0
1
7
-2
-1
-15
-3
6
-1
-3
-4
-3
3
-14
1
2
-1
-6
7
3
-1
8
-9
-5
0
8
8
-1
7
0
0
0
8
1
-4
10
-4
-3
-3
2
0
2
5
7
6
-1
-4
-1
6
0
-8
2
3
-4
-2
-5
10
2
-10
2
0
-2
4
1
0
3
-2
0
3
-1
3
-1
-2
-3
-2
-5
-1
1
0
1
-2
4
-7
3
-1
2
0
-2
1
2
-3
-3
3
1
0
-1
0
2
1
-11
-4
7
-1
3
1
3
6
11
9
-2
1
0
0
0
-1
2
-1
-8
-5
5
8
6
-14
-5
-3
-1
9
2
0
-3
2
1
2
-1
0
-4
-4
-5
-6
-7
1
1
0
1
-2
1
-13
5
0
10
-2
-4
0
7
-5
-6
-9
1
0
0
3
5
0
-13
-1
-5
1
1
0
2
7
9
6
-1
8
2
-9
0
9
3
-6
-5
-4
0
8
4
-9
3
-2
0
6
-1
0
0
5
-2
-1
0
-2
5
-2
-4
-4
-6
3
-2
1
0
-1
-4
-10
3
-1
6
-1
-4
0
5
-4
-5
6
0
0
0
3
3
0
-10
-4
-1
-3
1
2
3
-1
3
3
-1
2
-1
1
0
-2
1
3
1
2
-4
1
1
-3
2
5
-1
-4
-1
0
4
-1
0
1
2
2
-1
-3
-3
-2
0
-1
-11
-1
3
-1
-1
3
2
0
-4
1
-1
0
0
-2
0
3
1
0
0
-1
0
-1
6
-4
5
-1
2
3
5
2
4
4
-1
-2
-1
0
0
-1
3
-1
3
3
5
1
2
-5
-3
6
-1
-6
-2
0
-3
0
1
0
3
0
-4
-5
-6
-5
-2
1
-1
-1
1
-1
0
4
4
0
-3
2
-2
0
4
-5
-3
-6
0
0
-1
-2
0
1
3
-1
-4
2
1
2
3
0
4
3
0
-5
1
-2
0
3
1
-6
3
2
0
1
1
-2
1
6
0
-4
-3
0
0
1
-1
0
2
-2
5
-4
-5
-4
1
2
12
1
-2
-1
1
4
4
0
-4
2
-2
0
3
-3
-2
3
0
0
0
-2
-1
2
4
0
1
1
0
0
0
0
-1
0
1
0
0
0
0
-6
0
-2
0
0
0
0
-1
-1
-1
0
1
0
0
0
0
0
0
-1
-2
-1
0
0
0
1
0
1
0
1
-1
-1
-6
0
0
0
0
1
-1
0
0
0
0
0
1
0
0
2
0
-1
1
1
-2
0
1
1
-1
0
0
0
0
0
-1
0
0
1
0
0
-1
1
1
0
-1
-1
1
0
0
-1
0
0
-1
-2
0
0
-1
0
0
1
-1
2
0
-1
0
0
-1
1
-2
-1
0
0
0
0
-2
1
0
0
0
1
0
0
0
2
0
0
0
-2
1
0
0
0
0
0
0
0
0
0
0
-1
0
5
1
5
0
1
-1
0
0
1
-1
1
-1
0
1
0
0
-4
-1
1
-2
1
0
0
0
1
1
-2
1
0
0
1
5
0
1
0
0
0
-2
1
-1
0
0
-1
0
0
-1
2
1
0
-1
3
1
0
2
-1
-2
0
-1
0
-1
-1
-1
-3
0
6
0
-3
0
-2
-1
0
0
-1
1
0
2
0
1
-2
2
0
0
0
6
0
0
2
-1
1
0
1
2
1
-2
-1
-9
0
1
0
0
1
-1
0
1
-1
0
1
0
0
0
0
1
0
1
3
0
0
3
1
-4
0
-2
1
-2
-1
0
0
0
0
0
0
-1
-3
2
0
-1
-3
0
0
2
1
1
-2
-2
-2
0
-1
4
0
-1
4
-3
3
0
0
-1
-1
-1
1
-4
1
1
0
-1
0
-4
0
1
-1
0
0
0
0
0
-3
1
0
0
0
0
0
1
0
-3
-1
-1
0
-2
1
1
6
0
-6
0
6
-1
-2
-1
-1
0
0
0
0
0
0
0
-2
0
-4
-1
0
5
0
1
2
-2
2
-1
-1
-3
0
1
1
7
0
1
0
0
0
-3
0
1
-1
0
0
0
0
-1
-3
0
-1
0
4
0
0
3
2
-2
3
-3
2
-2
-3
-1
-5
0
12
1
-3
-1
2
-2
-1
0
-2
1
-1
2
0
1
-2
2
0
0
0
-5
1
0
2
-2
2
2
0
5
0
-3
-1
-5
-1
1
0
-2
-1
-2
0
1
-3
3
2
0
0
0
-3
-1
1
-1
5
2
0
4
4
-3
4
-3
3
-4
-1
-1
0
0
0
0
0
0
3
3
0
-1
-4
-2
-2
2
0
2
-3
-3
-2
0
0
-7
0
-2
3
-4
4
2
0
0
-1
-1
0
-2
-3
4
0
-5
1
-5
0
4
-4
4
-1
0
0
0
-7
-3
0
-4
0
-2
0
2
3
-2
3
-3
3
-3
4
2
9
0
-12
0
6
-1
3
-1
-1
-1
-1
0
-1
0
0
0
-2
0
-3
-1
0
-6
-1
2
2
-3
3
1
0
-5
0
1
0
4
-3
3
0
-3
0
-4
0
3
-3
4
0
0
1
0
-7
-2
-3
-4
6
-1
-1
3
2
-1
0
-5
0
-3
-2
-1
-3
0
13
-3
-2
2
-3
-4
3
-1
-2
2
-1
1
-3
-1
-1
3
-1
-1
2
-3
1
0
1
-2
2
2
-1
6
0
-3
-1
1
2
2
0
2
1
-2
0
1
-2
1
3
1
0
0
0
-2
1
3
6
4
-1
4
2
-1
-1
-5
-2
-5
0
-1
2
0
0
-4
1
5
-4
4
5
-2
-5
-4
-4
2
-5
0
-2
-4
0
0
0
-1
0
-4
2
-5
6
3
0
0
-1
0
-1
0
4
5
0
1
3
-6
0
4
0
5
-4
0
0
0
0
-4
-1
6
2
-3
0
2
3
-1
-1
-4
0
-4
6
2
7
0
-13
-3
4
3
-2
0
3
-2
0
1
-4
1
-4
-2
-2
0
1
-2
-1
-2
-2
5
2
-4
5
2
2
-6
1
2
-1
-1
3
4
0
1
3
-5
0
3
-1
4
1
0
0
0
-1
-3
-5
4
5
-1
-2
3
-1
1
-5
-4
-4
-2
-2
-2
3
0
4
0
-2
2
3
-5
2
-1
3
2
0
-1
0
-3
1
3
0
-1
2
6
2
-1
-1
-3
2
-3
-1
0
1
-1
-1
4
2
3
0
2
0
-2
0
-1
4
-2
4
1
0
0
1
1
1
-4
5
5
-1
4
-4
2
-8
-4
-6
-5
1
-1
1
0
1
-1
1
2
4
5
5
-2
0
-4
-3
-1
1
-3
0
-4
1
0
1
7
0
-5
-2
-6
6
-5
1
0
-1
0
0
1
3
6
0
6
-1
-6
0
2
7
-2
-6
0
0
0
4
1
0
-2
2
-4
0
1
-2
2
-6
-4
-5
-4
5
1
-4
0
-5
0
3
1
4
0
3
-2
5
2
-2
0
1
-4
0
0
2
-2
-1
6
-3
5
-1
-5
4
-4
3
0
1
0
0
-3
3
4
0
4
-1
-5
0
1
5
-2
2
0
0
0
4
1
-3
-2
3
-2
-3
1
-2
1
2
-2
-2
-2
2
-1
4
0
-2
1
-1
-2
-3
-4
-4
-1
3
2
4
-1
4
-2
1
3
0
0
0
-1
2
-1
-2
-3
3
-1
-1
-12
1
3
-1
4
-4
2
0
-2
-1
-1
0
-1
1
-2
3
0
0
0
0
1
0
2
3
5
-1
2
-4
3
2
-1
-3
-4
-2
-1
-1
0
1
2
1
-4
-4
4
0
0
3
-4
5
0
7
-3
1
-3
1
1
0
-1
0
-4
-3
-6
6
-3
1
-1
-1
2
0
1
-5
5
0
0
-2
-3
0
0
2
-4
-5
0
0
0
3
3
0
0
1
-3
1
1
-2
1
4
-2
-2
-3
-5
1
-7
0
1
2
1
-4
-3
0
-3
0
4
2
4
0
4
-3
0
0
3
-2
-1
-1
-2
5
-2
-5
5
-1
2
13
1
-2
0
-3
-5
3
0
-2
-2
-3
0
0
2
-4
2
0
0
0
4
2
0
1
0
0
-3
1
0
2
0
-1
1
-1
7
-1
2
0
-1
0
1
0
1
-4
0
1
0
1
4
-1
-2
-1
1
3
0
0
-1
0
2
0
-2
-1
2
1
0
-18
0
5
-1
0
1
0
0
1
1
0
0
-1
-1
0
4
0
1
-1
0
0
-1
0
1
4
0
2
-1
4
1
1
1
-3
-3
-1
1
0
1
1
0
0
1
4
1
2
0
-3
7
0
-3
-2
0
-3
0
1
-2
-1
0
-4
-4
-4
3
0
0
-2
-1
2
1
0
1
2
0
-1
0
-2
0
-1
-2
-1
-4
0
0
-1
-1
1
1
-1
0
-3
2
0
0
3
1
0
0
-2
-13
1
-3
0
0
0
-1
0
1
-1
-1
1
0
1
6
1
-2
-2
0
0
1
-1
0
-1
-2
4
-3
-3
2
1
0
19
0
-4
0
0
1
1
-1
-1
0
-2
0
-1
-1
-1
1
-1
1
0
0
0
2
-1
