331
544
232
341
-1000
1906
-147
-21
843
-1320
-347
-1025
1122
311
-3214
-33
75
-126
-688
-19
686
906
526
-364
-283
883
-96
-258
84
-148
133
127
-861
913
-748
60
891
2528
1957
-18
-2213
461
12
203
-183
-91
1043
565
1044
-360
512
1960
-332
-476
1398
62
-152
717
-359
-246
-17
358
-1159
755
-2935
-28
333
1084
937
257
-3221
-170
1848
-761
-1588
-232
0
-1647
2230
2210
8
-939
-3600
1538
-7
-1
885
1384
-382
489
1200
801
-529
1869
-714
1038
-1924
523
-75
1511
-56
-175
-460
-246
520
1938
547
1238
1058
632
-38
636
87
176
-720
-208
-497
994
2450
1950
-382
540
-1202
577
-1829
362
-484
-970
-736
1438
-1690
-619
-56
1877
1282
374
499
596
-480
-2055
1274
20
-101
425
154
-1636
-1485
0
349
-7
194
2730
584
957
1833
-1111
-508
-5
295
-722
-133
1497
-1962
2375
-222
1176
1479
809
-84
2227
791
398
633
-66
-177
1082
168
647
1588
1656
682
286
44
931
383
-1436
1356
581
734
1836
275
424
1044
466
1077
685
-211
1138
-1667
-103
-93
0
-523
2450
268
406
7
-308
-21
0
-674
-15
793
-107
-278
1527
-428
550
1048
644
-1129
129
606
-113
641
-1776
-652
0
722
-1062
659
1017
2380
-251
1685
-471
112
765
449
-1391
-230
-283
-563
13
46
1029
1651
641
-856
-1068
520
289
809
103
1790
-1717
1979
1740
-502
134
305
407
-477
2158
-39
-179
162
614
1268
-999
284
1645
503
684
411
-536
92
386
2400
-492
320
193
137
259
308
390
-516
0
1227
-184
48
0
360
718
725
1551
-830
271
-109
519
373
-40
212
587
-718
1335
-1219
544
-5
362
-757
560
763
-1878
234
-936
0
371
315
403
-804
-555
-1
-935
-227
1845
1250
1851
677
-327
-42
180
537
285
-915
-2184
-747
397
-30
-1288
1980
1277
-1
0
-146
319
373
-484
1074
2214
-205
160
1432
1477
-196
-906
-803
-72
-1227
-264
-429
273
-299
900
888
-394
-716
0
-1903
1771
-767
1045
994
614
-1112
-625
598
-657
-546
-102
-1662
-868
-510
607
2187
-2037
1396
786
-43
501
951
-596
-333
-1147
404
293
-34
-5
98
1000
598
36
-4202
-903
-290
0
447
1105
399
-55
127
938
1906
299
78
1301
1627
1413
467
163
-2493
942
712
755
-240
276
527
-140
341
-34
558
-518
665
87
-276
-1023
130
0
-42
694
322
17
2514
1439
7
1839
1107
402
-909
3610
269
-1714
-271
-107
1171
198
1110
166
0
662
185
-87
2164
-46
-492
848
173
-299
-401
-2135
-3
-399
-342
947
-322
-1307
1656
874
-125
-115
2078
47
2655
10
169
393
-937
88
-734
-421
-367
1184
463
4345
921
606
491
306
-467
217
2431
-521
-2771
-782
-608
228
-40
-730
125
-328
102
1557
-594
2560
-109
106
857
-1220
641
959
252
-145
706
2516
-381
33
1070
359
1092
388
752
-288
3169
1044
248
-295
1571
524
243
1151
198
1703
-671
544
-686
-104
-1231
-608
-252
1193
1447
-300
-105
-667
2153
949
1672
918
-2831
118
544
997
-946
1072
-345
-527
-891
-905
14
323
327
463
486
-1380
784
-280
3477
611
-182
-881
34
607
741
-793
714
831
-958
1000
896
-98
-67
-811
-1022
426
12
56
-363
344
723
1691
-201
-844
-7
1170
-1181
-18
-87
-284
363
-26
-88
1884
2333
-289
-2894
862
-598
360
802
213
1042
-212
1286
0
-797
828
-327
980
231
3839
-155
-434
1554
667
937
-1398
-254
-232
768
386
511
477
-2665
-20
-178
-333
333
6845
-223
2521
1817
-196
-507
-74
376
2054
-345
136
-554
1060
-117
-378
324
993
-946
1937
248
2518
1432
842
1240
79
537
10
826
-1302
475
97
325
508
-111
-1287
947
-542
506
-977
-161
661
536
278
-241
-341
-75
1710
499
1905
1340
353
-332
-67
299
-2245
-307
395
-206
-1029
1348
1202
2396
853
43
-310
1533
-3
-355
-13
-814
-946
524
600
-138
396
370
-903
282
-430
-1659
699
2491
-1564
-162
949
145
-632
276
93
-1926
518
-2797
-693
-15
97
521
1443
279
208
964
-37
1145
261
-9
2164
-1057
-82
52
149
94
2373
898
1789
518
-388
111
85
668
-749
554
830
-387
-57
1873
-139
364
-247
-18
457
564
-532
-493
160
1071
137
1674
3207
664
552
-1349
-337
-321
-545
784
-195
218
-337
196
-274
-60
-4
-15
605
1730
-29
2435
-9
569
-898
-791
-1125
205
1042
557
-1132
-1574
543
527
-2752
-742
-101
-100
86
-1716
-686
317
-206
100
-129
216
0
-89
560
-1866
438
764
1331
125
611
4
787
2137
-9
324
1442
-533
-443
276
564
-1047
-1474
-2429
1156
-584
-58
968
-1046
0
-662
89
2875
-450
-949
-157
369
1049
-487
591
-812
-15
75
706
476
-1653
-509
-137
0
747
262
261
-146
129
1121
-937
-129
-1
32
-84
837
51
-199
463
-161
-36
1672
-575
537
-471
181
703
-65
637
-589
608
-327
-1235
-76
-308
-1405
1186
-401
-77
-104
71
671
-316
317
1006
0
-2
-326
-1091
-953
15
-662
-431
2368
-2
-686
-752
2444
266
-608
-720
-398
-562
688
29
837
0
-118
-1412
40
572
-1
-658
-476
1119
541
642
-157
901
327
-312
-384
463
-72
599
-119
871
-149
-1766
-5
-2527
1988
-1226
270
147
-1939
552
-645
460
0
-449
-365
947
-21
-125
-1627
396
-622
713
137
309
-679
455
-445
-60
0
2838
187
260
446
-1170
214
2233
439
619
719
770
-66
616
-872
317
-22
-3
695
98
365
-1252
300
-434
630
-417
-20
238
-264
-3112
-195
993
-228
594
-156
-455
1578
587
-591
