125
856
279
16
153
861
-346
337
418
122
6
-285
94
1007
-239
424
1144
202
-282
475
158
127
-226
-157
243
449
-120
-335
534
-336
311
-508
-263
540
-93
394
-271
286
953
342
187
255
340
87
625
448
45
-978
195
213
608
730
-1313
218
969
401
419
-63
156
102
-397
586
197
484
327
357
344
-171
-123
477
-24
1288
-122
-201
-109
169
-58
580
505
273
-212
-524
237
165
195
137
221
877
273
-113
197
-325
162
199
472
479
387
1055
-184
164
-282
414
570
673
353
395
415
237
278
429
557
680
158
-3160
97
412
142
943
214
-215
455
74
249
361
178
246
178
581
13
551
543
518
88
839
376
363
411
-761
-504
898
513
272
110
559
-56
142
387
-287
123
773
18
660
152
223
-581
1050
308
456
-323
485
270
-239
1299
480
63
681
-70
925
410
-319
433
126
311
249
757
310
-92
-92
387
835
-73
227
196
452
249
384
511
19
441
554
40
442
271
-351
750
544
-538
431
549
-256
150
247
320
68
334
713
17
-81
533
6
239
429
-7
789
333
162
-624
-15
437
146
652
346
79
206
34
84
791
601
99
36
222
467
79
-414
569
-168
10
421
180
-73
433
184
335
-17
-764
-548
488
319
401
-646
-435
420
-183
-410
264
-208
579
14
66
80
-192
327
-64
-154
975
34
-206
115
-492
-204
187
876
669
306
825
-162
-2
125
279
339
654
150
-690
1
472
451
-113
-221
-114
148
184
270
109
935
414
1006
551
264
145
187
673
-311
72
-39
185
587
613
582
545
-22
-1778
302
186
-183
-201
-209
-159
869
559
682
622
-552
245
-192
259
473
-108
819
334
230
-98
16
-432
537
33
-128
625
119
89
753
398
600
112
-468
203
-159
-830
-118
-242
7
1120
-322
-59
839
299
195
-1095
434
173
329
-61
31
421
-394
159
-244
520
-42
647
392
448
-157
-226
530
48
89
490
422
-865
659
-129
241
426
169
366
421
-30
531
665
219
888
354
800
541
-278
23
-136
-406
-1596
-11
83
307
1429
77
1299
3
733
717
-314
1057
443
98
23
-598
-287
388
406
494
176
-170
184
30
-155
140
301
481
-29
977
165
-2368
63
735
582
114
338
280
-480
-737
42
458
-125
670
-1926
81
315
669
-815
358
547
6
446
361
255
-10
-41
5
273
836
-20
-1136
-127
668
24
998
-62
544
574
-139
8
-34
610
603
24
43
331
461
-2725
110
727
414
-3
555
-446
377
-447
248
485
449
-34
-39
10
262
0
245
-160
403
683
215
435
661
694
-102
-15
571
484
-7
557
1060
18
327
128
-419
-215
749
-327
-110
1019
465
232
2
-97
3
595
443
290
663
458
109
743
549
-70
364
513
647
627
-51
212
33
882
348
921
-237
39
908
560
164
-316
793
-90
213
-374
-404
42
119
-404
83
616
319
-19
384
853
452
-22
510
1050
792
414
-232
-1910
182
123
474
58
-146
378
74
-758
229
518
105
388
178
-302
192
-244
451
72
-41
592
-314
125
-135
542
349
-292
593
477
809
285
-101
595
-362
127
373
178
-310
107
-86
-277
-243
378
-23
294
-476
284
457
227
559
107
1199
337
945
527
241
-152
73
-521
609
-891
-55
260
229
-153
-246
-357
201
147
931
601
-50
-25
341
-547
239
650
328
-792
757
-311
-181
415
-104
390
341
568
-571
515
-465
573
414
-104
207
218
1044
303
-154
731
194
150
163
709
64
-164
-473
924
811
734
-901
198
-861
422
-126
281
615
-190
186
-923
622
307
-408
560
201
68
374
264
127
304
782
85
-41
174
-720
-419
665
2767
476
56
72
220
-54
1030
-59
437
-240
874
-314
509
291
-40
326
506
280
468
-132
408
74
470
-507
417
-2123
77
286
516
-137
125
-615
601
580
4
375
279
456
-863
319
334
-256
756
511
249
-424
460
-367
349
254
308
159
68
990
915
-410
515
61
-339
223
765
-136
657
193
210
530
-160
614
-88
269
-673
26
-63
1207
568
-24
218
825
57
288
234
51
362
-484
317
148
-481
10
463
224
385
-84
436
140
-4892
113
718
83
-45
-46
798
794
321
415
-27
473
736
7
585
-3
132
178
654
266
-76
-489
-131
452
53
287
-407
610
366
43
301
-612
487
242
136
145
-121
429
26
711
451
800
512
409
1021
387
230
-92
201
558
60
801
-168
423
626
-476
734
230
774
340
-55
177
133
285
36
218
254
402
362
633
193
166
-122
-672
633
34
281
-705
-14
-402
645
1
780
309
948
320
661
-47
-137
746
383
624
358
-345
-146
234
111
-304
-633
493
749
-121
-370
1218
239
-100
330
542
268
212
718
355
-47
841
492
361
-266
202
-275
241
230
-89
371
720
723
-78
-1859
431
679
-142
87
64
751
219
-755
-360
429
342
680
132
83
132
394
418
224
453
592
-1075
-37
-53
-364
-230
147
-158
-86
564
276
-85
343
-375
-291
-81
-194
177
-92
278
8
211
425
-25
728
489
950
595
-186
22
96
896
294
-226
538
561
212
528
-837
-22
137
790
-159
986
457
-81
173
447
392
821
711
-559
311
-429
371
237
-481
445
332
-16
394
47
225
121
442
163
638
17
1110
129
90
-72
-214
507
259
150
-192
-213
-373
365
450
363
-72
564
367
462
236
302
93
-142
-144
378
-220
-344
43
162
251
-397
178
351
-498
247
459
-292
1379
355
651
291
-97
646
671
566
121
-142
571
-57
488
82
397
351
-1495
598
34
69
207
433
480
737
-308
1153
-44
693
417
39
-1591
827
-96
275
-77
-148
-80
272
103
438
-256
-585
76
169
901
483
47
602
302
401
39
-281
471
356
462
-62
114
-126
874
-133
1070
247
196
1191
246
309
810
769
-282
-977
-119
197
171
-9
327
-653
1376
716
641
-55
12
653
519
703
1059
-170
-101
-61
-67
198
-51
133
348
614
-67
-41
456
490
-774
587
747
491
502
130
165
68
273
1028
461
396
39
738
1309
341
-56
-69
469
-393
109
36
802
278
640
165
347
-558
93
21
486
309
198
705
676
-931
118
264
-230
146
567
-165
837
149
319
262
292
-311
64
91
832
441
2
51
62
442
940
3
505
25
-183
312
415
629
87
146
207
-140
675
165
98
894
-181
985
-231
511
-368
-305
214
339
555
85
858
424
432
206
337
249
586
341
-175
-165
-136
641
337
432
292
1039
259
314
564
231
115
246
20
406
482
-227
-694
651
-326
371
-61
-474
412
-2634
439
120
708
489
236
56
-139
739
578
51
718
313
-53
589
11
442
-286
27
199
568
1184
562
-609
-32
-176
-67
673
593
333
29
-254
117
180
677
-67
1129
204
755
587
394
-162
271
-240
-269
123
540
1280
-55
81
333
-268
793
596
483
146
84
358
816
683
272
903
313
813
507
402
513
946
334
389
531
409
-320
188
-163
890
-806
281
89
755
561
-64
463
188
-185
513
795
-79
286
-321
660
-33
667
-10
432
550
-28
283
-612
911
586
-202
745
91
248
553
-184
21
319
296
234
-441
-100
306
441
-51
897
416
-504
376
94
508
307
-11
163
-144
506
440
199
842
541
-673
213
136
-198
328
-786
672
238
-501
516
609
811
615
89
412
126
77
917
-295
-513
-209
-14
107
999
484
755
566
-373
338
363
895
-429
-77
37
479
783
-393
64
364
-83
143
-84
463
205
-129
471
17
354
704
397
92
184
1314
-716
428
969
568
-309
704
967
122
478
259
486
8
352
-463
441
-693
159
287
632
299
131
196
984
899
474
516
-195
25
858
-77
-156
397
758
436
481
484
726
72
51
702
-355
344
169
-125
1128
327
67
-150
-1037
-104
489
239
1053
-33
36
177
247
503
-39
279
-15
567
178
732
307
683
-2486
210
-14
941
78
546
-503
-383
22
-84
132
114
853
179
179
-218
-169
105
296
128
282
251
-747
-256
-8
171
-40
348
-61
-214
442
394
70
107
156
450
-122
-469
219
327
-490
-55
145
489
-114
304
775
689
-402
666
-263
-324
135
396
387
513
504
22
248
467
1034
-543
-169
-414
394
132
577
585
237
377
-11
88
561
297
-45
-687
712
183
-488
788
-212
560
1168
-331
-304
-1417
-536
-91
-435
720
-188
684
557
-105
164
92
-29
593
1124
98
-203
439
69
-118
-106
-321
-117
588
535
620
466
596
32
281
139
-256
76
448
546
-80
-38
45
288
231
32
228
59
103
737
278
864
840
-238
-197
462
148
-285
562
973
34
709
972
649
83
263
-547
103
333
344
-7
-218
510
-194
250
-189
-140
1147
163
191
578
11
-193
278
1006
33
-67
168
423
694
372
528
86
416
66
156
408
599
666
515
-1015
112
-72
492
122
-367
-281
703
684
-486
-412
706
-58
500
640
435
714
102
746
599
3
196
305
136
92
-69
116
-272
241
0
300
522
603
83
-4
61
-7
142
728
1007
268
-501
1252
35
201
-395
-96
441
356
149
425
349
-92
291
-526
68
309
-198
-89
510
1421
81
38
209
402
549
410
313
-451
4
251
320
1191
399
52
793
470
492
-73
469
391
-124
848
362
159
-261
-281
-27
-196
-187
373
133
656
-645
441
-205
85
-164
738
389
147
226
520
-123
909
-13
-729
353
1271
448
1008
258
-63
-36
558
-717
493
96
652
98
605
-552
330
578
429
116
-376
274
118
-135
-181
176
80
713
-88
227
258
864
-1
57
-139
-54
585
-31
-183
115
-928
246
-247
986
353
818
779
533
11
415
199
1098
81
-68
78
416
878
-377
542
508
132
584
38
265
-523
300
51
421
51
465
-226
188
526
252
622
-343
483
1187
146
-248
84
159
-173
443
-5
564
191
-212
420
119
602
357
-574
683
-8
-7
270
688
101
-735
127
207
226
49
213
-337
73
780
450
90
-199
275
200
99
79
484
-417
510
136
-545
-445
-101
19
-281
-110
194
278
167
-1358
-35
341
514
119
-154
-263
376
-173
743
464
443
647
204
-270
599
81
-382
873
122
-574
186
-30
-89
15
248
247
-197
120
-647
790
-103
-321
-3020
428
737
184
-163
523
558
-837
506
233
-255
482
86
453
556
447
763
111
-93
738
-79
974
424
348
-114
-387
90
80
125
363
-561
664
-57
-90
4
259
302
310
111
548
79
177
271
326
-132
347
33
526
-197
1189
954
226
218
-196
-352
643
428
80
80
716
1223
-1338
349
44
189
663
-37
259
10
-494
442
2
681
-342
526
785
-50
-536
645
257
194
613
373
481
45
435
-298
695
557
171
122
