2070
2680
1412
2629
4620
1786
-5743
963
3570
1240
172
-20
-2953
2299
-2237
809
1331
-1796
-1807
-622
628
3757
1643
6011
3863
-1411
-1416
2621
3731
3130
2154
2677
-1041
-3037
-5775
-10087
-2374
-3627
794
981
2882
2072
-1313
-1574
1
-2297
3069
439
-2259
-30
3949
241
-1350
-1366
3111
-162
1729
3800
634
1222
372
2489
1246
-2211
131
660
-2076
1602
2153
3458
1396
6398
915
4520
3044
-3766
-1814
2736
137
3425
1549
2111
-7264
-1694
-2046
497
6433
2916
1560
4080
-1135
647
-3903
365
1943
4457
5214
4412
-1962
1180
2318
1832
2083
5731
2644
-654
1009
1142
674
-407
-2950
1905
-297
-2957
6477
-2274
4188
-4095
2204
-5138
2203
2993
1151
5110
-900
-309
2167
-14263
-3428
-1282
4101
-1103
-509
1142
5372
-931
-1511
-986
-692
-124
2334
-859
4528
-3823
-1877
3535
-2555
5396
-28
2557
-269
4174
201
-827
1114
2970
55
1094
3326
250
2219
-3654
1244
55
1569
85
1715
1613
-1503
-2565
3749
-216
612
3602
5479
2297
7024
-902
-2626
2340
-648
1102
616
3917
5047
2410
3820
1408
-437
-1134
-11362
3266
1718
2151
-210
1328
-2288
-565
418
1777
216
2493
-1476
160
5353
661
568
99
3059
-6562
-1676
265
3674
-2204
1449
4164
2839
539
1585
1061
2694
-2271
3323
-3229
2222
-186
2201
-1854
3701
-796
-772
-156
2827
5529
2050
2475
3930
4244
1333
3494
915
-1963
1503
-1509
3338
1315
2864
-3246
55
-2846
-1404
4898
180
1043
-1046
1202
