3407
-1877
3894
2475
467
3453
-17
552
-525
-657
1900
-274
-630
4703
-496
619
1244
264
465
-2901
-1809
1840
4346
6786
2219
-411
-1024
851
-6032
-71
1388
1164
3022
976
1323
627
897
-2196
2393
967
3287
721
-2495
-158
1214
4324
-398
3848
1904
701
-3034
2524
-3221
-9292
-924
1485
2530
4165
2753
4950
-1855
5285
5316
129
2816
3410
1227
-3320
-302
1766
-307
1662
1943
941
4779
3154
-1610
-1253
2046
205
4658
3704
-663
-998
-7206
583
2828
2956
143
282
-612
1776
-1768
5827
2506
-3241
-7572
3722
-1091
-1486
4014
-733
-17
2635
556
-1381
-532
7567
2639
-2985
5082
-1127
2655
2569
1574
1290
-1302
1403
2737
7501
4778
-398
1976
-12
588
2836
-13365
1447
1905
1931
-1009
-406
5169
3962
-2138
395
-266
-75
-3672
863
1453
1544
3723
1322
-12754
-649
1058
-3157
839
-5612
-6962
1940
3906
3323
3255
3518
-1250
1968
2814
-27
4050
1475
3486
1765
1043
-5531
4824
2297
3213
-7788
-1323
1007
7612
3453
2826
74
-507
-882
1000
-1773
3074
3328
1307
4488
1362
4627
-822
-890
-553
1437
1461
2804
-808
618
2605
1201
2027
3782
3585
4293
-3994
4786
3037
3268
5291
535
-1916
-639
2795
724
-5233
624
-6594
3360
1476
167
4704
2667
2565
4197
1731
1493
-143
5320
1486
2695
182
3193
3072
1724
3933
-1303
-797
2079
1432
-507
1744
517
4413
657
3027
-707
-8655
2848
-12490
2093
1559
1248
1696
2985
4960
-409
-5533
1531
-354
101
