-103
521
265
1577
-92
185
1223
146
491
1374
1135
-351
-585
-588
251
206
2721
58
-507
512
1445
-2859
0
0
807
-8
-786
-823
3689
-1279
1891
-86
1078
1092
350
-78
380
132
121
548
-78
676
1208
240
627
0
318
413
-327
277
849
955
0
10
-872
-29
1000
1550
-592
-1123
-870
1404
1421
406
0
337
-328
1210
-1606
722
-94
0
2394
305
-798
-256
-23
-1484
-2208
-890
-61
-2622
1703
0
510
1940
473
0
226
0
680
-1131
-309
-56
-202
861
2641
-1447
278
-337
-681
0
473
387
1279
-49
-573
0
-512
819
367
95
-364
602
-484
787
-496
0
1008
212
1484
-982
1516
-1
586
-331
-476
-4
1931
558
1766
-1634
853
0
0
816
314
388
-602
-1192
271
-385
786
1221
-895
711
2101
450
-1834
-35
-2426
-253
-646
136
-1411
16
-1236
874
1818
-1375
-3993
1322
200
1124
-377
282
255
-3052
527
-161
544
1405
-510
-1136
0
562
708
-186
-380
-60
-3
-69
-240
162
15
0
-281
421
734
1254
331
-243
311
1130
128
575
177
3526
3289
0
489
-342
0
-1663
0
783
-1182
368
3895
-99
-882
530
-615
1719
0
-797
1362
-823
-463
790
842
1099
-239
708
-1580
-570
413
851
425
852
224
-3299
-175
68
-2931
61
453
920
-469
-680
1626
487
-10
-123
1548
317
-3
466
-899
135
1193
330
2730
181
1671
847
