722
-268
1793
-52
359
1783
8
228
262
2179
-2490
135
274
-770
190
91
50
-49
-205
-309
-10
-125
125
1363
73
47
-3415
326
608
-44
-160
-501
594
-2
-1098
-196
82
5
-50
108
-50
-25
-543
-2314
-19
-100
-679
-55
-20
569
534
-20
256
77
-2156
-14
77
-192
29
1393
367
-337
-123
-678
-97
-140
-955
23
-3
-32
-254
-21
-6
-156
-115
1085
21
-16
-663
-498
-149
-66
421
-15
-56
-17
-24
420
154
624
1615
-163
-128
-241
1420
-74
-8
-1060
-172
-448
-997
-31
-103
-40
979
2231
-2
-98
49
792
84
-35
754
-409
-1228
-23
10
-89
17
-248
-71
-393
-664
-130
-237
-545
8
-602
633
49
-185
-61
-11
4156
-24
208
-84
54
1550
-310
-166
69
7
-10
2466
303
916
-75
6
-113
-29
-48
-3
1074
180
-63
-1232
744
-54
416
129
-37
18
-446
96
748
-55
-276
-156
388
1062
19
129
31
1190
-12
870
-28
563
-121
-382
-126
-31
3160
-57
-493
1567
-170
-2311
516
-297
-224
-188
26
888
-33
881
-81
-839
1964
0
-11
57
-175
2609
-192
2298
127
27
-93
-98
47
75
1902
-61
-5
-135
-571
1814
15
-1823
-68
1339
270
18
-15
32
1166
22
8
-64
-33
2793
490
1257
90
-915
42
-5
128
1131
-814
-50
-789
-25
-201
-1714
-101
-112
644
66
-731
-32
18
-98
-585
-10
-182
95
49
-72
38
-76
-11
-56
-819
107
-2175
-541
-927
2042
-197
1230
-319
35
1753
-293
2
-135
-143
7
-394
-72
-548
883
-147
-129
-132
-196
-646
174
746
22
21
-331
-10
2
1210
641
-12
-173
-21
1267
-56
-57
-80
-125
-75
112
-1128
-146
3144
1609
1264
2121
1348
-58
-1574
1741
362
99
-134
664
-265
57
1947
-809
-68
2
886
-33
-31
1600
-1961
-2
101
-77
-1351
-54
-281
-623
-34
24
-117
190
-58
1448
-400
358
-849
-13
67
89
-9
-419
-5
-150
-734
176
-120
-161
16
186
211
401
79
591
-124
17
26
18
-718
7
-19
30
-83
-330
-29
126
607
-61
14
-2257
-53
-228
-51
1728
-44
785
0
-2
-18
561
53
-152
-107
-899
1829
-23
685
1657
673
-68
28
-3122
-240
-568
136
-500
1185
-50
-33
41
885
23
-103
-299
-155
79
278
-139
-195
-35
-134
-380
49
632
938
-19
-20
854
435
-17
1075
-1483
-103
-132
-102
75
35
-50
218
-371
109
-707
177
1543
10
6
-557
-53
-1
6306
48
1222
66
11
-111
1798
-21
-73
48
-177
-106
-168
7
-30
1202
22
-54
-522
473
1238
-460
-487
3
-610
-310
95
-97
-320
94
3827
-26
30
-679
1053
10
411
-528
-78
904
591
520
239
4230
0
263
947
-22
676
388
-54
-2
23
-1184
-920
-402
-181
1291
53
-565
