-26
330
153
-244
-321
-92
-122
-728
93
-218
-803
-155
-263
312
192
-241
-191
-606
-201
-72
104
-96
-234
-86
-467
-60
5
-227
60
-86
-163
-317
-141
62
135
-114
-132
-241
-72
307
-60
-255
-328
-841
242
-208
-64
-568
152
-95
-247
-267
-272
-380
-155
-124
794
-285
-112
76
-15
-117
-208
-133
393
-62
-244
-152
-126
-257
93
-31
-212
41
714
-270
-265
-491
-158
-50
-76
-67
7
-201
-279
230
-153
197
-215
-350
-383
-158
-204
-124
-187
405
-178
-52
-7
153
-212
45
4
-87
-129
-5
206
-294
137
-280
26
255
-267
-100
-104
-75
-40
-148
-334
182
659
-122
-279
-55
-234
106
-479
-74
-31
-6
-69
310
-212
145
-177
-511
181
-95
181
81
140
-285
-1215
-270
-1143
25
-738
-3
-382
-66
130
-95
-271
-24
66
-225
-44
-1544
-203
48
94
84
-338
134
398
372
-170
231
155
-99
-206
-155
-251
-170
-54
10
-173
-96
-68
-219
-4
364
-740
111
-437
221
-314
-374
298
-221
-48
-1
-167
-439
-352
-195
-188
-177
197
33
-97
-308
-60
138
8
-125
47
14
-498
-356
-100
-667
-14
168
-79
194
535
114
-504
360
6
147
-109
-233
-99
224
-1607
-88
24
-235
-225
-385
-243
-216
-124
329
59
-131
-765
-382
-94
-26
-314
130
-128
-701
-113
-118
48
-226
-517
-149
15
103
-202
2
-62
204
-83
-637
-254
272
36
-110
-175
-276
-85
244
98
534
-100
-197
-23
-21
-322
161
-235
427
478
-136
442
-81
234
-1
-394
-120
-119
362
-174
-181
-168
-216
53
-289
37
-65
14
-83
-316
-491
114
-546
479
-76
-77
-225
349
109
-902
-121
-135
33
-192
-511
54
59
-473
-194
-53
99
-151
264
-157
490
89
-38
-353
-641
-85
-327
-112
-56
-97
-108
-334
-208
-204
-9
28
-228
-119
-139
231
-192
-244
89
-381
-117
-263
-193
-150
-40
-257
117
-283
61
-48
688
22
-4
-239
-65
-308
-274
-87
68
-90
-428
146
-71
142
-239
-331
-402
-124
-249
-57
-102
-44
-53
-148
-357
-338
-122
2
-541
-211
242
-229
-188
-230
-80
-266
-325
-112
89
423
-1049
-318
-109
212
-357
-266
-74
-213
-786
-194
-256
-121
-32
-125
-170
-128
-284
155
265
263
63
-126
-279
-120
145
127
-116
70
164
-258
-649
234
-181
-307
138
-59
7
341
-57
-152
1062
-103
355
-159
-258
-29
-176
-7
-30
-36
-198
167
-55
-170
85
-41
-254
-111
-77
-181
54
103
-75
-52
-207
-188
-66
15
-459
727
-59
67
-266
-297
-41
-153
-169
-105
-68
-452
-209
-96
-78
-163
-1106
115
-228
465
472
-33
3
-329
-125
-20
-179
166
-15
-170
-257
65
-143
-119
-142
14
-212
235
-127
-216
349
12
-50
-375
-36
22
-41
-119
-68
-185
-114
-180
-147
-352
277
-868
-264
164
-158
269
88
98
-374
-148
170
-161
-31
-89
-92
367
141
-126
244
-413
-234
-115
-105
-25
-108
-131
25
288
2
-107
-136
-117
130
-188
43
54
-26
-134
-150
150
-353
199
-96
-24
-154
-96
-205
36
79
146
-37
-114
26
19
-429
141
-8
-324
189
-156
-14
-500
-565
-178
-137
57
93
-426
-355
-28
-246
-127
237
273
91
-165
-109
33
-264
-400
137
131
-93
3
86
-107
-67
110
-284
-175
-4
-5
96
26
-160
772
110
-68
5
55
-95
185
25
-160
76
-86
-142
-92
-11
-103
-128
-77
-176
328
-170
-81
-234
-145
38
-226
-259
107
-275
-171
-88
-169
-65
-82
18
-111
232
-74
217
-249
116
83
-121
-16
-162
-102
-435
139
-418
-69
-139
-112
-137
-213
-346
134
80
-193
189
7
45
-267
322
261
-17
9
46
-158
-390
254
-43
-247
61
25
-128
-105
388
-191
-198
-318
126
-226
-35
113
-112
16
-202
-244
-702
-80
-243
-223
-26
386
914
283
-199
-133
577
306
-253
-87
-964
-142
99
481
-391
-570
12
-212
-97
150
-300
191
-60
-52
-232
-117
-17
-57
-384
-230
-289
-272
116
-239
-436
-374
-195
-170
-279
144
-128
-391
-284
-65
-60
-435
-58
68
-109
-145
-383
-97
-164
-259
-159
-198
71
877
-98
-176
-170
-102
38
-174
-131
-211
-55
-48
15
506
-331
179
-26
-155
-194
-42
-78
46
-251
-26
-382
4
-165
-281
293
172
154
-191
93
-135
-182
-136
-287
135
-120
-181
-334
-151
-214
-61
-159
-86
436
-309
-339
161
-458
21
-188
149
-1742
-334
8
-234
-185
-315
-315
-61
-221
-90
-87
-110
506
-391
566
11
-303
-116
-53
-162
40
-372
135
-53
-40
-419
-31
-374
3
114
-383
-165
-215
-165
270
228
291
-63
-243
-248
666
-82
-97
237
-20
-131
-206
368
-140
-114
-157
-130
-122
-155
-221
793
-58
-147
-472
25
-284
-46
209
142
-192
87
-85
125
144
-106
-139
-190
146
-42
-184
-95
-58
190
-43
338
297
-228
-132
-249
196
-486
-248
-575
39
58
-190
-139
82
-323
-180
-132
-248
-161
-164
-224
-396
303
-207
35
280
-60
-364
-91
18
-166
-115
-610
-68
-187
-219
-171
-12
106
44
160
-55
-805
-90
10
-358
306
-29
-3
141
-12
287
714
-292
-482
-365
501
-193
-141
-258
-174
-167
-263
-119
355
-154
-15
80
-157
-36
-603
-610
-31
-11
-287
-641
-338
-216
-278
-268
-341
16
80
-114
-538
48
-244
-152
155
-308
-40
-431
-66
68
-130
-256
-18
593
-197
280
480
-137
-203
-392
172
158
-211
-415
578
34
-104
-138
-288
404
118
-204
280
-219
466
-224
54
-86
-273
-66
129
-137
50
-432
95
-62
