-5
-51
56
16
-64
-71
14
-26
1
90
28
-40
4
-37
-20
-74
-12
-80
-7
-27
58
-11
-71
8
-84
-139
-2
-26
22
-62
-27
6
-30
32
-19
-28
-5
5
94
17
-53
-74
14
-24
-29
-16
-14
15
-11
16
43
-33
108
-33
-98
-42
-23
-93
59
15
19
-12
-4
-62
-27
118
-39
-29
-4
40
-24
-77
-86
-54
10
-30
20
22
-26
30
53
-21
47
37
-94
-37
0
92
16
14
-41
3
-25
49
4
54
-26
-38
-43
-59
27
6
44
-72
-68
-38
-46
-14
66
32
-56
-34
-63
69
79
84
-68
-58
30
-30
-42
-17
8
-66
29
15
-9
-4
-32
-2
18
11
-36
-58
-82
-69
-24
-5
44
-40
24
40
-63
-28
12
-65
-87
111
0
39
-78
-77
-118
-46
22
-111
1
-39
3
-78
5
6
-4
-82
3
28
3
53
-31
28
-46
54
0
-158
-101
-39
-48
-73
-51
11
-90
-111
-62
97
-20
-32
59
-38
57
7
-37
-13
-124
47
-100
15
-74
-67
-12
-30
37
-67
-91
-42
0
26
35
-52
-16
-22
-121
7
94
20
6
24
-51
61
-40
24
2
-11
-11
12
40
34
-10
-40
-22
-16
-29
-46
-28
98
-84
-56
-34
28
-27
82
-22
-24
-3
-66
-60
7
31
21
20
60
7
-49
-10
-100
45
33
46
43
-50
-6
-43
38
-53
-41
-32
-21
7
1
33
-20
-48
21
11
-12
-46
-6
37
61
20
-21
-58
-29
-5
-3
-22
-6
15
33
-12
21
20
40
-87
-54
-24
-105
-77
-41
14
-32
21
-93
54
-6
-39
30
78
-44
-42
-1
102
25
115
27
29
-24
-112
-53
-15
20
-58
-86
34
-77
-32
-32
73
-50
63
-154
58
63
21
-85
-65
-44
-82
-49
-57
-5
-57
-78
-31
-68
-8
-36
43
1
47
-37
-22
7
-13
-9
13
-15
137
65
4
-20
-47
-3
-95
-13
14
-3
62
-52
-22
-69
-42
17
48
-31
-55
-69
9
-54
-41
3
25
21
-18
3
2
39
-42
61
4
94
63
33
-47
-37
-47
-17
-65
23
137
-29
39
-7
-83
-18
-15
-41
-6
-3
6
-139
-85
88
-71
-28
-100
-3
-57
64
-85
-6
-14
-7
-54
4
14
33
40
79
12
75
-19
-12
111
-58
-11
-71
10
-14
-9
17
-25
10
192
7
-69
-77
-102
-90
18
-3
-21
29
2
10
-57
-82
39
-4
-22
-93
3
-33
-135
-73
-120
-53
-57
-27
-9
13
-22
-30
-35
-34
-127
10
-168
6
9
2
-9
-17
-43
86
-20
-8
-19
-46
-50
73
-11
-47
30
23
-52
-21
127
13
-102
72
-37
-62
14
-63
-77
-65
20
-76
-55
-32
-114
70
6
-28
-50
-10
-71
30
15
-84
-36
-17
-3
-18
-48
-64
-6
-20
-6
-37
-16
-74
-42
-87
-53
-59
-27
-5
60
-84
-44
-58
-11
12
-123
-21
28
77
-68
-42
-77
38
6
17
-35
-62
-76
69
-69
-77
-60
-23
43
-49
204
-2
-18
-36
122
-43
76
-35
37
6
37
30
-36
-55
0
21
89
-46
-17
-105
-44
-97
10
22
-154
-19
-99
22
20
-67
-13
11
-73
-81
80
-50
-91
-18
-5
-1
-7
-44
50
-22
63
50
-47
74
-46
-44
9
-27
12
58
-106
-30
-120
-92
-37
62
-279
-30
12
-43
-30
-15
-46
11
-75
-8
65
-11
-34
70
-89
10
40
-31
-1
-37
11
-87
12
17
13
-120
-87
-6
-92
-32
14
29
-2
53
0
-62
-70
16
8
5
-41
-56
160
60
-25
-103
-43
9
-116
81
-16
-28
-49
-7
-92
127
21
35
-8
-47
-74
15
-24
11
-25
-99
-35
27
-75
-106
34
-23
-32
-32
-10
8
154
-18
82
-63
38
1
-1
129
37
-33
-12
-13
-45
-87
-28
-34
-18
-67
-96
-55
-58
-22
-10
86
18
-28
24
-32
-21
-74
-36
-12
-76
-61
-53
28
-34
1
2
1
-15
-2
29
-80
-36
-49
-40
8
58
-33
-56
55
-100
-92
-83
67
7
-47
201
-28
-79
-16
35
-44
-61
-53
-12
-73
-54
11
-8
-13
-7
44
-13
17
-64
-53
9
1
-130
64
-6
-55
26
1
20
15
-29
48
-23
-22
-41
-65
-36
-49
-14
-40
43
24
-9
-39
-21
-63
11
-10
-51
0
-13
-106
7
17
-134
-18
58
-70
25
-20
91
9
15
0
-24
-24
64
-64
-68
15
-23
24
18
146
-19
16
-1
-80
36
-16
-31
111
-5
15
-58
165
-81
12
-82
32
-9
-61
-60
-79
34
-59
-113
-106
-39
2
-12
-83
-38
-28
2
-26
16
-27
-20
10
-35
19
-36
-9
-77
110
32
43
6
63
-6
0
-98
-41
-10
-7
-20
-44
8
-25
46
-9
36
48
-42
23
-32
35
14
-65
113
136
-34
12
-51
-9
-7
-34
-20
-16
-28
14
0
58
123
58
13
-2
-42
2
38
-99
-55
-76
-8
-1
157
-46
-15
-40
-8
-69
-61
35
-17
-140
-2
-10
-49
63
-8
-26
-25
-68
39
-24
-5
167
-12
-8
22
-24
-16
-18
-76
27
-71
69
-91
-36
-114
115
-40
-30
-69
24
47
-37
-23
-3
7
-60
-26
27
-47
-20
50
-32
-12
-8
-9
-105
-66
-20
-124
11
-53
-21
-96
-27
-64
-9
2
-11
19
-89
-94
-18
8
-8
-21
-39
-17
-36
-31
-7
-12
21
-99
-87
-78
-59
7
24
-10
-7
-67
-27
-53
-52
-46
1
-22
-39
-42
-24
-100
-10
-7
42
34
-86
19
-18
-11
10
-44
11
39
40
-80
-55
-75
-40
22
-124
47
116
-17
-30
-78
-7
10
69
-87
-41
-27
12
-54
-129
-129
-79
49
-54
-30
-31
240
-48
-14
-56
57
-74
13
-85
27
-50
11
-69
-14
-37
-113
48
4
6
33
49
11
0
118
45
-8
-32
-86
20
-6
23
-28
-49
3
-66
-82
-55
19
-30
-93
73
-40
101
18
-16
-3
-41
-22
134
-20
-40
-66
73
-5
27
88
1
-39
33
-89
-18
-39
-59
-37
-15
-46
-8
-127
147
-91
-24
-56
78
27
8
-114
-1
22
-39
-82
162
-60
-38
-18
-73
67
-9
-17
49
-61
44
-30
-39
-20
1
14
-88
11
-8
-57
61
-76
-167
-30
23
-28
107
-79
23
-25
-11
-51
-35
-47
0
-34
127
-53
-5
-8
10
-3
-39
-74
-16
-35
118
25
4
-95
8
-36
-53
-29
-60
-24
21
-32
-13
-8
3
-70
-48
-26
52
-11
13
49
-106
-59
12
-15
-41
101
33
-16
53
-32
33
30
-59
18
-33
-40
-23
-32
35
6
-95
-52
-51
-54
36
24
-45
-63
-19
18
-68
114
-26
-17
99
-14
22
44
-10
69
-7
39
8
-87
77
3
61
-36
87
1
144
61
5
-30
-38
-102
-68
27
3
-11
-45
-15
-84
3
-33
-26
-23
-30
32
24
-28
-100
-8
-49
-13
-72
38
-20
-59
-34
34
-47
116
10
-32
-23
-32
-113
24
-28
11
41
2
79
-1
17
-36
-27
37
-26
-59
20
-38
-53
1
-28
25
-129
-83
-115
-38
-41
-127
-57
-31
-53
-39
52
47
1
-41
-73
4
-60
-3
-29
21
7
-26
-41
-40
62
-40
-28
48
34
38
11
-70
-22
-32
-15
-35
-72
-73
-40
8
-60
-168
-47
-33
30
-52
-64
-58
-43
48
47
-71
-18
-76
-116
-78
-52
21
5
-53
73
-70
-12
26
-48
-39
62
40
-18
-59
-2
-30
-59
-134
-39
-48
19
-67
71
-41
-62
45
-19
-56
-58
48
5
-14
-19
-19
30
-18
2
-57
-17
-81
-49
-15
-12
-112
-143
-24
55
-92
-11
-46
-23
-45
-50
-72
62
-4
75
8
23
1
-22
-34
2
-7
-31
-39
-50
-41
86
8
-25
-2
-64
25
36
30
46
4
-119
-25
-10
13
-37
-21
46
28
-52
-16
61
-49
7
-23
-36
-100
-44
-60
23
60
11
-19
-41
41
11
-50
-32
-49
8
-63
20
-14
-37
4
-121
-23
27
-73
-52
50
-49
23
-39
-49
19
-41
126
-7
103
96
57
66
-56
115
-47
25
-67
41
-14
87
50
4
37
-57
-3
91
215
30
-32
44
-66
-50
-34
-67
11
-71
-70
44
-72
-18
17
-49
-114
-24
-34
-13
-14
-10
-113
-99
-103
-2
2
-48
-36
-49
13
83
-53
23
-65
-85
-101
-14
67
8
-32
28
-84
40
-46
-25
-58
-34
-7
-78
-33
-13
-57
22
-48
-20
-15
-8
82
-26
45
-20
-29
-37
-11
-54
-25
-75
-32
101
27
15
-73
-85
-20
-59
-10
31
10
-15
14
64
-87
-54
-143
-39
-39
-39
16
37
-36
9
-57
83
-104
-62
-88
19
104
-45
2
-34
-54
29
-67
-27
-30
-48
-43
-16
-38
-34
-21
-3
-20
-6
-72
-114
-94
-88
-42
-52
-53
-27
-123
87
64
3
-2
-86
-25
-81
-78
2
-43
-22
36
-30
37
-36
-7
-18
1
15
52
2
-77
-6
-26
-19
0
-27
-29
-13
37
-39
13
-64
-30
-16
19
29
-17
74
28
-15
-69
-54
-86
3
-30
24
47
7
7
69
-24
128
-53
-18
-89
-20
-64
42
41
-83
-16
-104
-63
3
-10
-61
-11
-15
-33
-85
-61
70
-67
-9
-62
-8
-28
-23
2
-62
14
-50
-37
102
17
-2
-23
-11
-140
-99
-63
113
14
-38
-79
11
-29
113
10
-81
-39
-1
-2
4
-52
-39
-109
40
-6
-26
-86
-74
-72
-116
-76
32
-74
-15
-87
-17
-53
33
-11
-41
-14
-2
21
-59
-26
9
57
5
7
-43
-36
29
-11
-6
-21
3
-68
21
-33
-57
-61
32
14
-21
-24
57
31
21
-62
124
-79
-76
-57
-13
28
-4
-20
91
-55
180
-13
51
23
-103
97
-65
-22
42
-35
-66
13
-5
-92
-75
-17
-11
-89
-3
45
-24
-27
-2
-13
95
-25
10
-19
44
175
-4
-26
-17
10
-1
-123
-45
-145
-106
32
28
-42
22
-30
19
14
-70
-51
4
-6
-37
57
0
-91
0
-53
44
-72
-74
-41
-110
53
36
3
123
16
-79
-44
-121
-21
-56
29
-14
32
-63
44
-22
-43
87
-68
36
-27
4
9
-44
-4
11
-15
-22
-34
-23
12
86
26
-103
34
17
-78
-45
-6
-1
37
-32
-41
-62
5
-82
30
184
34
-60
-58
59
5
-70
-26
15
114
38
-24
17
-8
4
87
-62
-7
-36
32
-50
-57
12
-4
116
8
-13
-38
-34
-25
-10
-102
4
-101
1
60
99
-75
27
5
15
-57
152
24
-1
5
24
-100
-18
-59
24
-13
-79
-12
-58
-26
30
50
39
1
0
113
24
-38
-64
12
-33
-60
15
99
-14
-83
21
51
26
-15
-51
-54
72
-56
-8
-1
-37
-55
-10
-55
31
23
-38
-68
-15
5
28
-18
15
30
-34
48
-72
-16
22
-78
-46
373
16
-51
-25
-10
-49
41
-42
53
-12
16
-1
-24
-48
-34
-49
90
-27
-59
-27
-39
-15
-68
10
-60
80
-57
-37
32
-29
