30
358
69
-68
-250
50
-8
-274
86
-239
449
-183
-46
23
-326
-157
15
-128
214
-443
174
-108
-417
148
-809
-535
-798
615
230
-146
-849
38
17
-452
-598
105
56
-1001
467
-157
-256
-111
48
-76
81
-439
-62
-454
107
-334
-63
308
-220
-533
-398
354
-535
624
59
-124
38
1072
-613
-184
1531
-743
-24
-524
495
-287
-501
-440
-384
-503
-176
-444
-81
-501
15
703
1
-638
-54
-181
-504
-645
-671
-166
-98
440
232
212
284
395
91
-16
-611
-116
-438
78
-1011
199
17
-76
-101
30
-510
151
-2
-55
-504
-332
-293
982
34
14
15
-203
-313
-58
-186
315
-431
-589
30
-314
195
60
231
353
-300
-580
-649
21
47
52
-571
-162
-11
-192
-794
-225
-557
-160
30
-531
-239
-212
-807
-356
-64
-228
-544
-158
-332
16
-461
288
-786
-152
-663
39
108
-153
-198
8
56
-206
569
93
6
-71
-28
50
17
355
-130
-563
-413
-1142
-1164
-693
-307
-24
-653
-581
2
-520
65
125
-528
-711
-606
-1519
0
-185
79
-139
67
16
-201
-532
-179
-8
-65
-139
-258
38
15
-9
342
-723
112
26
21
-93
130
-19
-11
-536
-712
399
-92
527
-773
-184
34
-64
-221
-509
-1217
-797
-379
-333
26
-537
100
21
-276
-452
140
-132
-283
2
-1119
-142
-54
-373
1037
-153
-932
73
391
-175
-551
-272
161
-288
-870
27
-241
-208
163
10
-455
26
-124
-236
88
-215
10
-57
-214
-414
-395
26
-163
164
-140
-209
-632
-99
364
-274
-242
22
-183
-405
255
803
5
-33
-340
-31
2219
-223
-331
279
-146
869
-445
174
908
-594
824
-373
-755
-1268
1595
-168
164
31
-98
-139
-118
381
-601
-323
-31
-101
36
-491
224
-26
14
-50
-520
-520
-429
188
-116
-135
-4
-46
1119
-189
728
-82
12
-281
-238
-577
26
129
-26
-744
-41
-33
942
22
-460
110
-508
-323
-207
-762
-737
34
-433
-390
-181
-111
-330
-134
-23
-318
81
39
-400
-231
296
30
-411
-422
-69
442
-307
-705
-325
-324
-467
-237
-49
-593
-62
-165
-58
-73
-27
-74
21
-452
36
936
161
10
-188
-512
-915
-138
159
-13
-51
-344
-1119
47
41
583
-436
172
689
-642
-291
127
267
-591
284
-275
-67
373
-56
185
1835
93
-1231
-474
48
89
-647
-162
248
-396
-284
167
299
1133
264
508
-710
-300
227
66
-139
-13
-432
3
-108
-553
-296
-83
-1305
-371
-231
-264
-141
-865
-61
767
7
-738
1179
189
-58
-391
-190
-141
454
278
-22
-85
555
-15
26
-183
-122
-154
9
-174
-297
49
1568
-496
12
-135
474
-584
84
-556
-128
40
241
311
-559
-221
52
30
-647
-244
2
22
-300
38
8
-240
-1081
8
-82
183
87
3
-815
-235
