3420
-829
1283
-730
-763
-2134
-23
210
-161
2035
212
1993
-94
-918
113
1043
-465
136
-294
-627
-1074
-2817
2367
568
403
-1259
979
8
461
-3137
2214
-2554
119
-297
1858
674
447
-434
1270
915
-2098
-3741
-216
2061
-504
-783
340
443
2313
1025
-820
381
329
-269
468
-497
269
1435
313
1804
-411
771
315
-689
1924
567
2979
588
2284
665
-731
-1309
-196
-1065
-4365
-589
319
672
151
-785
-2237
-783
-985
-891
-1012
1695
1217
1556
2709
784
709
2215
2148
1406
1869
-772
-1572
2363
674
2231
-3917
-339
-1088
271
1418
2314
-422
1991
-662
1083
-5070
-29
495
1025
555
1377
1857
-1218
-35
454
-1252
303
-98
-1041
-1572
277
-3568
-1309
-261
1318
412
277
912
1532
1830
136
258
-1879
484
2151
611
-745
370
819
891
-802
-526
-484
-1024
-1269
-59
296
-786
-764
-435
-774
693
-893
-1328
-2870
-3673
-422
2579
-1241
-454
2892
-1113
-3083
1158
-1287
53
-1270
529
-29
159
-588
2041
2084
-902
854
-1185
-1067
1209
-1256
2024
-47
-504
-296
1666
-1623
728
-130
918
-576
-1679
-3267
2222
-298
-2629
-263
-211
-1435
403
-293
749
1405
-947
-817
1903
-624
2138
-3820
831
-998
245
-505
-902
-925
398
168
-424
313
-1097
1246
1309
2295
-1873
-950
-1390
-2158
-1629
-547
256
1929
507
870
-1773
-396
-1036
2887
-1830
2101
1395
427
-386
-10
-824
131
1307
1373
-734
503
-2036
-2136
-1638
-399
