428
-882
208
154
200
-228
-194
-38
187
77
-313
205
496
715
277
256
144
-140
336
633
-304
403
417
119
464
-461
181
220
200
109
-537
-161
478
229
75
179
-38
182
-869
-273
317
3
164
-254
149
423
-207
-834
439
77
-29
124
-140
-176
146
-55
-299
524
-179
-280
-386
-193
-365
-180
-125
206
825
75
-52
-185
111
-471
-384
77
217
-89
280
98
-196
233
362
-191
467
208
-335
380
-97
149
207
-429
330
-300
-31
112
30
-414
355
82
-335
475
-188
60
-488
-201
-131
-499
248
689
171
-314
421
143
208
64
-108
-143
-275
774
353
119
-41
-317
705
-28
455
414
618
-259
-167
70
-431
207
-22
-386
-184
-570
343
442
324
135
208
184
-15
-545
-319
550
-128
-560
-601
56
429
78
-211
72
353
-549
-190
-50
-83
108
78
-16
7
-73
-791
-302
68
-464
147
686
69
-87
417
-160
45
-63
590
-617
12
584
142
250
-272
257
-101
-66
-16
-64
289
49
166
95
-432
307
314
104
-971
318
98
-420
-115
622
491
-147
-426
34
-144
187
609
170
102
777
-587
91
-157
67
-565
377
241
489
-20
-179
64
-68
281
-69
-240
5
-255
383
116
22
364
145
-1132
509
-84
48
603
40
370
356
-66
174
111
478
590
-126
166
398
-111
618
557
24
232
-13
