261
-408
-570
141
21
-2474
482
308
-2184
3105
1788
6758
91
2027
-3190
-330
-1651
1049
-131
-118
-220
-871
153
277
1718
-329
-618
-1267
-337
-2911
-198
-253
-591
-521
-951
131
-502
-58
-2418
-502
-5581
560
932
-898
-1115
-2194
1089
-1067
209
911
629
-1157
1570
868
-391
430
419
431
-860
528
-699
-495
195
27
-906
-1217
-817
-1588
-226
-615
85
-239
-1388
-2194
-3347
582
2743
2103
-699
-1273
-1220
-1430
-1117
-1508
-1365
1344
-1058
-290
-458
1479
765
-1914
-672
-457
2092
587
-541
-2803
-414
261
-758
2095
791
-118
1932
-1751
-2251
-1200
-2796
-523
-1270
-1561
860
-1245
-829
-1102
4818
-185
-868
-1069
-617
571
-1109
-47
-739
-696
2778
-2774
-699
-79
-152
-298
-935
79
1409
270
-1208
343
-3793
2255
-3653
427
-446
-1287
-145
-950
-651
0
1142
1715
-1446
-2256
-357
-858
-1388
1085
48
-1986
175
-1066
-2511
56
-1175
-4344
-2225
-2220
41
-803
-345
-863
-107
-296
39
55
460
-1157
-1097
827
-1005
-882
83
1340
-587
-858
94
-5803
-836
588
7
-1278
1718
-4
-298
79
-863
334
376
197
-1425
-924
1064
243
-1035
1640
-1410
-3069
-586
-743
-248
5765
-769
-398
-380
-1243
1760
-1884
-322
-114
-354
270
1330
1322
-2297
260
553
-2091
103
3069
-467
-1132
-119
-538
-1217
-387
-657
-2022
-703
135
586
-496
-1045
-566
-176
1015
-1363
-78
-1591
-949
-1901
-247
-1819
19
75
-149
-665
419
-1517
-283
-487
-15
1028
799
-430
267
-1349
57
9
92
-2588
404
-887
-306
-617
-567
-624
643
716
22
-1463
-405
-1685
880
-152
-842
594
-453
-928
1595
482
-1547
2431
8509
-2180
4
-16
1577
-242
-983
-905
2109
270
213
19
-581
-517
617
253
394
2001
-698
-1864
-332
-3308
-301
-1117
-2078
-1
-2519
101
-429
-1740
1789
2544
-232
-377
-146
-799
196
180
470
-908
-494
-72
-3089
-1501
-3392
2065
285
1224
-2985
-781
-1497
-1
3740
1316
-349
750
-1460
-477
-930
2939
592
-987
-867
-335
2323
406
1772
-1863
835
-1408
-1875
494
-6305
-1855
-616
-1844
-1014
1842
205
-2754
-140
-859
-321
-156
760
304
379
-329
-592
-607
2519
2258
-960
-58
-411
-1328
737
-1662
171
57
-594
248
2922
-1061
640
-292
2857
-1062
-320
570
1472
-271
-721
-398
0
3853
-248
-440
73
-44
-288
-2430
-97
363
1231
-2771
-242
648
-1796
-243
-911
-3378
1906
-477
971
253
401
-111
436
-36
-1056
-788
1282
-93
-1595
595
-1766
488
-192
414
-411
-298
-693
-748
-7
-437
-367
-955
-2227
-1677
678
208
1396
49
-1956
-592
1215
2100
-2912
-1234
-381
89
-471
-1949
-1277
-1273
-800
1050
2477
1155
-36
611
-1769
-2141
92
140
394
-245
596
-2033
798
-231
-948
1061
342
-984
352
-1072
3158
6359
-963
-547
937
51
-118
1459
1815
-679
-861
-1270
935
1369
-250
5261
-695
-647
-280
-690
-1558
841
-426
-724
152
-237
364
-362
1653
31
991
-219
-1679
-717
-960
486
-4612
432
-279
-1288
208
-672
-157
-1899
-779
-641
-1280
-1451
-1747
900
301
-706
-885
889
571
-1526
-545
7222
-845
551
-701
1724
1493
-545
-747
-1847
159
-564
-1238
790
1433
-225
-721
-1095
537
-775
-234
1152
-1471
-6
1423
-489
-148
153
-2315
263
-418
-2189
-808
-657
-134
1632
39
-543
-1311
46
-403
-2276
660
-1163
-510
106
-1795
-7
-484
-1062
452
-2524
272
-1121
-24
-1207
-60
-1504
-364
-2
908
1219
-195
1193
-386
-14
-886
-349
-1214
-3029
-566
7198
-976
-186
-983
-383
-748
-1432
518
-1065
-2583
-1190
65
-612
660
-1276
2164
-803
-872
-916
-1547
318
-312
-1636
1114
-247
23
978
-243
-480
894
-383
24
748
460
-220
311
-2041
-1347
-2529
-675
-1379
-91
-548
-1013
-328
-288
-633
-1251
31
1160
1259
-1424
-956
-640
493
342
-902
2116
-229
27
-845
-571
-340
-124
203
2373
-866
-739
-670
-1802
-509
-409
-1818
266
-513
-30
182
-753
182
-809
1022
-2126
-1112
-270
-1197
1279
-1249
388
895
-1987
1736
-2522
-1195
-706
962
-595
2393
1691
1667
-1674
-1444
-1597
628
443
-1090
-2332
-246
319
314
84
375
-307
-790
-1999
-90
-1004
-402
685
-622
-1353
-1737
507
-364
1498
1470
-1761
-1582
-1847
1309
1643
-707
1536
-147
-2083
-21
-1785
302
-740
-725
-330
-209
-46
-441
-136
722
139
2985
-291
-1564
-1483
1
3
-868
-32
-673
-857
922
-474
-1378
859
-766
633
-1241
-261
-199
-481
457
-563
-269
-360
1286
-343
299
1760
5028
-901
-1153
-708
2700
1531
-190
1691
341
919
-737
-1050
584
-1038
-374
1198
781
-386
-639
1635
1934
2657
-784
628
1110
2026
-689
-2194
-1640
-1090
-1956
-329
-1102
-787
910
1715
1524
114
462
-1062
393
541
547
282
308
1302
-2414
-148
-113
420
-324
-349
723
-223
1715
-715
1410
-3971
1189
-2330
930
-2012
-1363
-1129
-328
146
-2058
1343
-899
2138
-1498
-1630
405
-297
-404
-230
2205
62
-1802
426
626
-741
1345
-1060
-467
624
24
2785
-564
-1812
-989
-1537
-631
182
748
-468
-1606
362
-350
-939
-324
1964
-338
-316
1084
-687
-184
-457
102
-1076
-2816
-1416
82
982
431
-885
-2219
858
364
1039
737
-1360
-1159
-27
-262
1829
1625
-1278
-3624
44
1964
3422
40
-1503
2362
-1450
2284
-1976
-493
-696
117
-338
-1296
-1331
1369
-14
1494
-2220
551
-542
-1068
910
-480
17
-751
-185
-487
98
551
1074
-291
1984
-713
1097
-165
1312
-1031
95
385
-369
-1009
-1041
-542
-737
-1002
-2629
716
-1075
-98
146
1194
-1522
-472
313
782
-549
-5402
442
-513
-1185
530
-753
-171
-377
2656
1617
-1475
-1401
-99
2635
-324
-354
-10
1186
-1000
-508
-628
964
126
3878
-1032
861
906
101
-656
-123
-905
1320
-807
-306
485
-876
-234
1557
-675
288
-1096
602
-988
211
192
-847
-1362
-55
