-587
1181
-2056
1664
-222
-666
-152
-2979
-1719
-1274
-17
1519
-117
574
2085
-8
112
-598
-1381
1184
-248
-1968
-562
-2205
239
-1714
-3065
1014
-1910
844
65
-3327
-472
-4309
-1578
269
35
-243
-161
29
-1007
-80
2047
-1915
-212
544
-1793
-193
-679
1030
-1705
1435
-1380
-307
-1506
-433
3011
2108
-45
-250
-1341
-668
1045
-1953
-145
424
-2291
230
-545
1
-1484
1253
-1364
-773
20
-3435
-596
-2178
-1647
-2408
-1082
-1173
-978
-308
503
-370
-1322
-2804
-666
-1287
-62
-562
-321
-4366
-4145
579
-867
-1693
29
500
-2430
490
-1118
-47
-1378
439
-1042
1882
261
-492
-1005
-177
2074
1091
-2476
-358
-2847
22
-811
782
22
-881
-1383
-1536
-163
-5065
-137
-466
-2047
-1350
1048
-1550
1697
-578
376
-282
429
-6369
-1544
-465
-789
-81
-1202
-1268
946
-2613
-773
1092
-2211
-395
-509
-2397
-1912
-745
-3480
-49
-4189
-2413
-2583
-1527
410
-920
77
-2714
-1159
-2661
150
594
-1612
-1365
-2760
58
112
-156
-2482
-1313
-634
-156
1215
-1110
-3027
-897
-872
-2449
-1335
-2211
-2180
-922
-2594
707
-642
-134
-1852
-4707
-1649
1133
-618
-921
1132
-413
1218
-898
-1309
-4086
-2932
988
676
-130
78
889
777
-808
-541
-1652
206
1155
-98
-124
-2682
-97
-872
-930
-747
48
-409
-1158
-384
-2121
-46
-1088
-1604
-1858
-1170
189
-2227
1412
-1257
-78
-90
-796
-1815
-6415
-1182
-1104
-879
1342
-3161
-16
921
3459
-131
-3171
74
-377
-363
-2156
-113
89
1726
37
2069
256
-334
-501
-1230
48
-1425
-2393
-96
147
107
1209
-1180
-909
528
63
-1321
-2814
1392
527
-795
-2954
-52
-677
232
-2315
549
-176
-824
328
867
-4073
95
-1627
-818
333
830
-1569
-3380
899
-2707
149
537
921
734
195
971
-4974
-319
-1435
-516
-1314
-1113
-3675
-1339
-1382
-105
-4048
-2268
697
1214
-956
8
-1329
-16
-4207
-795
647
4
-1040
-194
-970
-2685
-888
-3114
-599
194
-907
385
-616
-2859
1385
-1463
468
-922
-117
-2661
-791
340
196
-253
-2432
-462
-308
-4749
-768
-1650
-2403
-241
950
-625
46
133
-2359
1538
-886
-126
-8
-846
-910
-776
-1669
-277
-207
-58
-1327
-870
-1982
-151
82
-12
781
-1288
-3703
73
372
-713
-143
609
-1040
-210
-287
-3704
325
-807
2108
-2110
2626
418
-579
-2687
-851
-809
-2682
-4646
-2024
-1056
688
-6013
-1124
33
127
-186
-870
-781
-1077
2772
964
-3924
-1355
-945
-532
-1372
341
-279
-722
-1863
-1014
-1025
3098
-1091
-2292
-1788
-1131
-3940
471
-336
394
-2134
-941
1844
-1063
-1347
-705
2284
1067
-2233
-1596
93
252
-9442
498
4227
-981
-411
761
-712
22
-303
-2040
-842
-22
2846
1122
-3869
-1972
1605
-1799
-971
-239
-419
-899
-2188
-1107
-485
223
-3144
479
659
-1173
1934
148
-2414
-952
-799
-5451
-2052
-208
-2579
-2061
257
3684
-663
337
-668
962
53
-3680
-1167
-66
-213
-661
-1530
1303
-1546
752
135
180
1080
-812
-379
-3438
