-1125
-1522
4252
-4
-3559
882
4849
1409
-1275
-193
-2070
622
-1819
3604
1215
2410
3453
-598
-990
-1658
1632
2419
1006
1867
2958
617
-2820
2509
2430
-841
798
-1428
4630
3444
-3082
880
2969
1533
-1916
-1364
5389
-855
1971
535
-1576
1246
-116
-3073
1186
1282
227
357
-441
-314
-2063
2014
-503
166
-332
-236
1212
2108
-2585
-1539
-2363
469
-191
3277
-1069
444
522
-346
-191
90
-1371
-118
-1280
22
3192
5583
1376
1096
1323
-2278
155
375
1942
1059
675
366
529
-1706
-158
608
-591
-3
3233
-1345
2836
950
-170
-1273
2339
-1567
1822
1546
-136
1780
6876
1509
1640
240
-233
686
444
-603
132
-2240
2615
-571
505
1783
-2762
70
2310
-3373
-2343
-90
133
-2424
-2625
1418
1963
-1916
-4790
1736
1402
1596
1099
2778
1215
-209
3052
2043
-425
-1072
1071
-175
-733
-1184
-810
3168
-1732
541
769
-815
2095
-699
1653
-1868
-1891
771
-826
2882
-462
-5044
-1408
446
-1995
1396
2453
1017
-1295
-540
429
2697
342
3645
-1500
-1351
1349
1038
2121
3059
2448
-994
111
-1861
-1286
433
-1107
-1707
488
-2250
3212
-2460
2391
1052
-1299
4210
1691
-2480
314
-1626
3611
-2140
588
2059
-351
1406
1303
1957
-1036
-444
1599
232
3566
3
-1413
3526
297
2226
1637
3558
-1793
3538
1464
1332
-1699
3862
1499
-1612
3583
-880
-2121
-87
1095
873
1580
957
-3633
1829
1174
-478
1769
74
1607
3338
-1209
-66
2408
3027
7482
-1051
746
799
144
-1287
375
336
-494
-1077
-8
763
750
2585
-2133
1632
-2516
-2616
2344
2474
518
-2682
-389
-1734
2154
-1190
-915
757
1840
223
-2624
2530
-1713
-1323
-469
3885
1198
-100
-1129
-1604
494
2415
2454
844
-1948
1596
3761
4550
316
128
816
1876
-1712
-3772
-863
-1806
-2283
-959
964
-491
2981
-1187
3491
-1865
591
-2571
-1904
-2585
1020
-386
-1145
1446
1401
839
971
-1128
3023
-2386
-2253
2106
-687
-1791
1061
651
173
1423
2768
-1434
-2862
2422
577
-1428
2511
-1507
-882
929
2026
-2125
2575
-1288
2930
4638
-1826
457
-3
719
1167
-3377
323
561
-1786
763
136
424
545
1977
1385
198
-266
2394
2635
-1504
-1734
2469
-706
1769
2436
-519
1175
791
-69
1932
466
287
3224
-14381
2756
935
905
-898
-111
-517
-53
2145
-1671
1173
768
2602
3176
2182
3896
-780
-1053
1818
-1920
715
854
39
661
989
-710
1483
398
950
5588
43
111
-1973
2671
2199
929
-945
3473
1103
3040
-3525
-3848
3277
2955
1392
299
-541
2479
-309
-788
-5040
-1596
-1216
1692
396
-3291
-2761
-1473
-833
246
-1793
695
1165
-175
-834
1143
1913
-583
-396
1018
2815
-2001
613
-701
1903
-807
5
8
1240
2022
2165
906
2808
166
-1401
794
-4491
170
-1276
2304
87
-2103
-280
-3690
-3379
2848
988
3393
2004
4340
-2678
3608
-1136
-700
-743
2138
597
1003
1827
3177
2675
1399
-536
2606
3708
-1180
2197
2128
3378
3425
-355
4283
1639
749
-663
