-250
-203
-10
96
-239
26
-63
-212
9
-122
-342
-210
-15
138
-340
-75
162
254
-577
-10
-121
-62
-61
-37
-163
202
-28
164
-151
-71
5
-221
-96
-45
390
-36
530
-136
1619
-292
264
-198
193
168
119
-344
-183
-48
-304
360
-51
35
-867
-144
-86
49
5
-38
-175
-266
-173
222
-231
-32
5
-227
-397
-162
-161
-359
2
416
-148
-226
-123
-118
-150
-158
-118
-447
-204
-422
80
-242
-285
-239
43
-77
136
-76
90
-381
-89
-234
37
-157
-99
160
-216
-57
187
305
236
-35
486
113
145
344
-191
-310
292
291
85
-2571
185
-269
-315
77
-18
52
18
-40
-53
88
16
-77
-273
-272
100
-118
-28
-66
-259
189
-86
246
18
-512
-217
-261
17
-108
-105
-85
-109
-110
-96
-81
52
-40
-76
-300
-8
189
68
-151
-369
77
-56
12
-120
-258
-32
-5
-246
310
18
-309
195
-68
235
-130
-108
22
-296
-338
21
60
43
155
-168
40
72
464
-232
81
-204
-123
-357
42
144
149
-8
-328
462
356
-156
257
423
9
358
-417
-224
29
288
-216
-309
-298
-109
317
-267
40
-109
-68
-64
-137
-114
-390
-22
-83
625
-108
-89
-326
-42
54
8
117
213
-523
76
-380
-146
-775
63
-315
-273
-407
-54
-395
-460
-36
173
179
-423
-108
-327
343
182
-321
78
282
159
-563
35
-413
228
-202
-554
-86
151
-383
-482
111
94
-222
-136
485
258
-233
-36
178
240
214
-39
-110
-286
-108
143
206
16
-211
-448
-126
-142
-36
-37
-15
-222
-517
-247
-213
-96
-60
-214
217
37
-301
52
108
89
-70
86
61
-156
166
-65
89
-233
183
-1765
119
-109
159
-328
-188
-345
24
-201
-152
-51
-207
-202
-259
28
-251
-71
-94
-82
-469
-166
-648
95
-280
100
-271
171
19
25
154
-2
-192
-22
-247
-279
-302
-112
-206
18
-176
116
-282
51
-82
-269
-433
-554
151
-43
171
-278
157
340
-200
281
-268
-67
-14
-46
-272
-105
-78
-40
-108
36
-46
-243
-376
-474
-45
-679
-4
-82
-365
-76
-165
-279
-20
-89
206
63
-244
-360
179
-30
97
-297
-48
-1201
-202
-22
57
178
62
3
-11
150
-133
-45
-193
300
-25
-177
-136
-488
-300
-326
-142
-93
426
-125
-102
71
-368
-338
42
-271
71
34
-1994
-170
98
-306
46
133
-135
-35
-588
-203
-9
-332
402
-2216
-245
144
-164
-299
-108
15
127
123
29
-44
93
-57
-51
-264
-169
-9
-1389
-110
131
299
-123
-303
-208
-27
-391
-211
-326
-402
27
-289
309
-226
-124
1262
176
346
-32
71
135
863
171
54
-29
26
38
72
-638
109
-124
-915
82
-131
-136
85
-130
14
-5
-19
-273
-79
7
-64
-241
7
-15
318
-80
68
-269
-334
-63
-110
-332
-318
-231
137
-112
-424
-312
89
80
-286
-311
-143
205
130
-14
121
3
-21
-116
91
-22
110
-355
-157
294
175
-237
-126
-186
-50
217
24
70
0
215
-311
-106
-172
53
-283
-255
-232
-171
-114
24
139
114
131
-53
6
-185
-244
-15
-1078
89
80
-317
427
5
-238
383
-1091
110
-97
-92
-33
17
-206
72
-298
-414
234
-103
128
-210
165
-132
55
-402
-4
-359
206
135
42
-250
-192
-120
56
-100
-337
-33
-176
-291
-664
-150
228
198
-77
-83
-204
160
65
-312
1
83
112
-200
229
492
-126
89
-437
51
-118
-19
-223
-56
58
-198
-337
434
-410
-265
-82
-209
-37
-10
-417
230
-58
396
-387
-3
-649
14
23
-293
-255
111
28
-67
140
17
177
-194
117
-127
54
94
-20
-44
424
-322
4
-235
198
-154
-253
-386
-333
-18
-225
-590
-265
-504
-130
-55
113
-153
-298
89
-127
-59
7
-352
188
-202
-176
162
-428
115
-53
-184
226
114
-1474
-99
38
53
1111
14
-307
-778
-285
-157
170
100
359
-42
213
-616
-77
73
16
-234
-46
23
184
-276
18
-529
196
-347
19
1508
-205
-213
118
1
151
176
-75
210
-25
142
62
-224
-74
-288
-173
-136
-16
-162
42
341
208
-107
-142
-263
569
18
-287
-59
136
-225
108
-38
-140
316
-143
-365
-347
39
-233
-180
268
174
73
79
-104
-123
-447
817
-101
-294
302
-211
170
-446
-279
-255
-312
18
-195
-161
-228
179
165
2
-99
-258
52
1
-2644
-8
222
-164
24
-144
-62
-49
134
1
-390
240
-202
82
-57
-416
-150
-304
195
-208
36
-95
10
-313
132
146
-220
-248
4
-141
-295
-193
-195
-168
-35
-101
-572
-37
-358
44
171
-538
-80
15
1
61
68
-68
162
127
-141
10
-368
13
-73
-220
-164
48
-2
-56
-216
-72
-448
-185
-377
220
-272
-40
422
16
134
-25
-79
0
7
-159
-228
132
174
-27
92
366
101
134
-25
-592
131
0
-110
230
-102
111
289
-283
-58
126
-237
-84
-237
-227
-279
-278
-31
-164
162
-99
-149
-166
3
177
42
113
-185
25
-404
-357
-208
-292
-384
133
7
-220
-301
380
-117
-198
-761
500
136
-14
149
68
96
-55
-143
15
-128
-118
-231
78
-87
-101
50
54
-296
210
167
-180
-66
-265
9
68
143
-98
-14
133
-80
83
193
-153
-205
-213
-432
-405
-173
236
314
-235
-76
-36
33
216
164
-10
13
-237
-208
-57
-271
-269
-173
-99
-30
-74
-488
-71
-236
-46
-590
114
128
98
77
331
-24
-174
-94
-399
229
158
-36
-191
-28
34
66
-365
-140
49
-318
-224
130
340
-295
47
-194
93
-61
-138
-104
-155
8
-7
213
377
-525
-90
-138
-51
71
-23
-12
989
-107
-99
-376
-14
-582
-91
105
23
88
257
-208
-155
-27
-176
-505
-22
-252
62
-90
162
-331
-128
112
184
495
-6
147
297
206
-110
-103
-101
-296
9
-177
69
-74
-127
383
95
73
243
-524
489
-69
165
877
-117
-991
367
97
84
-223
-212
161
-199
-129
-238
-123
-609
-43
-173
116
21
19
-267
-276
103
-64
229
19
-73
-1
-43
-164
224
-676
-54
-206
-380
-246
48
12
-121
-101
68
35
10
259
-269
125
-157
192
-279
229
95
-79
-169
-76
-494
-311
380
-319
-174
-402
-171
-161
183
-132
-291
-278
159
-56
136
-240
-141
-147
33
183
-86
-200
-45
-69
-309
-5
27
13
-28
68
52
189
-96
-346
-454
-10
-148
-86
150
159
-933
-166
88
172
-276
-158
-168
56
-43
-223
270
252
-316
121
-68
-193
-385
-31
-229
72
167
-413
21
226
-364
37
17
-281
-134
-94
-108
-397
20
8
186
63
147
-132
-13
-335
-146
104
-162
-267
-141
-87
-363
164
-81
-500
532
-214
-66
-132
156
172
-362
-689
-211
-99
-113
299
-139
119
32
-221
-20
-120
-480
-254
11
-178
90
-56
330
-40
156
-274
-39
-166
-198
-146
485
-17
-227
-2
177
-345
-246
-164
-162
-52
-3299
125
51
285
8
-47
316
99
152
-22
-149
-21
-180
-295
-107
14
193
-304
-88
-32
-123
-46
-340
-64
-319
-296
-177
83
7
-29
-383
97
-175
-277
247
216
12
98
2
-85
-127
-232
223
-277
-623
-548
49
252
165
176
-156
62
261
-211
-164
-34
89
-244
11
457
209
475
-186
198
-55
136
-123
-193
156
-113
619
43
-225
300
-343
-111
-563
-308
-276
270
-106
-157
15
-159
-519
-460
142
-400
-180
11
-188
-234
18
-129
-225
-255
-341
-11
1080
712
223
50
166
-367
-112
2
87
-297
-106
-90
-434
-164
-67
-276
238
220
69
-60
-287
-195
37
19
-203
-83
-172
-376
-7
294
-13
68
-159
-220
44
-190
-159
-65
-467
93
67
-527
13
107
389
-226
13
41
-365
-146
97
-391
-238
-248
221
-114
149
68
-357
-188
168
-17
120
158
-177
-207
191
50
-61
-300
-105
-250
-143
-107
-35
-120
-54
-254
198
260
109
76
-154
-300
112
130
-277
169
135
-440
-344
-342
62
207
-66
179
6
-433
-212
-104
-48
-95
-4
-236
213
-384
170
-109
85
269
-229
-248
-99
-242
-29
-340
-372
79
-349
124
188
85
-135
-160
-312
-88
-601
68
-190
-153
-177
31
-206
135
-431
-138
15
-756
-172
128
59
-71
111
-132
-212
-85
-369
259
-241
242
175
21
-1491
108
393
-61
-227
-87
-146
-165
55
-231
5
-220
277
18
-127
-382
-222
115
-148
22
261
274
71
-140
31
-182
-65
-221
-56
-78
-57
213
6
-70
47
-187
-352
-189
-108
82
-449
-353
27
32
-135
523
-129
160
-461
-329
-150
-299
-110
217
-115
-597
-282
-109
-179
550
-51
-454
-254
-362
-122
-134
-82
-324
-160
-15
-130
-104
-119
-372
-268
175
78
-2
-53
162
-229
-50
-134
-66
18
-873
65
-82
-390
-355
-149
668
-29
-414
-10
-71
-81
-26
83
-373
-496
-94
-55
-58
-202
-88
-242
-199
-123
6
89
-97
-380
-42
-195
-160
-144
-83
-31
-247
-41
-145
-356
197
35
-259
204
-126
-218
120
61
66
124
-223
-122
-240
52
31
-170
100
-85
-49
-42
163
-275
-354
349
68
-260
199
-474
81
-230
-167
31
-318
155
-171
-259
-27
-10
8
-322
139
-90
48
-119
-340
-153
-165
-50
-219
203
-38
-16
157
-114
462
334
-1546
-63
129
-95
-168
-895
142
125
60
-296
-94
10
-381
6
225
25
-139
35
138
84
-112
-125
-416
-382
-109
-25
-54
30
-152
-142
-33
148
-100
-335
-588
-165
-98
-368
-36
242
481
-82
-97
-84
-423
-443
39
1452
-34
-214
87
25
-386
-282
-238
-187
-49
-48
-151
262
-30
128
-130
-12
74
-101
-3
-86
70
-129
-70
-172
101
-178
-98
-18
133
165
78
196
-85
-48
330
-190
302
80
126
46
-190
-55
-241
320
-33
-279
-81
96
-8
-313
83
-280
-238
-118
40
-5
65
-515
-72
35
237
0
-80
-192
-139
-213
209
300
11
293
-65
-203
-41
-54
-190
-220
-144
141
3
11
-136
107
-331
-169
128
-201
325
-35
28
-236
-116
236
-603
-378
-436
-31
-97
-127
-1034
-25
-149
61
125
114
177
73
-2
-99
246
307
-218
-152
395
117
106
168
155
-178
-260
64
-100
-275
-311
-168
-207
-81
-274
-257
223
286
307
127
-116
-352
-40
96
-172
192
-103
-95
-159
-18
-88
-76
64
-401
-391
-46
-625
-124
-205
71
20
-227
37
-397
-76
-445
-50
182
-582
-310
356
-46
99
44
80
-200
112
65
-20
-66
4
-289
-161
214
-86
-82
-112
78
-128
-333
-228
117
-198
197
-2498
-223
187
-78
-106
-338
-331
189
-346
250
-176
-49
145
114
-496
280
-205
-294
-35
-107
-207
276
10
-208
202
91
59
-1149
43
-245
-23
-334
-158
-2950
-110
-42
-328
4
77
166
-223
-76
-87
-59
-25
-261
-73
96
100
-28
40
-225
-119
-33
-69
-239
-324
-359
-239
-11
-415
-76
135
-489
268
-114
-118
-170
40
4
-128
-52
-21
-408
24
77
-108
-180
-74
-386
-390
-297
40
-62
-125
-292
-347
28
-202
-61
-111
-1037
78
69
-682
122
-53
-82
82
-27
-211
147
107
-81
-44
131
-353
110
-269
158
-267
-68
126
-34
117
154
146
-246
-167
-1266
53
-70
-37
-175
