-120
-1109
-809
-62
-693
-163
-312
72
146
-357
-990
-175
-13
-132
-639
-1379
-130
-1090
-145
626
-598
235
-447
156
-135
-260
-72
-104
-76
14
144
330
-240
-569
-488
-509
-387
-167
-97
493
-1226
-388
101
-722
-258
-243
32
-920
-777
-244
-68
-198
1552
-615
-121
-78
-21
-55
70
-746
-199
-3
-54
-81
-567
284
-327
125
-19
-759
-7
-170
-239
-34
-2367
-244
-318
309
-263
173
-117
-1471
-102
-229
-314
-306
126
2524
-27
-367
13
-133
-48
-98
12
676
-405
-101
1094
-336
-57
-93
1476
-222
-327
78
-581
-255
25
383
-934
-789
90
-18
151
-82
194
21
-309
-336
-743
18
-294
2
-280
-528
-525
-23
128
222
-171
-216
-112
166
-6
1035
217
311
-26
540
-95
-14
-1123
432
-1201
223
-1567
1534
-439
-73
-181
-211
-1029
-162
-1
43
616
-435
-195
-1087
-335
474
-654
-363
-453
-179
-261
696
-309
-36
-111
100
363
-347
-444
91
309
403
-50
-531
-95
918
-67
-98
-864
-453
-29
-30
101
-257
14
-337
184
-798
14
265
-61
-271
-971
-182
-16
-339
-99
-409
-155
157
-2
-416
-674
-588
-1005
-500
-133
154
154
651
-1642
109
9
-289
98
-1429
-293
-414
80
-156
-584
-385
-153
-137
-195
133
154
-674
-256
623
702
-207
817
-787
-421
-234
-924
58
-461
678
75
-208
-46
-94
-459
97
-227
605
-304
-97
-28
-323
909
152
368
131
-512
-56
550
-585
145
-839
134
651
33
-216
-618
53
-1032
-109
-190
-288
384
-356
-110
-59
-608
-55
166
-700
-73
-250
-151
-188
-29
147
-6
-1180
-1421
824
-246
-233
10
-524
-245
-1555
14
-398
-289
-541
-40
-270
52
-314
-176
-120
117
-1117
-191
332
999
550
-231
95
-1136
389
-633
-153
-326
227
-544
-242
249
-448
-324
-7
125
167
0
320
-74
529
37
-191
604
431
83
430
-229
227
-348
-47
-242
1283
511
321
-12
-695
-774
-585
745
-615
20
48
-63
112
-275
761
-156
205
-735
-1093
12
133
-491
-573
-575
-94
-132
-113
-70
-103
90
-447
-167
-284
126
-555
-441
-805
-144
-687
-406
-688
-175
68
-908
-236
-506
-110
-70
-557
310
-354
165
-1735
3
-285
-372
16
-1175
-190
73
-184
-264
-281
93
34
-326
-193
-105
-230
231
720
-498
-491
492
0
-391
-170
-688
-380
-375
288
-1578
-279
533
-346
-157
-22
-164
-1101
61
-331
121
674
66
-169
-72
-85
191
309
69
-26
292
-661
504
-226
-202
697
161
-31
222
-85
156
-217
-45
404
68
-270
-1198
-165
22
193
431
-935
362
-249
-288
32
80
-78
42
-316
-590
682
748
154
-491
-1189
-209
11
-1044
-26
52
-115
-82
423
-83
-7
-287
22
-101
99
78
-320
268
55
-529
-110
-8
394
-77
83
48
-55
-364
-509
-291
-307
604
-402
-1333
185
-1277
-391
678
-151
143
38
-28
99
-459
724
73
1364
34
-129
1024
-762
-150
-674
485
-1403
-529
-90
318
-284
-150
-151
-503
22
-150
-43
488
-210
43
-61
-74
-79
-117
-394
1711
604
-275
-328
-74
-21
35
-324
-101
30
-39
-50
-325
-121
-96
-260
925
-143
-254
140
7
-179
555
-906
59
-4
-674
-438
807
-395
-357
-18
-319
-251
-62
-209
-210
-19
59
-408
-22
-135
-286
-121
187
-674
58
832
108
-461
235
-114
379
8
29
-847
-1128
434
-279
-66
-786
-292
-503
614
461
-429
-803
-468
-170
-13
167
-243
-112
-450
300
-38
20
-8
441
-371
-75
72
-649
-718
-631
-380
27
-649
-80
119
457
-644
-85
15
-258
665
99
-72
-86
-301
-636
210
268
-46
-183
-149
248
-802
-287
-269
196
-423
-312
-1
-1466
-442
-287
27
-283
-1207
-76
455
-80
-510
-385
-245
61
-166
107
326
-221
-421
-178
166
-172
-266
656
-80
88
71
-505
-696
-266
-37
35
227
-301
-705
449
-635
349
219
-526
-534
-176
359
166
1972
-242
-671
357
-330
-148
-339
-504
-282
306
21
-32
-228
236
129
-471
30
-361
-902
-226
-625
-21
92
-480
-66
743
-383
-31
146
-255
-584
323
449
26
-104
-475
-151
-551
-384
349
-213
-118
-52
-638
131
-52
-40
399
-10
83
-283
-26
-692
-1015
140
391
-358
-294
23
-449
26
-12
-530
-232
-583
220
565
-143
-318
-100
-234
182
-88
-452
-578
-390
-241
-162
-193
128
-591
-674
-392
-108
-112
-87
-949
-69
-61
-414
-148
80
-736
180
-1350
39
-433
-149
-149
185
-2286
-305
-32
-388
164
-461
-323
484
-54
-42
3
111
1015
-572
-240
-212
-89
-22
-48
-55
-280
-523
-94
22
861
59
-241
-720
-156
337
-336
-10
-420
131
-606
-439
1013
154
134
-548
-762
-136
-274
113
-784
-98
-169
224
-151
-94
-31
-1302
657
-893
-221
444
-2
-179
-1197
-245
-43
-61
-405
-583
-501
-545
-115
285
690
16
-90
131
-243
134
-18
-491
146
-1098
-229
698
-1268
234
17
-369
425
95
667
-91
26
98
182
-69
-469
233
-394
235
309
311
-568
-334
-910
-1041
-401
117
-593
-170
-1041
-41
46
84
-32
304
113
-509
-449
11
-744
58
-107
22
-63
-692
-259
1397
-1018
211
481
-405
-501
285
301
-528
1013
-382
-132
-945
-38
-62
18
-450
2
-401
300
-463
-460
-667
211
-301
164
22
-392
25
-385
-1446
-708
-515
-37
120
88
45
-1334
-759
-58
-198
-1183
7
-164
75
-688
-255
44
-414
-423
-667
-87
-45
331
-167
-65
675
-346
745
-415
-352
101
-17
-341
-601
29
-371
9
-471
681
-1342
-298
-317
-45
-471
-518
-286
-305
205
16
30
-229
-858
-137
110
-208
