0
0
-2
0
0
0
0
2
0
-1
5
-1
-4
0
4
3
0
-8
-1
1
-1
5
0
0
-2
0
-1
0
-1
2
-2
1
-2
0
0
1
-6
2
0
0
1
1
2
-2
0
0
1
-3
7
2
1
-1
0
0
-1
3
0
-15
0
0
2
0
2
-1
0
0
1
1
-1
-1
-5
0
-1
1
-4
1
0
1
0
-1
0
1
-2
0
1
1
-1
0
0
0
0
-6
0
0
0
-2
2
1
1
-3
1
0
-9
0
-1
2
1
0
1
1
0
1
0
-3
0
-2
-4
0
4
0
-1
7
1
0
0
0
3
0
-4
1
-4
1
1
0
0
0
3
-6
-1
0
1
0
-1
0
0
-7
-3
-1
-3
-3
-1
-2
1
10
-1
-3
0
0
-7
-4
-3
-2
6
1
0
1
2
-5
1
0
-1
1
0
0
0
8
1
-1
2
-5
1
1
1
0
0
0
-2
8
-1
1
-4
0
0
1
0
2
-3
0
-2
0
0
-7
0
0
0
1
-2
4
4
-1
1
4
-1
-6
0
-2
-1
-5
0
8
1
1
-1
0
0
-3
0
-2
1
2
0
-2
-1
2
0
0
3
1
0
10
0
-1
0
0
1
0
0
1
-1
2
3
0
0
-1
0
1
-7
0
1
-2
0
-1
0
2
-2
0
-4
-1
1
0
0
-2
0
3
1
-31
-1
-1
0
0
3
0
-4
0
-1
1
-2
-3
-1
0
-2
0
0
-1
4
-1
0
-1
1
0
0
0
1
1
0
-1
-2
0
0
2
5
-4
0
-1
-1
-1
1
0
-1
-1
0
0
0
2
2
0
-3
0
-2
2
1
1
0
-3
1
1
1
0
0
0
0
0
1
0
2
0
4
-4
-2
0
0
-1
13
0
1
-1
1
0
3
-7
-2
0
0
0
-2
0
-10
0
-3
0
1
0
0
0
2
-2
-1
3
-1
0
0
2
2
0
-2
2
3
0
0
0
0
-1
-1
-2
-1
0
-1
-4
-1
0
0
-2
0
0
2
-1
2
0
0
1
1
0
0
-1
0
-2
-1
0
-3
0
0
1
-1
-9
1
0
0
-2
0
-1
0
0
-1
30
0
0
1
1
0
0
0
0
1
-1
-1
1
0
3
-6
-1
1
-6
-1
0
-2
0
-1
0
0
0
0
1
1
1
-1
0
-1
0
1
-2
0
-1
-1
1
0
1
-1
1
0
1
0
1
0
-1
-1
0
0
-2
0
0
-1
-1
0
-7
0
2
0
1
-2
-1
-1
-1
0
1
0
-1
-1
10
-41
-10
1
2
0
-1
-1
1
0
-1
0
-2
-1
-3
0
0
-3
1
2
1
0
-3
0
1
0
1
0
0
1
0
3
0
1
-1
3
2
0
0
1
0
2
1
0
-1
0
1
1
1
0
0
-1
0
-1
-1
0
1
0
0
-1
2
0
-2
2
0
3
-1
1
0
0
-1
-2
-1
1
0
-4
0
-1
0
0
0
0
3
0
0
-1
0
0
0
0
-2
0
0
-1
0
0
2
9
0
0
0
17
0
1
0
-1
0
1
-2
0
1
0
0
-3
-1
-1
-1
0
-1
0
0
-2
0
3
1
0
0
1
0
0
0
-1
0
-2
2
-1
0
0
0
0
-1
2
1
-1
0
0
-2
1
-1
-5
-1
3
1
4
-1
17
-2
2
0
-1
1
0
0
0
1
2
2
-4
0
1
0
2
-6
2
-1
0
0
0
0
0
1
1
0
2
1
0
6
-1
0
-1
0
0
-2
-1
-2
0
3
0
1
0
-6
0
0
0
0
-1
-1
0
-1
0
1
-1
-2
-2
-4
0
-3
1
-1
0
-2
3
-1
2
-2
2
-2
1
0
2
0
7
1
1
0
0
2
0
1
0
-2
0
1
0
3
0
-2
1
2
2
0
0
1
1
1
0
1
4
2
2
-1
1
0
-2
-12
0
0
2
-1
-1
-1
1
1
0
0
0
4
0
4
0
-1
-6
-3
0
0
-2
0
-2
0
-1
2
0
1
2
0
0
-5
-1
-2
0
0
1
3
-5
-4
2
0
1
2
-7
1
1
0
0
1
0
-2
0
3
1
-1
4
2
-1
-3
0
1
1
1
2
-2
1
0
0
1
-7
-1
0
1
-1
3
0
-2
4
0
0
0
-1
0
0
0
0
1
2
0
0
0
3
0
3
-2
1
0
1
1
2
1
-2
0
1
0
0
0
1
0
0
1
3
0
1
1
-4
-3
0
0
-2
3
-1
0
-4
3
0
1
-7
0
0
2
-3
0
4
-1
0
1
-3
-2
0
-1
0
2
0
-1
1
4
-1
-5
1
2
1
1
-11
-3
-5
-6
1
2
0
-3
-3
1
1
-1
0
1
0
0
0
-1
1
-1
-1
-8
-1
-1
2
0
0
0
-8
-3
2
0
0
-2
0
4
0
1
-4
0
-1
0
-6
-6
0
-3
0
0
4
0
2
-2
-1
-2
1
-6
0
2
0
3
2
2
0
3
-1
0
3
1
0
-3
-1
1
0
-1
-2
4
-1
-2
7
0
-1
0
0
-1
0
8
1
-2
0
-4
1
0
-1
0
0
0
1
-1
0
0
-1
0
0
0
-1
6
0
0
0
1
-6
0
5
1
0
1
1
1
1
6
0
0
3
0
-1
0
0
-1
-1
0
-8
0
1
1
-4
0
0
0
-2
1
-5
1
-2
0
-1
0
2
-2
-2
-1
0
2
-1
1
0
5
-4
-2
2
1
1
-1
0
0
0
-3
0
-1
1
0
-1
0
1
1
0
-1
1
-2
1
1
0
0
1
-5
-2
0
0
0
0
0
0
0
0
1
1
0
-2
-2
0
0
-6
0
-1
2
-1
0
1
2
0
1
0
-3
0
-6
3
0
1
1
0
2
0
0
1
-4
-7
0
8
2
-5
-2
0
0
0
-2
1
-2
3
0
1
0
0
2
0
-1
-1
0
0
0
1
14
0
-20
0
2
-1
0
-3
0
2
2
1
2
0
0
-1
0
1
2
0
-2
1
0
0
1
-1
0
0
-2
-2
0
-10
0
1
0
1
2
1
0
-1
1
0
1
0
1
-2
0
-1
0
2
-6
0
0
0
1
1
1
-10
3
1
5
0
1
0
-2
-3
1
1
1
0
1
0
0
-1
-1
-1
1
0
1
0
1
-2
0
1
-1
-3
0
-1
1
0
0
0
-3
3
-2
0
2
-2
2
1
0
-1
0
3
-3
1
-1
-3
0
0
0
-3
3
-1
0
0
6
0
0
0
2
0
-2
0
-1
3
-3
0
0
2
0
1
-1
0
3
0
1
0
0
1
-2
0
-3
0
1
0
-2
3
6
3
0
-16
4
-1
-2
1
2
0
1
-1
0
0
-1
1
0
3
-4
-2
2
0
0
1
-1
3
1
2
0
-1
0
1
0
0
0
-1
-5
2
3
3
0
1
-1
2
0
0
0
0
-9
1
0
0
-1
1
0
0
1
-6
0
0
4
-14
-1
-1
0
1
-3
0
1
0
2
0
-4
-4
0
0
8
0
2
-7
0
-1
-5
-4
0
-6
-5
-3
0
1
0
0
-1
-1
1
5
0
-1
1
4
-2
0
2
1
2
0
0
0
1
4
4
0
0
1
3
3
-1
-2
2
3
2
0
-1
3
-1
-3
-7
0
-1
0
0
0
6
-4
-1
0
1
-1
0
-3
0
0
0
-11
-2
1
0
1
-2
0
5
0
0
2
0
0
0
-6
7
0
3
0
-5
0
0
0
-3
-4
-1
0
2
0
0
-2
2
3
-10
1
2
2
1
1
2
0
-2
0
0
0
-1
-3
-4
-1
-1
4
0
1
-1
1
-1
0
-2
0
0
0
-2
-4
1
1
-1
0
0
1
-2
0
0
5
0
1
0
-4
5
0
0
2
-3
-5
0
-3
2
0
-5
0
-1
0
1
0
0
-1
0
0
0
0
0
-1
-1
1
1
-5
1
-2
0
0
0
0
-1
0
-1
-3
0
-3
-2
1
1
0
3
0
-4
1
1
0
-4
1
-8
0
3
1
0
0
0
-1
-1
-3
0
0
0
0
0
2
1
0
1
1
-2
-4
-4
1
0
2
2
-5
0
0
0
0
12
0
0
0
1
0
0
-2
2
-2
0
-3
0
-3
-6
5
0
0
-1
0
1
0
5
1
6
0
0
-1
0
0
-7
1
0
-3
-4
3
0
-2
-4
2
4
-2
0
0
-2
2
0
0
0
6
-9
1
0
-1
0
-1
1
-1
-2
0
-5
0
2
1
0
-1
0
4
-1
1
-4
-1
1
-1
0
0
-1
-3
-4
1
-2
0
0
0
3
2
0
1
1
2
1
-2
0
0
0
1
2
0
0
2
0
0
0
0
1
-2
0
0
0
0
2
0
-2
0
-2
0
7
1
2
-3
1
-2
0
0
-3
3
-1
-4
9
0
5
-2
-1
0
1
0
4
0
-2
0
1
1
0
2
-1
-1
0
-1
0
-2
0
0
1
-2
1
0
3
-2
1
0
0
0
0
-10
-2
0
0
4
1
0
0
0
12
-1
-1
1
0
-3
0
-3
-1
0
-2
0
-1
-2
-2
0
0
0
0
1
1
0
-2
1
0
-5
0
1
-2
1
2
0
0
0
-1
4
1
-2
0
0
0
17
1
-2
-1
0
2
0
-1
0
5
-1
0
2
2
1
-2
0
0
0
-2
-1
-2
1
0
-1
0
-1
2
0
-1
0
0
0
0
-2
0
1
-3
0
0
0
0
0
1
0
0
0
1
-1
-1
2
-2
2
0
1
1
-2
0
11
0
0
-11
0
1
0
-5
0
3
0
0
3
1
-1
-12
1
0
4
7
2
0
-3
-2
-3
-1
1
0
0
0
3
-7
0
0
-1
-6
-1
1
1
-5
4
-4
-1
0
-2
1
0
5
1
-4
-1
1
6
1
0
-8
-1
1
0
1
-1
0
1
0
-1
1
0
0
0
-5
0
0
-1
-4
3
1
-4
0
0
0
2
7
0
0
-6
0
0
-1
0
-1
-4
0
1
0
-1
11
0
2
0
2
-4
0
-3
4
-2
2
1
-4
0
3
-1
0
-1
1
0
-3
1
-1
-1
-2
0
3
1
3
1
1
-1
-9
3
-1
3
0
0
4
0
1
0
2
1
-1
0
0
0
0
-1
1
1
0
1
0
0
0
1
0
0
0
0
11
0
0
-1
-1
-11
0
3
-4
0
5
1
0
1
2
0
0
3
0
0
0
0
-3
0
0
-5
0
1
1
-2
0
0
0
1
1
-5
1
-4
0
0
-2
-3
-2
-3
-1
0
1
0
0
0
8
-3
-1
2
1
1
-1
0
0
-1
-3
0
0
2
0
-2
0
1
2
0
1
1
1
1
0
1
0
1
-6
-1
0
1
0
0
-1
1
0
0
1
2
1
-2
-3
1
0
-1
0
-1
1
0
0
0
1
0
1
0
-7
0
-9
0
0
2
1
-1
3
-1
0
2
-4
2
0
13
2
-4
-2
0
0
0
-2
1
5
3
0
-1
0
-2
1
-1
0
1
2
0
4
0
-2
0
-7
-1
1
-1
1
1
0
1
1
0
2
0
1
-2
0
1
1
-1
0
1
-1
0
-6
1
-1
1
-4
-1
0
-3
0
0
0
2
0
1
0
-2
1
0
-1
0
1
-5
0
-1
0
2
-1
0
0
0
2
0
-4
-12
2
0
5
1
-1
0
-3
0
0
0
0
0
1
0
0
-1
-2
0
1
0
0
0
0
-2
0
1
-1
-1
0
0
-2
-1
1
0
-2
5
-3
0
-2
-2
0
0
0
-1
0
5
1
1
0
-4
5
0
0
1
-5
0
-3
1
1
2
0
4
4
-1
-10
0
0
-1
-3
0
0
0
0
1
0
1
1
-1
0
-2
0
-2
2
-2
2
0
1
-1
2
-1
4
3
0
0
0
-4
-5
1
0
0
0
0
2
0
-8
2
1
0
0
2
0
0
0
-2
0
2
2
0
0
0
0
6
0
0
1
-2
-4
0
-2
-13
0
0
2
0
0
-1
0
-1
1
0
0
0
1
1
0
2
-2
-1
0
-4
-3
-1
3
0
0
1
1
1
0
1
0
0
-1
-11
0
5
1
0
-1
-1
0
-2
3
2
0
-2
2
-3
0
-2
0
0
-1
-2
1
-6
0
1
3
1
0
1
-6
-2
-3
2
3
1
-1
2
-1
-1
5
0
1
-4
0
0
-2
-3
1
-1
-4
6
0
1
-1
-1
-1
-1
0
0
15
-2
0
2
4
0
-1
-4
0
1
0
-3
1
-6
0
0
1
0
0
0
1
4
0
1
0
3
-2
0
-1
0
-1
-2
-2
0
-3
3
-5
1
-5
0
0
3
-3
2
6
0
-2
0
0
0
-6
0
-3
0
2
0
-1
0
4
0
2
-4
1
0
-5
1
-3
0
-6
2
1
0
4
0
2
0
0
1
0
1
0
0
0
-1
-2
0
0
0
3
2
1
-6
2
-3
0
-4
1
-1
6
2
2
-3
2
0
0
-3
0
2
0
6
2
0
-5
1
0
1
-2
-1
0
0
0
0
-1
0
0
0
0
-1
0
0
3
2
1
0
1
0
-4
0
8
-1
0
3
-1
-10
-2
0
-1
2
2
-1
0
1
0
-1
0
0
1
0
1
3
1
-1
0
-1
0
1
2
0
0
1
0
0
2
-2
0
0
0
-1
0
1
0
-1
0
0
-2
0
0
1
0
0
3
0
1
-2
1
0
0
1
0
-9
-1
0
3
0
0
1
-2
1
0
2
0
4
0
3
0
0
0
-1
1
1
0
-2
-3
-2
-2
1
-1
0
-1
1
1
0
-1
-1
3
1
1
1
2
0
-1
10
0
-15
1
1
0
0
4
0
1
0
0
1
-1
0
-17
-3
1
0
0
-2
1
0
0
1
0
0
3
0
-1
-1
0
-1
-1
0
1
-1
0
5
0
1
-3
0
0
0
-1
0
-1
1
3
-1
4
1
0
0
0
-2
0
1
-4
0
-1
0
0
-1
-1
0
0
1
1
0
2
0
0
0
-1
3
0
0
-2
-1
-2
1
-1
-4
-1
0
-2
-1
0
-2
0
2
0
-1
-1
-1
0
1
0
0
0
0
-1
-2
-1
0
-1
-2
0
2
-1
-1
1
3
1
0
2
0
0
0
0
2
0
1
0
1
3
0
0
0
1
1
0
1
-1
-1
0
1
0
0
0
-1
0
0
0
0
0
0
2
0
0
0
1
0
0
3
1
-2
-1
0
0
0
0
0
-1
-1
0
-1
1
1
-1
0
4
0
1
0
1
-1
0
0
1
1
0
1
0
0
4
-1
0
0
1
-4
0
1
-1
1
0
1
0
0
1
2
0
1
-1
1
0
0
-1
0
-1
1
0
-1
1
0
-6
0
0
1
0
0
0
0
0
1
1
0
0
0
0
0
-4
0
0
0
-2
1
0
32
1
0
0
0
-1
-7
0
0
-2
2
0
0
-1
2
-2
5
2
-3
0
2
0
0
-1
0
0
0
0
0
1
0
-2
0
4
0
1
-1
1
1
0
0
0
1
-1
1
0
0
1
2
0
0
-1
0
0
-1
0
1
0
0
0
0
1
0
-2
-1
-2
0
-1
0
0
0
-1
1
3
1
-2
1
-2
-1
1
5
0
1
2
10
0
0
0
0
0
0
-1
1
2
0
2
0
-2
-1
1
0
-1
0
1
0
0
0
2
4
1
0
1
-1
0
2
1
0
0
-2
1
0
1
-10
2
5
0
-1
-1
0
-9
1
1
1
-1
0
0
3
0
2
0
0
1
1
-1
-1
0
0
0
-1
0
-1
0
0
-2
0
0
-2
0
-1
-1
4
-1
-5
4
0
0
1
-5
0
-6
0
1
0
-1
-2
0
0
0
0
1
-1
2
7
0
-1
-1
-1
0
0
0
1
1
-3
0
1
0
1
-1
-5
0
0
0
0
1
-3
0
0
0
-4
1
-4
0
0
0
-1
-3
-4
0
0
0
0
1
0
0
0
4
0
2
1
0
3
0
0
2
0
0
-1
-6
2
0
1
-5
-3
2
-1
0
0
-2
-1
0
0
0
0
1
1
-1
2
1
2
1
0
3
0
1
1
8
1
-2
1
-1
5
1
3
4
9
2
0
-1
-1
8
-1
0
1
-2
0
0
0
4
2
1
1
-1
2
0
0
0
0
0
-2
-2
0
0
1
0
0
-1
0
1
-2
0
1
0
1
3
0
2
0
-1
0
1
1
2
0
0
-1
2
0
1
0
-1
-3
-6
-1
6
0
0
-1
0
0
2
0
-2
0
3
2
0
1
-1
-2
-1
0
1
-2
1
-1
-2
0
0
0
-1
-1
2
0
0
-4
0
-4
1
0
0
0
0
0
0
0
0
0
0
0
0
0
0
0
0
0
0
0
0
0
0
0
0
0
0
0
0
0
0
0
0
0
0
0
0
0
0
0
0
0
0
0
0
0
0
0
0
0
0
0
0
0
0
0
0
0
0
0
0
0
0
0
0
0
0
0
0
0
0
0
0
0
0
0
0
0
0
0
0
0
0
0
0
0
0
0
0
0
0
0
0
0
0
0
0
0
0
0
0
0
0
0
0
0
0
0
0
0
0
0
0
0
0
0
0
0
0
0
0
0
0
0
0
0
0
0
0
0
0
0
0
0
0
0
0
0
0
0
0
0
0
0
0
0
0
0
0
0
0
0
0
0
0
0
0
0
0
0
0
0
0
0
0
0
0
0
0
0
0
0
0
0
0
0
0
0
0
0
0
0
0
0
0
0
0
0
0
0
0
0
0
0
0
0
0
0
0
0
0
0
0
0
0
0
0
0
0
0
0
0
0
0
0
0
0
0
0
0
0
0
0
0
0
0
0
0
0
0
0
0
0
0
0
0
0
0
0
0
0
0
0
0
0
0
0
0
0
0
0
0
0
0
0
0
0
-1
1
0
2
0
-1
0
0
1
-2
-3
-1
1
0
-2
-1
0
-3
3
1
1
-7
0
0
1
0
1
0
0
0
9
-16
-3
0
1
0
2
0
0
0
0
1
-1
1
0
0
1
0
0
-1
-3
1
0
-1
-3
0
0
-7
-1
-1
2
-1
-1
-1
0
-1
1
1
-1
1
-13
0
-1
-1
1
2
0
-1
3
1
1
0
1
0
2
-3
0
0
1
0
0
-4
-2
0
0
-2
-2
0
2
0
1
0
3
-2
0
-1
0
0
-2
2
0
1
-1
-2
0
0
1
0
5
1
0
1
0
0
1
1
-2
0
1
1
-5
-1
-4
0
0
-1
1
-1
1
0
2
2
1
0
-2
0
1
0
0
0
-3
1
0
-3
1
0
-1
-2
-2
1
-5
-2
4
2
0
3
0
1
0
0
0
-1
0
0
0
2
0
-4
0
-1
1
3
0
0
0
0
2
-1
0
-1
-1
1
-1
1
0
0
1
0
3
0
1
0
0
0
0
2
0
0
-2
4
0
-3
1
0
0
2
0
1
-2
0
-1
-3
1
0
-2
0
0
5
-1
1
1
-11
2
-1
2
-1
0
0
1
11
1
-1
0
1
2
2
0
1
-1
-2
1
0
3
0
0
-1
0
0
1
1
0
0
-1
-2
0
0
0
-1
1
0
-4
2
-1
-5
0
2
-5
-3
0
0
-3
0
0
0
-1
-2
-1
1
2
1
-5
-4
0
0
0
0
1
0
-1
1
1
0
-1
-3
-2
0
-1
-1
0
0
0
1
0
1
-2
0
0
3
0
-1
0
0
-1
-2
-1
-2
-2
0
-1
0
1
1
0
0
4
1
0
0
1
0
1
3
0
0
0
0
0
-1
0
0
0
1
2
1
-2
-1
1
0
3
1
0
-3
2
0
0
2
0
2
0
0
0
-7
3
0
-1
0
-1
-4
0
0
1
-3
-3
0
11
1
3
-2
1
0
0
1
0
2
2
0
-1
4
-3
1
0
2
-6
-6
0
3
-1
1
0
-1
0
1
-1
-5
-2
1
0
5
-1
2
1
-1
1
0
-1
-1
1
-1
0
0
0
8
0
0
1
-1
-7
0
1
0
0
0
2
0
-1
0
-1
1
-1
-3
0
0
1
0
0
0
1
-3
0
1
0
1
-1
-16
-1
4
-2
-3
0
1
0
-9
1
2
-5
4
0
6
0
0
-1
-1
0
-1
0
0
0
-1
0
2
0
-2
-2
0
0
0
-1
1
0
-1
-4
-3
0
0
-2
0
-1
0
-2
1
6
1
0
0
0
2
0
0
2
-5
0
-2
-18
-1
-1
0
5
0
1
-10
1
1
0
2
0
0
-2
0
3
0
4
0
3
-1
2
0
1
-2
-2
2
0
1
0
3
1
-2
2
0
-1
-4
-4
-1
1
-2
0
-2
1
-8
0
-8
2
0
-22
0
1
0
0
1
-1
-1
-1
0
11
0
0
-1
-3
2
0
1
2
0
-2
3
-1
0
1
1
-1
0
0
0
1
9
-1
0
0
-1
-7
1
3
0
-1
0
-6
-4
3
0
-1
0
1
-1
-2
0
3
-6
0
2
-3
0
7
1
1
3
1
0
0
6
-2
0
0
2
-5
1
0
0
0
1
2
-2
-2
0
-1
1
-1
0
-1
-7
3
-2
-3
0
0
2
2
1
0
-1
0
0
-4
1
9
-3
-5
1
0
1
4
11
1
-1
-1
1
0
0
0
11
0
2
2
-1
0
-1
0
0
3
0
-2
-1
-2
0
-2
0
0
1
0
-1
1
0
1
0
-2
-6
0
-3
0
2
-2
-2
1
-1
-1
0
-1
-3
0
0
-2
-2
0
8
-1
-2
-2
2
0
-1
-1
-3
-2
3
0
2
-1
5
0
-1
1
-1
-1
-6
2
-2
-1
3
6
0
0
2
0
0
3
0
0
2
5
-3
0
0
2
2
0
1
-2
-9
1
-1
1
0
7
0
2
2
-1
13
0
-1
1
0
0
0
7
0
0
0
-1
-1
0
-1
-7
1
3
2
-2
1
0
0
1
0
-2
-1
-3
0
-1
-1
-3
0
5
-1
0
-3
1
1
0
4
-1
-9
-3
1
0
0
0
0
1
0
-3
-1
0
0
-1
0
0
0
0
0
0
0
-1
-4
0
0
1
-7
-3
0
0
0
0
10
0
0
0
0
-1
1
-2
0
-1
0
-3
-1
1
-5
5
0
0
4
0
1
-1
-2
0
0
0
0
2
0
0
-2
1
0
0
-5
4
0
-7
-2
-2
2
-2
0
0
-5
0
0
-1
0
3
2
1
0
0
2
1
0
-2
-6
2
-2
-1
18
0
-2
0
0
-1
0
-2
4
0
1
0
1
-1
1
-4
-3
1
1
0
1
0
-8
0
1
1
0
1
2
-3
0
0
0
1
-14
0
0
0
0
0
2
-1
0
-4
0
0
0
0
0
0
-1
0
2
-2
0
-1
5
0
-4
-1
-2
0
7
1
-1
1
-3
0
1
-1
-1
0
-1
0
1
0
-1
0
1
2
0
2
0
0
0
-1
1
-1
0
0
0
1
1
0
0
-2
0
0
0
-1
0
0
0
-1
0
0
1
0
0
-4
-4
0
-1
-1
-3
2
0
1
-1
0
4
1
1
1
-4
0
0
1
0
0
1
0
-3
2
1
-2
1
1
0
0
0
0
0
-1
-2
0
1
-1
0
-2
0
-1
-2
1
1
0
-1
0
0
0
7
-2
-1
2
5
0
1
0
0
-1
12
-2
0
1
0
-1
0
0
0
0
1
-3
2
0
-9
0
0
1
-2
-1
0
0
0
0
0
0
0
0
1
0
0
1
2
1
0
2
0
2
-1
1
0
0
3
0
1
0
-2
0
4
0
0
0
1
0
3
0
0
-1
3
1
0
3
-3
-1
0
0
0
0
-2
-1
-2
0
0
-1
-1
1
0
0
1
1
-2
-1
1
0
1
0
1
1
0
0
-2
-1
0
-1
1
0
1
1
-1
-1
-2
-4
1
0
2
0
0
0
-3
1
0
0
0
1
0
0
0
0
0
1
0
0
0
0
0
0
-1
-1
-1
-1
0
1
0
-1
-7
0
-15
0
2
0
-5
-3
-3
-1
2
-1
2
0
1
-1
0
0
5
0
0
-2
0
-1
-1
0
-1
1
-1
0
0
-1
4
2
0
0
0
-1
-1
0
1
0
0
3
1
0
-1
-1
-1
0
0
1
0
-5
0
-21
-15
1
0
0
-2
0
1
-2
0
-6
-1
2
0
0
0
0
2
1
-18
1
2
0
0
0
0
-6
1
0
1
0
0
0
0
-1
1
-1
1
-1
-9
1
-2
1
0
0
0
0
-1
0
-1
-1
0
0
0
1
-7
0
0
0
1
-11
0
1
-2
0
-2
0
0
0
2
3
0
-1
2
0
3
0
2
-3
0
0
2
-1
0
1
1
-1
0
2
0
1
8
1
0
0
-2
-4
0
0
0
0
0
1
-14
0
0
2
0
2
-1
-7
0
-11
0
1
1
1
0
1
0
-1
2
0
0
0
1
1
0
0
1
1
1
1
0
0
-1
1
0
1
0
1
1
-1
0
-4
-1
0
0
-2
1
2
2
0
1
2
0
0
1
0
2
-4
0
0
1
2
0
0
-11
0
-1
0
0
1
0
0
0
0
7
0
-2
1
3
-1
0
1
0
1
-1
1
-6
-1
2
-8
-1
0
-15
0
0
2
0
0
1
0
2
0
0
0
0
1
-3
-2
0
0
0
0
2
-1
0
-1
7
11
1
0
1
2
0
0
1
-3
0
1
1
0
0
0
0
0
0
0
-9
1
-1
-20
0
-1
-1
0
0
0
0
0
-1
-11
-3
0
0
0
0
0
-1
0
0
2
-5
0
0
0
0
4
0
0
2
0
-1
1
-2
0
0
0
0
0
0
0
-1
2
-2
0
1
2
0
-2
3
-1
1
0
0
0
2
-1
2
-1
0
-2
0
-7
1
2
-2
0
0
-1
1
0
0
-2
0
1
1
-1
-1
0
0
-1
0
-2
-1
0
0
-1
0
1
1
0
0
-4
-2
0
0
0
0
1
4
2
0
0
0
0
1
1
0
0
1
-1
0
-1
-3
0
0
-2
1
1
0
-3
0
0
-9
0
1
0
2
0
-1
0
0
-2
0
-1
8
0
0
2
-2
2
0
3
4
3
-2
-2
0
0
1
0
6
1
0
-1
3
-4
1
1
0
1
-2
-1
-1
-1
-2
-3
-2
1
1
-1
0
3
0
0
3
1
1
1
1
-1
0
2
0
-2
2
1
-1
0
9
1
1
0
-3
1
-1
-1
0
0
0
1
-1
0
0
-2
0
0
-2
0
0
0
0
1
0
0
15
0
3
0
1
-2
-2
1
-1
0
-3
-1
-3
0
-2
-1
1
2
-8
0
2
-1
0
-1
-2
0
1
0
2
0
-1
-1
-10
2
-1
-2
1
2
-1
-1
0
0
0
-4
-3
0
-2
0
1
-16
0
1
1
3
0
0
0
4
0
0
0
0
14
0
-1
0
0
-11
0
1
1
0
-5
1
0
-1
1
0
0
0
0
0
0
0
0
1
-1
-2
0
3
-1
-3
0
0
0
2
2
-1
-1
-2
0
1
3
-10
1
-4
-3
0
1
0
0
0
3
-1
0
-3
2
1
-1
0
0
1
-2
-1
-4
-1
0
-1
0
-1
1
0
0
0
0
1
1
2
0
2
-2
1
0
0
0
0
1
0
0
0
-2
0
2
2
-2
1
0
-6
0
-1
2
0
0
-1
-3
0
1
1
-5
0
2
-2
0
4
1
-1
-1
1
0
3
3
8
0
-10
3
-5
0
0
0
0
0
3
-1
0
-1
1
-2
-7
0
0
-6
0
1
-2
-1
1
-9
1
15
2
-8
0
1
3
2
2
-5
1
2
1
1
-3
1
1
0
-1
1
1
-1
0
-3
2
0
3
-5
-2
2
0
0
1
0
0
5
0
0
-7
1
1
1
0
0
-5
0
0
0
1
-1
0
3
0
2
0
3
-2
1
0
5
-1
-5
0
-2
0
-2
-3
5
0
-2
-1
0
1
-2
0
2
0
3
0
0
-3
-3
3
-2
4
0
-2
-10
-2
0
0
2
4
-4
0
-2
0
0
5
1
1
0
1
1
0
0
0
1
0
0
1
-4
-1
0
2
1
7
0
-1
-2
0
0
1
0
-3
0
0
0
-1
0
-1
0
0
-3
0
1
1
0
0
0
0
0
0
0
0
1
-4
0
-1
0
0
-1
-7
0
4
-2
0
0
0
0
0
-2
-3
0
0
-1
-1
-2
0
0
-1
0
0
-2
1
0
-1
0
1
1
0
-1
-1
2
0
1
-4
0
1
4
-1
0
0
0
0
0
0
0
0
2
0
1
1
-2
1
0
-2
0
2
0
-4
0
1
-11
0
1
1
-1
0
1
1
0
-2
1
-1
5
-1
0
3
1
1
0
11
1
3
-1
1
0
0
1
0
-3
1
-1
-1
0
0
0
-1
0
3
3
0
0
0
-1
0
-4
0
-1
0
2
4
0
-1
-1
0
1
1
2
-2
-2
1
0
-1
2
1
-1
0
6
-1
0
0
-2
1
0
-1
0
0
0
1
-1
1
0
-2
0
0
-2
1
1
-1
0
1
0
0
14
0
1
0
1
1
-5
-2
1
-4
-5
0
0
0
1
-1
2
-2
-7
0
2
1
0
-1
-1
0
1
0
3
0
0
0
-9
1
-1
-2
0
0
-2
0
-1
0
-1
-3
-5
0
-3
0
0
-18
0
-1
0
0
-1
1
2
3
2
0
1
0
-2
-11
-1
-6
1
-1
1
3
0
1
0
0
1
0
3
0
0
-1
0
3
0
2
0
0
2
4
0
0
-1
0
1
-5
2
0
1
2
-2
2
0
0
-4
-1
-2
0
0
0
-1
-2
-5
0
4
2
0
6
1
2
0
0
2
0
0
-1
1
-2
0
0
-10
-3
1
0
-1
3
-2
-2
3
1
0
0
3
-1
0
0
0
-6
-3
0
0
0
-1
10
-1
-1
0
-2
0
-2
2
2
0
2
0
4
-2
1
-1
2
-1
0
4
-2
0
-1
2
1
0
1
0
-2
0
-2
0
-2
0
-2
-1
2
0
0
0
1
0
-3
0
-2
-2
1
-1
5
-2
4
-1
-4
-2
-1
-3
0
-1
0
-1
-1
0
2
-4
0
3
0
1
0
1
0
-11
2
-1
0
3
0
0
0
3
2
9
1
0
1
2
-1
1
1
0
0
-5
-2
2
-1
4
3
0
0
-4
1
0
-1
0
-3
-2
0
-2
0
1
-2
-1
0
-1
0
4
1
-1
0
-2
0
-1
1
2
-4
1
0
-3
1
0
0
-1
0
0
0
-2
1
4
0
0
0
1
0
-2
0
-1
3
1
3
0
0
0
0
0
3
-14
-9
5
3
-1
-1
0
-2
1
0
0
1
9
1
0
0
1
-7
0
-9
4
0
6
0
0
-2
0
0
0
-2
0
1
-1
-2
2
1
1
2
0
-8
-5
1
-1
0
0
0
0
0
-2
2
0
-1
-6
-1
1
1
1
0
0
0
4
0
4
0
1
-1
-3
0
0
0
0
-2
-1
-1
-1
2
0
-2
0
-1
0
0
0
3
0
0
1
0
0
2
-1
-6
0
0
0
0
-9
0
0
0
0
-1
1
0
-1
-1
0
5
1
-2
-5
-6
0
0
3
0
0
1
0
0
-2
1
0
-3
-2
-1
2
0
0
0
-4
0
0
-9
0
4
0
1
0
0
0
2
-1
-4
0
1
-3
-2
0
0
0
-1
-9
-1
1
0
3
1
7
-1
3
-1
-1
-3
1
0
0
1
2
0
1
1
3
0
-1
1
-3
0
0
0
-14
1
-2
3
0
-3
0
1
0
1
0
-1
1
0
1
0
1
0
-1
0
2
0
0
-2
0
-1
-4
0
1
0
-1
-4
6
0
0
0
6
-2
0
0
2
2
-5
-9
-6
0
9
-1
0
1
-1
0
0
0
1
0
0
2
0
1
-2
-1
0
0
1
-1
2
1
0
-4
0
0
1
-2
1
4
0
0
0
4
3
2
1
-1
3
0
-1
-1
-8
-1
-1
3
7
3
1
6
2
1
-14
-1
1
2
3
0
0
0
0
1
0
0
-1
1
4
2
0
0
-1
-1
1
0
1
1
2
1
-5
1
0
-1
-5
1
-2
-2
1
0
-1
-2
0
0
-10
3
-2
6
0
2
0
0
0
-1
-2
-1
0
-2
0
-1
0
-5
-1
0
2
1
2
-4
4
2
0
1
3
-5
0
-1
0
0
-2
3
0
0
-3
8
0
-1
1
-1
0
-6
2
2
-2
0
0
1
-3
-1
-1
1
0
1
2
0
0
3
2
1
-2
1
0
-4
-4
0
0
5
-3
-6
0
-1
0
0
1
1
-1
-4
0
0
0
3
-1
2
-1
4
0
-3
-5
-1
0
1
3
-1
-7
0
0
1
-4
1
4
-1
1
-1
-1
0
-6
2
0
1
1
0
1
0
14
5
-2
2
-3
2
1
3
0
1
0
-9
-6
-2
0
-1
1
0
3
0
-1
-1
1
-2
0
-4
2
0
0
0
-1
2
-4
2
-4
-1
-2
0
-2
0
-1
4
-2
4
-5
0
-2
0
1
2
-1
3
-4
1
0
0
-3
-1
3
0
-1
1
0
0
2
-1
-2
-1
4
4
2
0
-4
0
2
1
0
5
1
4
4
0
0
4
0
0
0
-2
-3
-1
2
0
0
5
0
-4
1
0
0
1
0
0
1
0
0
2
0
-1
-1
-2
-2
1
0
1
0
1
-3
-1
0
1
0
-1
-9
2
2
-3
0
-3
0
4
0
2
3
0
-2
-1
0
0
-2
1
-4
-2
2
0
1
0
0
-2
1
1
-1
-4
0
-1
1
1
0
0
-1
1
-3
-2
-1
0
0
2
1
-1
0
0
0
0
-18
0
0
0
2
2
0
-3
2
0
0
-5
1
4
-7
-2
0
0
-1
0
0
0
2
0
7
1
0
0
0
0
-24
1
0
-1
3
-1
0
9
-3
0
-7
-1
0
0
-5
-5
2
0
0
-11
-5
3
-4
-1
1
3
1
0
3
1
7
0
-11
1
-1
-1
3
4
0
0
1
1
2
1
-3
0
0
-4
-3
1
1
2
-1
0
-2
0
0
-1
-1
2
1
-6
0
0
0
2
-4
1
0
2
0
0
0
0
0
0
0
0
0
1
-1
0
-7
0
-1
0
-3
0
1
-3
-1
1
0
0
-2
-6
1
2
4
0
-2
0
0
0
0
0
2
0
-2
0
0
1
2
2
-2
0
0
-1
-2
0
-1
0
-1
1
1
0
0
-1
0
-2
0
0
1
-9
-2
-1
0
-1
0
0
0
0
-16
0
2
0
0
8
0
-7
-1
0
2
0
0
-1
-1
0
0
-2
0
0
0
-2
-1
0
-1
2
0
1
-9
0
0
-1
0
2
0
-3
0
0
0
0
5
-1
1
4
-2
0
0
0
0
0
-2
-2
1
2
-1
0
-2
0
0
0
-1
0
-4
-5
0
-1
1
0
0
0
0
2
1
1
1
-1
0
2
3
2
0
0
0
0
1
1
0
0
-2
1
1
0
-2
1
0
3
1
2
-2
2
0
0
1
0
1
0
2
0
1
0
0
-3
0
-1
-1
-1
0
1
-4
7
0
-6
3
5
-1
-1
0
0
2
0
-2
-1
0
0
2
-3
-3
-1
-2
0
-1
-1
-2
0
-1
1
1
1
-6
0
2
-1
-1
0
3
2
2
0
1
-2
-2
0
2
-1
0
0
-1
0
0
0
1
3
-3
-6
1
1
0
0
0
1
-3
-1
0
-6
-1
0
-1
1
2
1
0
0
0
0
0
0
2
0
1
0
9
2
3
-6
-11
0
-1
0
1
-3
-2
0
-6
1
-8
1
0
0
-2
0
1
0
2
0
2
1
-1
1
-1
0
0
-2
-3
-2
-2
0
1
-4
-4
0
-3
-1
2
-7
0
-2
0
0
-1
0
0
-1
-1
0
0
0
-4
0
0
0
-1
1
0
0
-2
0
0
0
1
-1
0
0
0
0
0
-1
0
0
0
0
0
-1
0
-1
0
0
-1
0
0
0
0
-2
1
1
0
0
1
1
-2
1
-1
0
1
0
1
0
-3
0
1
3
-1
-1
-1
0
0
0
1
0
0
2
0
-1
0
1
0
0
0
-1
1
0
0
-1
0
1
1
1
0
0
0
0
0
0
0
0
1
1
1
1
-1
0
0
0
-1
0
0
1
0
-1
0
1
1
0
-2
0
-1
1
0
2
0
0
-1
-1
0
1
1
-1
0
6
2
1
0
-2
0
0
0
0
1
0
0
1
1
-1
1
2
0
1
-2
-1
2
-2
-2
-1
0
-1
1
0
-2
-3
-1
1
0
-1
1
1
-1
1
0
0
1
0
-1
0
0
0
2
-1
-1
-1
1
1
0
0
0
-1
0
0
-1
0
1
0
-1
1
-1
0
2
0
0
0
0
1
0
0
0
0
1
0
-2
-2
1
0
-2
0
0
0
1
0
2
0
-2
0
-4
0
0
0
0
0
0
1
2
0
0
0
0
0
0
-3
0
0
4
0
0
0
-1
1
-1
0
1
0
-1
-1
1
2
0
2
0
4
10
-1
1
0
2
0
1
-6
-1
-3
0
0
0
0
1
0
1
0
-10
1
2
0
0
1
0
4
0
0
1
0
0
0
0
-1
1
1
1
-1
3
0
0
2
0
0
0
0
0
-1
-1
0
0
0
1
1
-2
0
-1
1
0
0
-1
0
0
0
4
0
0
1
1
0
0
-1
-8
1
2
0
4
-3
0
0
2
0
0
1
1
0
0
1
0
0
2
-3
0
0
-2
7
0
0
0
1
0
1
-6
1
1
1
0
-1
-1
1
0
3
-1
0
-1
0
0
0
1
1
2
0
0
0
1
0
0
1
1
1
1
1
0
0
0
1
2
-1
0
0
-3
0
0
1
-1
1
0
-1
0
-4
0
1
0
0
0
0
1
0
1
1
1
0
0
0
-1
0
-11
1
0
0
1
0
0
0
1
2
11
1
0
0
-1
0
0
0
0
1
-1
0
7
0
1
6
1
0
-15
0
0
1
0
1
-1
0
0
0
0
0
-2
0
-5
0
-1
0
0
0
-1
2
1
2
0
-8
-2
0
-3
1
0
-2
0
-1
-1
0
-1
0
0
0
-1
2
-2
0
5
1
-1
10
2
-1
-1
0
1
1
1
0
-5
-14
3
1
0
1
0
-3
-6
0
0
0
-7
0
-1
-3
-2
-1
0
3
1
-1
-8
0
0
-1
1
0
0
1
0
1
0
0
1
-1
-1
1
0
-1
4
-3
-1
1
0
3
0
-4
0
0
0
0
-1
-7
0
-3
-2
0
1
-1
1
0
-13
0
1
-7
-1
-4
-2
0
-1
0
0
1
0
1
0
-1
0
-2
0
0
1
1
0
0
0
1
0
1
2
2
0
0
0
0
2
0
0
0
-1
-5
1
1
-3
0
0
-6
1
-1
1
2
0
0
3
0
1
0
-4
0
0
-1
0
4
-2
-1
-2
1
0
1
2
5
0
-5
2
-3
0
-10
0
0
1
2
9
1
0
1
1
-5
0
1
-2
-1
-1
1
6
0
1
-2
-2
-1
3
0
0
-7
1
7
-2
-10
1
1
-1
0
0
0
0
0
-1
0
0
0
13
3
2
-1
-3
0
0
3
0
1
0
-2
3
0
0
0
0
0
2
0
3
-7
0
0
0
0
-3
0
0
0
0
1
2
-1
-1
0
-3
1
-5
0
0
1
1
3
4
1
0
-2
1
0
-1
1
-3
0
2
0
2
-2
3
-1
-1
2
0
-1
-1
-1
-3
1
2
2
-2
0
-3
1
-1
-1
0
0
0
0
0
-1
0
0
0
0
0
0
0
0
0
-1
0
-1
0
1
0
0
-2
0
-2
0
0
0
0
0
0
0
0
0
0
0
0
-1
0
0
0
0
0
0
0
0
0
0
1
0
0
0
0
1
0
0
0
0
0
0
0
0
-2
0
0
-1
0
0
0
0
0
0
0
0
0
1
0
0
1
1
0
0
1
0
0
0
0
0
0
0
-1
0
0
0
0
1
1
-1
0
0
0
0
0
0
0
0
0
-1
-1
0
0
0
0
0
0
-1
0
0
0
0
1
0
0
1
0
0
0
0
0
0
1
0
0
1
0
-1
0
0
0
0
0
0
-1
0
0
0
-1
0
0
0
0
1
0
0
0
0
-1
0
-1
0
0
0
0
0
0
1
-1
-1
0
0
0
0
0
0
0
0
0
0
0
0
0
0
1
0
0
1
0
0
0
0
0
0
0
0
0
0
0
-1
0
0
0
0
0
0
0
0
0
0
0
0
0
0
0
0
0
0
-1
0
0
0
0
0
1
0
1
0
0
0
0
1
0
0
0
0
0
0
0
0
1
0
0
-1
-1
0
1
0
0
0
0
1
0
0
0
0
0
0
1
-1
-1
-1
0
-2
0
-1
-7
0
2
0
10
1
1
17
0
6
-1
-6
-5
-2
13
2
-3
0
-5
0
0
4
0
1
-1
-6
5
-3
-1
-5
0
-2
1
-3
-2
0
0
0
-3
-3
6
-1
0
2
-2
-1
-4
-6
1
0
2
3
-5
0
-2
-3
3
-11
-5
0
-2
0
2
2
4
4
-2
-4
0
-2
3
4
0
0
11
-8
4
3
-4
-6
0
-1
-5
1
0
3
0
0
-4
-5
0
0
-2
1
1
3
-2
3
0
6
-2
-5
4
-1
0
0
6
1
1
1
4
1
-6
3
0
6
-5
-1
0
-5
0
1
5
-3
0
1
7
6
-2
-2
0
0
-2
-2
-3
4
0
1
11
-1
-1
-5
5
-6
5
5
-4
-12
-1
-2
0
3
2
1
0
-5
-23
-28
-5
3
1
0
-5
0
-10
-3
3
-1
-5
1
-1
0
4
-2
-4
1
4
7
-1
4
1
-1
0
-3
5
3
3
5
-4
0
-2
1
-8
-3
0
2
0
2
11
0
8
0
-4
3
0
2
2
3
-1
0
-1
0
9
-3
1
-3
16
-2
2
-2
-1
9
1
-5
-1
-2
1
0
5
-3
-5
-1
-3
4
0
-1
-14
0
-3
1
-4
-6
-1
0
3
-1
0
-6
2
4
-1
-6
4
1
0
2
0
0
0
0
7
0
0
0
0
-5
0
-3
1
0
5
1
0
0
-10
0
0
4
0
0
0
-1
-3
3
1
-1
0
-1
-1
1
0
0
1
1
1
-1
0
0
0
0
-1
0
0
-1
-3
0
0
0
1
0
3
-2
-1
1
0
0
0
0
0
-1
3
-1
0
-1
0
-1
0
0
2
0
-1
-14
0
1
-4
1
0
1
-5
1
0
0
0
0
-2
0
0
0
2
-1
0
-3
-2
0
0
3
0
0
-2
1
0
0
0
0
1
0
-5
1
-9
1
0
2
-1
0
1
0
0
1
-3
2
0
-1
3
2
-3
2
0
0
-2
-1
1
-1
0
0
2
0
1
1
0
2
2
0
0
-2
-1
0
0
1
0
-1
-1
2
0
0
1
-1
0
0
0
0
-2
0
1
-1
2
0
0
0
-7
0
-1
0
0
0
0
0
0
1
0
-1
-11
0
0
-3
0
0
0
1
0
0
0
1
0
1
3
0
-3
0
1
0
-1
-4
-2
1
2
-1
-1
0
2
-1
0
-1
-4
0
0
0
0
-1
-1
0
1
-1
-1
0
0
-1
-5
2
0
-1
0
0
-1
0
1
0
0
4
-1
0
-3
-1
0
5
0
2
0
7
-1
-5
1
0
0
0
3
0
1
-3
-1
-4
0
0
0
1
1
0
2
1
-10
0
3
0
0
1
0
0
0
0
-2
0
1
1
0
-2
0
1
1
4
0
0
0
1
1
0
0
0
1
0
0
0
0
0
0
4
-14
0
-2
1
1
9
-1
-1
-1
0
7
0
-3
1
2
-6
0
-1
-1
2
2
0
4
-7
1
1
1
-1
0
-1
2
1
0
2
0
3
2
-9
0
0
-4
-4
0
0
-1
1
0
2
-9
0
1
4
0
4
0
-3
0
2
1
0
-1
1
0
1
1
0
2
0
0
-1
-1
-1
0
-2
2
2
2
1
0
0
0
2
1
1
0
2
-3
0
0
-7
-1
0
1
3
1
-10
0
1
-1
1
0
0
1
-1
0
1
2
-3
0
0
0
0
-11
1
0
0
0
0
1
0
0
1
4
0
-1
1
2
-1
0
3
0
1
-1
1
1
0
2
-3
0
1
-40
0
0
0
0
0
-2
0
1
0
0
1
-1
0
-6
-1
-2
0
1
0
1
3
2
2
5
-8
1
0
0
2
0
-2
0
-1
-1
0
0
0
0
0
-1
1
-7
0
-2
1
-3
3
0
0
0
0
1
2
0
-1
-1
-12
-1
1
1
-2
1
1
1
1
-3
1
1
-5
0
-5
0
2
1
0
-1
0
1
0
-9
-1
0
0
0
1
0
1
1
-2
-1
-1
0
1
0
-1
-1
0
1
-20
-1
0
-1
1
1
1
0
0
2
1
-1
0
0
0
0
-6
-15
-1
-1
0
-1
-12
0
1
-1
0
-7
-1
-2
0
1
4
0
-1
-3
1
3
0
-6
-4
1
0
1
0
0
0
1
1
0
2
0
-16
3
0
0
0
-3
-14
1
-1
-1
1
0
1
-4
0
0
4
0
-11
-1
-1
0
3
0
1
0
0
0
1
-1
0
3
0
0
-1
0
0
0
-1
1
1
0
1
0
0
-1
2
1
1
0
0
1
-1
-1
-5
-2
1
0
3
2
-1
3
2
0
2
1
0
1
0
0
-6
0
3
0
2
0
-1
-5
0
0
0
-1
1
1
0
-1
0
3
0
-1
-1
2
-1
0
-8
0
3
0
1
0
0
3
1
0
1
-36
0
0
-1
0
0
-2
0
1
0
1
1
0
-1
-4
-1
0
1
2
0
2
0
1
0
5
3
3
1
-9
-2
-1
1
-1
-3
0
1
-3
0
1
0
-2
1
18
0
-9
2
-2
-2
0
0
-1
0
1
0
1
0
-6
-23
-1
1
1
1
0
-2
1
-1
0
0
2
0
1
-1
4
4
0
-1
-2
0
0
1
-1
2
-3
0
0
1
0
0
0
1
2
-1
0
0
0
-5
3
-1
2
0
1
0
-1
3
-8
-3
0
4
4
2
-3
-7
2
0
3
0
3
0
1
1
0
1
-3
1
1
0
0
-4
2
3
0
-3
0
-1
1
0
-1
0
1
-2
4
-11
2
1
0
1
0
-7
0
-1
0
0
0
0
0
0
-2
2
0
0
-1
4
0
1
1
2
-2
2
0
0
-2
0
-2
0
3
0
-3
5
0
-1
-11
0
0
3
0
0
-4
-1
0
-2
-5
-1
1
3
0
0
1
2
-1
-6
0
-1
3
2
0
0
2
0
2
0
-2
0
3
-1
-4
-1
1
0
-1
2
0
-1
1
0
2
-1
0
-2
-2
0
2
1
-2
0
1
0
3
5
-1
0
2
-1
-3
3
0
1
0
-12
1
-1
0
1
0
0
-2
0
-1
-1
0
1
0
5
6
0
3
0
-5
3
-1
1
-3
3
-3
-2
2
0
3
4
-3
2
-5
0
-3
3
0
2
1
1
-2
0
1
0
0
-3
-4
0
-1
-4
0
0
-2
-2
-1
0
1
-1
0
0
0
-3
0
-2
0
0
0
-2
6
0
0
-2
2
0
0
0
3
1
1
1
-1
-1
0
-5
-4
-1
13
1
-1
-5
-1
0
0
-3
0
0
-1
0
2
0
-1
1
0
-2
-1
1
2
0
0
0
0
-6
1
1
0
2
4
2
-5
2
0
0
-1
0
1
0
10
0
0
-2
-2
-1
0
0
0
-5
3
1
-1
0
0
-1
1
4
0
0
-1
-3
-1
1
-2
-9
0
0
-2
3
0
0
0
0
1
0
0
0
0
0
0
2
-1
1
0
6
-3
1
0
0
0
0
2
0
1
0
1
0
1
-1
0
-4
-5
-2
-1
0
0
-1
3
-1
0
0
1
4
1
3
0
0
0
0
-3
-6
0
1
-1
0
1
0
0
1
-6
3
0
1
2
0
-1
-2
3
0
-2
-10
1
-1
-4
0
1
0
-3
2
0
0
-1
-1
-7
0
1
0
-17
-1
1
1
2
1
-3
-1
0
0
0
-4
-1
-2
1
0
0
0
-7
0
2
0
0
1
0
4
-7
0
-1
0
-1
0
3
0
0
4
-4
0
-2
0
3
6
5
-10
-4
0
2
0
0
-1
-5
0
-2
-1
2
0
1
0
2
0
0
-4
1
0
1
0
1
0
-7
-2
-2
0
9
0
0
-1
0
-2
0
-2
1
1
0
6
0
0
0
-1
-2
0
-1
1
1
2
0
0
3
0
-1
0
0
0
2
0
0
-4
0
0
0
-1
0
0
0
-1
0
-1
-5
-5
0
0
0
-2
1
-7
1
1
0
0
-5
-10
-1
2
-2
0
1
1
1
0
-8
-3
2
0
1
0
-1
0
0
-1
1
-1
-3
2
0
-1
0
1
1
0
0
2
-1
1
0
-4
0
1
1
-1
0
0
0
0
5
0
0
0
1
0
1
4
-1
1
0
-4
0
1
1
-12
0
0
-4
-1
1
1
-4
0
6
2
0
0
1
-1
-8
1
0
3
8
-10
0
3
-2
1
1
-1
0
0
1
4
-3
1
0
2
-6
-1
1
-1
-5
3
-13
0
2
1
8
1
-1
1
3
0
-1
-2
0
0
-7
0
2
0
2
0
1
1
0
-2
-4
0
0
0
-4
-1
-1
1
-1
2
2
-7
0
1
0
1
3
1
0
-5
0
0
-1
1
-2
-2
0
1
0
1
3
0
1
0
2
-4
-2
0
0
0
0
-1
1
0
3
1
-1
-8
2
0
4
-3
0
0
-1
0
2
0
4
0
0
-2
-3
4
1
-5
0
-1
-1
0
1
0
-1
0
-4
0
2
0
0
-1
0
-1
0
-3
1
1
0
0
0
0
0
-2
6
0
0
0
-2
-8
0
-8
-3
0
-7
1
1
-3
-3
0
0
-4
0
0
0
-2
-1
1
2
2
0
-1
-9
2
0
0
0
1
-3
-1
1
1
0
-3
4
1
0
-2
0
0
0
0
0
0
2
0
1
2
0
0
-1
0
0
-1
-2
-1
-2
0
0
-2
0
0
-1
0
1
3
2
-1
1
1
0
1
2
2
0
0
0
0
-1
0
0
0
1
1
0
-2
0
0
0
5
0
1
-3
2
0
0
2
0
2
0
0
0
-6
1
0
0
-1
-1
3
0
0
1
0
-1
0
12
-1
2
-3
4
0
0
0
-2
7
0
-1
-5
2
-2
-2
-1
1
-3
-1
1
5
2
-1
0
-1
0
0
-1
-1
-1
-1
0
4
2
2
1
-2
0
-1
-3
1
1
0
1
-2
0
-2
-1
1
1
-1
-11
0
1
0
0
0
2
3
0
0
-1
0
0
-3
0
2
2
0
-1
0
0
-10
0
0
0
0
0
-14
-2
2
-4
5
0
0
0
-8
-7
1
-5
2
1
-4
0
0
-1
-1
0
0
-1
0
0
1
0
3
0
-2
3
1
0
-4
-1
-1
0
-1
-1
-2
0
-4
-2
1
0
0
0
0
5
-1
1
0
0
-6
0
-1
1
10
4
1
-10
0
6
0
-4
-4
-1
8
1
2
1
-2
0
0
4
0
0
0
-3
3
-4
-7
-5
0
-2
1
-2
-2
-2
-1
0
-2
-3
6
0
0
0
0
0
-3
-7
1
0
2
-6
3
0
-3
-2
3
-1
-4
-10
-1
0
-2
3
5
3
1
-8
0
-1
2
4
0
0
-5
-8
4
2
-3
-4
0
0
-3
1
0
2
0
1
-10
0
0
0
-1
-6
1
3
-2
3
0
4
-6
-6
3
-1
0
-4
6
4
1
-4
3
1
-5
2
0
6
-3
-1
4
-4
0
1
3
-3
0
-2
6
5
-1
-2
0
0
-1
-2
0
3
0
1
6
0
0
7
3
-5
5
0
-4
3
-2
-1
2
2
2
0
0
-6
4
12
-3
-16
1
1
-4
2
17
-1
3
-1
-5
1
-1
0
11
-1
12
0
4
7
-3
4
0
-3
0
-2
3
3
2
4
-6
2
-2
1
-13
-2
0
3
0
2
11
0
5
0
-5
4
0
4
1
3
-1
2
0
0
5
-4
3
-3
7
3
1
0
-2
-2
2
1
-1
13
0
1
11
-2
-3
-2
-1
2
1
-2
6
-1
-3
-5
-4
-5
-2
0
4
-1
-1
-3
3
-3
1
-4
4
0
-1
-1
-1
0
0
2
1
-1
1
-1
0
-2
0
0
0
0
8
1
2
-2
1
0
0
-5
0
2
0
9
1
1
-5
1
0
-1
3
-3
1
-1
-1
0
-1
1
0
0
0
-2
0
1
2
3
1
0
0
1
-6
0
5
-1
1
1
0
-2
-1
0
1
-1
-1
0
2
5
0
-1
-1
1
1
0
1
1
0
-1
1
-1
0
1
4
0
0
1
0
0
-1
-2
0
0
0
1
0
1
0
1
0
-3
-4
1
2
-1
0
-2
2
0
0
0
0
0
0
1
0
-11
0
-1
0
0
0
1
0
3
0
1
1
3
1
2
0
0
1
1
1
2
0
-1
-3
-2
-2
0
1
-2
0
-1
0
-2
0
-1
-2
0
0
0
1
-2
0
-10
1
10
2
2
2
1
4
0
-1
-1
-3
0
-1
0
-11
-2
-2
0
-1
-2
1
1
0
-1
0
1
4
1
-1
-1
-1
1
-2
0
-4
-1
0
5
0
1
-1
0
0
0
0
-2
3
3
3
-1
2
-1
-1
0
-1
-3
2
2
-1
-1
4
-1
0
-2
0
0
2
-1
2
0
-10
1
0
0
0
-1
-1
0
1
0
-2
0
1
-6
0
0
1
-1
0
1
1
4
1
0
0
0
0
1
0
0
0
0
0
-2
0
-1
-1
0
0
2
0
0
0
3
-1
0
2
0
0
0
0
1
-1
0
0
0
2
0
0
1
0
1
0
0
0
0
0
1
0
0
0
-1
0
-1
0
0
0
0
1
0
0
0
0
0
0
0
1
-1
-1
0
0
0
-1
0
-1
-2
0
-1
0
0
-1
0
9
0
0
0
0
-1
0
0
1
0
0
1
0
-1
1
0
0
0
0
-5
0
0
0
1
0
1
0
0
1
0
0
1
-1
0
0
0
0
0
0
0
0
0
0
0
-6
-1
0
0
-1
1
0
-3
0
0
0
0
0
0
0
1
-2
-1
0
-1
0
1
-1
39
0
-1
1
1
-1
-1
0
0
2
2
0
0
0
1
0
4
1
-1
1
2
0
1
-1
0
0
0
-1
0
0
0
-1
0
2
0
1
0
1
0
0
0
0
0
-1
1
0
0
0
0
-1
0
0
1
0
-1
0
0
0
0
0
0
0
1
0
-1
-1
0
0
0
0
0
-1
-1
1
1
-1
0
0
-1
1
7
0
1
1
8
0
0
1
0
0
0
-1
0
1
0
2
0
-1
0
0
0
0
0
1
0
0
1
0
2
0
1
1
2
-1
-1
2
0
-2
2
1
-2
-1
12
1
-5
1
1
-1
1
6
-2
4
0
3
0
0
-5
0
0
0
6
-2
1
10
5
0
1
-4
-2
2
-1
-1
0
1
3
-2
3
0
0
-4
0
-2
3
1
0
0
-6
-2
0
13
2
-1
12
1
1
1
0
-2
0
-2
-2
0
-14
0
0
0
-3
1
0
-1
2
-2
-3
4
2
0
1
7
-2
0
-1
0
0
-7
2
0
0
-1
23
0
-2
1
-4
0
-3
1
2
-2
0
0
0
-1
-1
-1
0
-1
1
5
-4
0
-11
2
1
-4
1
0
-4
-3
-8
0
3
0
-1
1
5
0
0
2
2
2
-3
0
1
-9
2
-2
2
0
4
0
-4
-5
-7
-5
0
-2
-1
-1
-1
1
2
-4
-7
6
7
0
0
-1
-1
-32
4
-1
1
0
0
1
0
-9
2
-1
1
1
0
4
-2
0
1
0
-5
0
-2
-4
-1
2
-2
1
0
-3
4
1
2
0
-3
-2
0
-4
0
-1
-3
1
0
-4
1
9
1
2
0
-5
2
-2
1
-1
2
1
1
2
0
0
7
-3
2
0
0
-7
2
5
-1
-2
6
1
-1
9
0
-2
-3
2
-2
2
0
4
1
0
2
0
6
2
5
0
1
0
-1
1
0
-1
0
0
1
-1
-4
2
-2
0
1
0
0
0
1
2
-1
0
0
0
0
0
6
-1
-1
-1
1
1
0
0
-1
0
1
1
0
-1
0
0
0
-1
0
0
0
-1
-5
0
0
0
0
0
0
1
0
1
1
0
-2
0
1
0
0
-1
-1
0
0
-1
-5
0
-2
0
-1
-1
0
3
0
0
-1
0
0
0
0
1
-1
0
0
0
0
-1
10
0
0
-1
17
1
1
0
0
0
0
-2
1
0
-4
0
-2
0
0
0
0
0
0
-2
-1
0
-1
1
0
0
0
0
0
0
-1
0
0
1
2
0
0
0
0
0
1
1
-1
0
0
-1
-1
0
0
0
-1
1
23
0
35
-2
0
-3
0
0
0
0
0
3
-5
1
0
0
0
0
0
-3
0
1
0
-1
0
0
0
-1
2
-4
1
1
0
3
0
0
-1
0
0
0
0
0
0
2
0
0
0
-6
0
0
0
0
0
1
0
0
0
-1
0
0
0
-3
1
-1
-1
-3
0
-1
1
-1
0
-1
1
1
-1
-1
1
0
5
0
1
0
0
3
-1
1
0
-2
1
0
0
4
0
-1
1
2
0
-1
0
2
1
1
-1
1
3
1
-1
3
-1
-1
0
0
-1
0
-1
-2
-3
-1
8
-2
2
0
0
-1
0
-14
0
1
0
-3
0
0
0
0
0
1
1
1
5
6
-1
0
0
-3
0
-1
-1
-1
0
-2
0
1
0
0
1
0
2
-3
-4
2
0
-1
3
-6
0
-15
-1
1
1
-2
2
0
0
1
0
0
-2
1
15
0
-1
0
0
1
0
1
2
2
0
1
2
0
2
0
0
0
1
0
0
1
-1
0
0
1
3
1
-3
0
0
0
-3
-1
-2
0
-1
0
0
2
0
1
1
1
0
4
-1
0
5
0
0
-2
0
0
-2
-1
1
0
0
1
-5
-1
-5
0
0
-1
1
3
0
0
0
1
2
0
1
2
4
0
-1
4
-2
3
1
8
0
-2
0
-1
2
-6
-9
2
-2
1
0
-1
1
-10
0
0
1
-3
0
-1
0
5
1
1
-1
1
0
2
0
0
-1
0
0
-1
0
0
0
1
0
-1
1
2
-2
0
5
0
1
0
0
1
0
1
-1
2
-4
0
1
-1
0
2
0
2
1
-1
-3
-4
-1
-4
0
0
0
0
0
2
-2
0
0
-4
0
1
0
-1
-1
-1
1
-11
0
0
0
0
2
-1
0
-1
0
-1
2
-1
-2
0
-1
1
0
1
2
1
0
0
-3
-1
-1
0
1
-6
-2
0
0
2
0
1
1
0
1
0
0
0
-2
0
0
-1
0
-1
0
0
2
0
-8
-2
-1
0
0
0
-1
-4
-1
2
-4
0
-4
-3
-1
1
-2
2
0
-5
0
1
0
3
1
2
2
7
0
1
0
0
-3
4
-3
-1
3
0
0
0
0
-1
0
0
1
1
-2
-9
1
0
2
1
1
0
0
0
0
-11
1
0
0
2
-1
0
2
3
0
0
-2
0
3
2
-10
0
0
1
-1
0
1
4
0
8
0
0
1
0
1
16
-1
0
-3
3
3
0
0
-4
0
0
0
0
0
-2
-2
1
1
0
2
-7
1
-1
-1
-2
1
0
-3
2
-1
-3
-1
-3
0
1
-2
2
1
0
0
-3
-2
1
1
-1
-1
0
-4
-2
1
1
0
-1
0
3
0
-1
1
0
0
1
-2
0
1
0
4
-3
-1
0
1
1
0
-2
-1
1
-2
0
0
0
1
-2
0
-11
0
-1
0
0
1
2
-4
-1
2
0
0
-3
-2
0
-1
8
0
3
4
0
-1
0
0
1
-1
-2
0
0
1
2
2
0
-2
0
-1
2
-2
-2
0
1
2
1
0
-1
-2
-1
-1
0
-2
1
-14
1
0
1
-1
-2
0
0
-2
1
0
0
0
0
-1
0
-4
-2
1
10
-1
1
-6
2
0
0
-5
0
0
0
0
1
2
1
3
0
4
-14
1
-1
0
0
1
1
1
-2
1
0
0
4
7
-1
2
0
0
0
0
-3
0
10
2
0
-1
0
-2
0
0
0
-1
0
0
-3
0
0
-1
0
-5
0
0
0
-1
0
0
0
2
0
2
0
1
0
0
0
0
4
1
0
0
-2
0
1
2
0
-2
0
4
1
3
-2
-1
0
0
1
0
-1
0
-1
0
2
-1
0
-4
1
-2
-2
-1
0
-2
2
3
0
6
-1
3
2
6
0
0
1
2
-6
-1
-1
0
-4
-1
-2
0
-3
3
3
-2
-6
1
1
3
-1
0
-6
1
1
-5
-1
2
-2
2
2
-1
-1
-3
-1
1
-2
1
1
0
0
0
-18
-1
-1
2
-5
-1
1
-1
0
1
0
-6
-1
2
1
-5
-2
0
1
0
3
4
0
-2
0
-6
-8
0
-4
0
-1
4
-1
0
-3
-7
-2
-1
-2
0
2
2
4
-1
-3
0
-3
1
0
1
-1
0
-2
0
2
0
0
1
5
0
-2
6
0
-2
2
0
0
0
2
1
0
0
3
0
1
6
0
0
0
1
-5
0
0
-1
-1
0
1
-1
-2
-2
0
0
-1
-1
0
2
-2
-1
0
2
3
-1
1
0
0
1
0
0
-1
-1
0
0
0
0
0
0
1
1
-1
1
1
-1
0
1
1
0
0
0
-2
0
-2
-1
1
0
2
1
2
0
3
0
0
-7
1
0
-1
0
1
-2
-1
0
-2
-3
0
-1
2
0
-1
0
23
1
0
-1
-1
-2
0
0
1
1
0
1
0
0
-2
1
0
0
1
-1
0
1
-1
0
0
2
0
0
1
-3
0
0
0
0
0
0
-1
0
1
0
0
-1
-1
-1
-5
-2
0
1
1
-1
0
4
1
0
-1
-1
0
0
0
1
-2
0
0
-3
-1
0
1
14
0
0
0
-5
-2
6
-5
-1
-3
0
-1
0
-3
2
4
2
2
0
1
1
0
-1
-9
0
0
0
0
1
-1
0
-4
-1
-2
-1
0
0
1
0
0
-1
0
1
-1
0
0
0
0
-1
-2
0
-3
0
0
-1
0
0
0
0
-2
0
0
0
-2
-1
0
0
-1
-1
0
0
-2
1
3
1
2
0
-6
-1
-1
15
0
0
1
3
0
0
-2
0
0
-1
-1
-1
-1
0
4
0
-2
2
-1
1
0
0
1
-1
0
2
1
3
-1
3
0
0
0
-1
1
0
1
0
-4
0
-1
0
-1
2
0
-1
0
0
-7
0
0
-3
-2
0
0
-4
0
0
0
1
-2
-1
-1
-1
0
-3
0
0
0
1
0
0
0
-1
-1
-1
0
-1
-4
-1
3
-1
-1
0
2
0
1
0
0
-2
-4
1
4
1
0
0
0
0
-1
-3
-1
-1
0
-2
0
-1
0
0
1
-2
-1
-1
-3
0
0
2
4
-2
0
0
0
0
-4
1
0
0
1
1
1
-2
-1
-1
0
3
-1
0
-3
-1
0
1
2
0
1
0
0
0
-6
1
0
1
1
0
-3
1
0
0
1
0
0
-7
-1
3
0
3
0
0
1
2
-3
1
0
4
6
-3
-2
0
2
-14
-3
-2
-2
1
1
1
0
0
0
-1
3
-2
0
0
6
0
1
1
0
-1
0
-2
-2
0
1
0
0
0
11
-1
0
1
0
-2
1
2
0
1
0
1
8
0
0
-3
1
0
0
0
-1
2
0
1
0
0
-2
0
0
0
1
-1
13
0
2
-2
-3
-2
1
0
-13
0
0
0
8
0
2
-1
0
0
-1
1
-1
1
-1
0
1
0
1
1
-1
1
0
-1
1
-1
1
0
0
-5
0
0
1
-2
0
1
-1
1
0
4
0
-1
0
1
0
0
0
-2
-3
1
-1
1
0
2
0
3
4
0
9
0
-1
2
2
0
0
5
0
0
0
-1
0
1
1
-7
0
3
1
-3
1
0
0
-2
1
-2
0
-2
0
-2
1
0
1
3
-1
0
-2
0
1
0
1
-1
-5
-3
2
1
0
0
0
1
0
-2
0
-1
0
-1
0
0
1
0
0
1
-2
-1
-1
-1
0
1
-8
-1
0
0
0
0
0
0
0
0
2
-1
1
-2
-1
0
0
-3
0
1
-1
0
0
0
3
0
1
0
-2
0
-2
1
0
2
0
0
0
2
0
1
-6
-4
0
-7
1
-3
-1
-1
0
0
-6
0
-8
0
0
1
3
1
1
1
1
0
-1
0
-9
0
18
0
2
1
1
0
0
-2
2
0
3
-1
1
0
1
0
2
-2
-2
0
0
0
0
0
-4
0
0
1
-1
-1
1
-7
0
1
0
2
-9
0
0
0
1
0
3
0
-1
-2
0
-1
0
1
-3
0
1
0
2
-3
7
-2
4
0
0
-1
0
0
2
0
-1
1
-2
0
1
1
0
0
-1
0
1
1
0
0
1
1
-1
2
0
1
0
0
0
1
0
1
0
1
0
0
1
-2
2
2
-1
-2
0
3
-4
1
0
5
-2
0
0
-1
-3
-1
0
-1
1
-1
0
-1
-8
-1
-3
2
0
-4
2
0
0
-2
0
0
0
-2
0
0
0
2
0
0
-3
-3
-1
0
0
0
1
-12
1
1
0
0
-1
-5
-4
2
-1
0
0
0
1
0
-8
-3
-1
1
0
0
-3
0
0
-2
1
0
-1
0
0
-1
0
2
2
0
0
3
1
1
2
-4
0
0
2
-2
0
0
0
0
2
1
0
0
-2
-1
0
4
-3
0
0
-4
-2
2
-1
-1
0
0
1
-1
2
0
-3
-1
5
-1
0
0
1
-2
11
1
0
1
5
-3
0
9
-1
0
2
-2
0
0
1
3
6
0
0
1
-5
-1
-1
-1
2
2
3
0
1
0
-1
1
-3
-1
2
0
-1
-4
-1
1
-7
-1
1
0
0
0
3
1
-1
0
-4
1
0
0
-8
-1
-1
-1
-3
1
-1
-4
0
1
0
2
1
0
0
0
0
0
-2
1
3
-3
0
-2
0
0
-6
0
-1
0
2
3
-5
-2
-1
0
-1
1
3
0
1
-2
3
-5
4
1
2
2
0
-1
-5
-1
-1
0
2
0
0
-2
3
1
0
-2
0
0
3
1
0
-1
-5
2
-6
0
2
1
-1
-7
0
0
0
-2
1
1
0
-1
1
0
0
0
0
-1
0
1
3
0
0
2
1
-1
-1
1
1
0
2
0
0
1
0
9
-1
1
-2
2
-1
0
0
0
0
0
1
0
0
0
0
1
-2
0
0
0
0
-2
-1
0
0
0
-1
1
-4
0
0
1
0
4
0
-3
0
0
1
-1
-1
0
-1
0
0
-1
0
-2
0
0
-1
1
-1
0
0
-1
0
1
0
1
0
0
0
0
-5
-2
0
0
-3
-9
0
0
0
-1
0
1
0
1
0
-3
0
7
0
0
0
2
1
0
0
-2
0
0
1
0
0
0
0
1
0
2
0
-2
1
1
-1
0
0
0
0
1
-1
-2
0
-1
0
0
-1
1
0
-1
1
49
1
0
0
0
-2
0
-1
0
-1
1
-5
-1
1
-3
1
0
0
-1
2
1
1
0
0
0
0
0
-1
2
0
1
-1
1
2
-1
0
2
0
0
1
-1
0
0
4
0
-1
0
-2
1
0
1
0
-2
-1
0
0
0
-1
1
-3
-2
1
0
1
0
-3
0
0
1
1
1
0
-1
0
0
1
0
-1
0
1
0
0
0
0
1
0
1
-1
2
2
1
-2
0
-1
-1
0
1
0
0
-1
1
1
-3
1
1
1
-1
2
-1
0
2
0
0
1
-1
-17
0
1
0
0
8
0
-5
1
0
6
1
0
0
-2
0
0
-1
0
1
0
-2
0
0
-1
2
0
-2
-4
1
1
0
0
0
1
1
0
1
0
0
0
9
3
3
-2
0
0
1
1
0
-3
-3
2
-4
-1
0
-1
0
0
0
1
-2
-2
2
0
-1
0
-2
0
0
-1
2
0
2
0
-4
0
1
2
1
0
0
0
0
-1
0
0
0
-1
-1
0
1
-3
1
0
3
1
2
-1
7
0
0
1
0
1
-1
4
0
0
0
0
-3
0
-1
-2
0
0
2
-4
-1
0
-10
4
7
-1
-1
0
0
1
0
-6
-2
0
-1
2
-2
-1
0
-9
1
-9
-1
-3
0
0
3
3
1
-2
0
0
1
1
-1
1
-2
1
-1
3
2
3
0
2
-2
0
0
0
0
-2
0
0
1
-4
-1
1
1
0
0
0
1
-7
-1
0
-9
1
0
-1
1
0
0
0
1
0
-2
5
0
2
0
1
-3
15
1
4
-3
-11
-1
-1
0
2
1
-5
2
-3
0
4
0
0
0
-3
0
-1
0
2
1
0
2
-2
2
-2
1
0
-1
0
0
1
0
2
-5
-1
0
3
-1
2
0
0
-1
0
-2
1
0
0
-1
1
0
0
1
-10
0
-1
2
-3
9
0
3
-2
0
10
1
1
0
6
0
0
6
0
-1
0
-1
0
-1
0
-3
0
-1
4
-5
0
0
0
4
-4
0
-1
-7
0
0
-2
1
0
-2
0
0
-1
0
1
0
0
0
-2
0
-1
1
0
0
0
-1
-4
0
-1
1
0
-1
1
0
-1
0
0
0
0
-1
-2
1
0
1
-2
-1
0
0
0
0
-2
0
0
0
-1
1
1
-3
-2
1
0
-8
0
1
0
-2
0
1
2
0
1
0
-1
0
-2
-1
0
0
-2
-1
-1
-2
0
0
-4
7
0
2
1
-3
-2
-2
0
0
-2
0
3
2
-1
0
3
1
0
0
0
1
0
0
6
1
-18
0
14
0
-2
-1
0
-1
-3
0
5
1
2
1
-2
-3
1
-5
-2
1
0
0
1
0
-2
0
0
0
0
2
0
0
0
0
0
2
-10
0
0
0
0
-1
0
-1
1
-7
0
-1
0
2
1
0
0
0
0
1
-6
-1
3
1
-7
1
-1
0
3
3
1
1
-7
0
2
-2
0
0
-1
0
0
-1
1
0
0
2
2
1
-3
-1
1
-1
1
-2
-2
0
0
1
2
0
-2
-2
-2
-1
0
0
0
1
3
0
0
3
0
-1
0
-1
9
0
-1
-1
-8
-5
0
-5
-4
0
-3
1
-1
-1
0
0
0
0
0
0
0
1
2
-2
0
1
0
-9
-2
1
0
0
0
0
-7
3
1
-6
0
0
-1
-1
-2
-8
2
0
1
0
2
0
-3
2
2
-5
-3
0
1
0
0
-4
-2
1
0
1
0
-1
1
0
1
0
-1
1
2
-4
1
2
0
1
0
3
0
0
0
0
-3
1
0
0
0
-1
1
-2
0
1
0
0
2
-3
-3
-3
0
0
-2
0
2
0
2
0
-1
2
0
-2
-5
-1
2
0
0
0
2
2
0
2
-4
1
-5
2
0
0
1
3
-1
0
0
0
-2
2
1
0
2
0
2
2
6
0
1
-1
-4
0
0
-2
-5
4
0
2
-2
-1
1
0
-4
-3
1
-7
-1
2
-6
1
1
0
-8
2
1
-1
0
1
-1
2
0
0
0
-2
5
1
1
2
0
0
-6
-1
1
-1
0
-1
0
2
6
0
6
0
-4
0
-4
-1
1
2
10
1
1
0
-1
7
5
-4
0
0
4
1
0
1
0
0
0
0
-1
0
0
-1
-2
0
-6
-6
0
0
3
-1
0
0
1
-1
0
0
2
-3
-3
4
0
0
1
-1
2
-3
2
1
-2
0
1
0
2
-5
1
0
-1
1
0
-2
0
0
2
2
-8
1
-1
0
0
2
0
-1
0
1
2
-1
-4
-2
0
-1
2
0
-1
-2
-1
0
-1
0
1
0
0
1
-1
-1
0
-1
0
0
0
-1
0
0
-2
-1
1
-1
-1
-1
0
0
0
1
3
0
0
3
0
-1
-7
0
2
0
1
1
1
0
0
-1
0
1
0
-1
0
1
0
-1
0
-4
0
0
0
7
0
2
0
0
0
3
-3
-1
1
0
0
-4
1
6
1
-3
0
0
1
1
0
2
-2
0
1
-1
0
2
0
1
0
1
2
3
1
1
0
0
-1
-1
-1
0
0
0
-1
-1
1
-4
0
-1
-1
-2
-1
-1
1
0
2
0
-1
0
0
0
-5
-1
-2
-4
0
1
1
0
-1
0
-1
0
-1
0
0
0
-2
-1
23
1
0
3
-3
0
0
-3
0
1
2
0
6
1
1
10
-1
0
3
-2
0
1
0
0
3
0
1
0
0
-2
1
1
3
0
-1
0
0
0
0
-1
0
0
3
-3
1
0
-6
-1
0
-3
1
0
1
0
3
1
-2
0
1
0
1
0
-2
-1
1
0
-2
-3
-1
0
1
-1
0
-1
-4
-23
1
-2
1
-1
0
0
0
0
1
0
-1
0
0
1
-1
-2
0
0
0
0
1
0
-2
1
0
0
0
0
0
-1
0
-1
0
0
0
0
0
0
1
0
0
1
0
0
0
1
1
0
0
0
0
0
0
0
0
0
0
0
1
0
0
1
0
-1
1
0
0
0
1
0
0
1
0
-2
0
-1
0
0
0
0
8
1
0
0
0
0
0
0
0
1
0
1
0
1
0
0
0
0
0
4
0
0
0
0
0
1
-1
0
1
1
0
-2
0
0
0
-1
0
0
0
1
0
-1
0
0
1
0
0
0
1
1
0
0
1
1
1
1
0
0
0
0
0
0
0
0
-1
0
0
-3
0
0
0
-2
0
2
0
0
-2
0
1
0
0
1
1
0
0
-2
0
0
0
0
-1
0
0
0
0
0
0
0
-2
-1
-1
0
0
1
0
-1
0
-1
0
3
0
0
1
0
-1
1
0
0
-2
-1
0
0
0
1
0
0
1
0
0
0
0
0
-2
0
-1
0
1
0
0
0
1
1
0
0
0
0
-1
4
0
0
1
-1
0
0
1
0
0
0
-1
0
-1
0
0
0
0
2
0
0
0
0
1
1
0
0
1
1
0
0
0
2
0
-1
1
0
0
-1
-2
-1
-2
1
1
2
0
1
1
0
-1
1
2
0
2
0
0
1
0
13
0
-1
-3
2
-1
1
0
1
0
1
1
0
1
0
1
1
-1
0
0
0
2
-5
-2
1
0
0
-2
0
-2
0
1
0
-1
7
0
-1
0
0
1
-1
0
-1
-2
1
0
-1
0
-3
-1
0
-1
1
-2
-1
-1
-1
0
0
-1
1
0
0
0
1
-4
3
0
0
-2
-2
0
2
0
-2
0
1
1
1
0
-2
0
4
-2
0
-1
3
1
0
2
-4
0
0
0
-1
0
1
0
1
1
-3
0
-4
1
1
-2
3
0
0
-1
4
-2
-2
0
0
0
1
-2
4
1
0
3
34
-3
9
2
2
-4
1
1
0
-1
1
-3
-2
1
-2
2
0
3
2
0
0
-1
0
-1
0
0
0
-1
2
-2
1
1
1
2
-2
0
2
0
-2
-1
0
0
0
4
-1
0
0
0
1
0
-2
0
-3
-2
0
-1
0
-2
0
-6
0
0
0
1
0
-1
0
0
2
0
1
-1
-1
-2
-1
0
0
-1
1
0
1
1
0
1
1
-1
0
-2
4
1
1
-4
1
-1
0
2
1
-1
0
2
0
1
-1
1
2
1
-1
-3
0
0
0
0
0
0
-1
1
-1
0
1
0
-2
0
1
0
-1
-2
1
2
0
1
0
0
1
0
0
-1
0
1
0
1
-1
0
-1
0
0
0
1
0
0
0
0
1
0
0
-1
-1
-1
-1
0
1
0
0
0
1
0
-1
0
0
-2
0
0
0
0
0
0
0
0
0
0
0
-1
1
0
0
0
4
1
-1
0
1
-1
0
1
0
0
0
1
0
0
1
0
0
0
0
1
0
0
0
0
0
0
0
-1
1
-1
0
0
1
1
1
-1
0
0
0
0
0
1
0
0
-3
-2
0
0
0
-1
0
2
1
-1
0
0
0
0
0
0
0
0
0
0
-1
0
0
9
0
0
0
-2
1
-1
-5
-1
-1
0
0
0
-1
0
1
1
0
1
1
1
0
0
-3
0
-1
0
0
0
0
0
0
-1
1
-1
0
0
1
-2
0
-1
0
-1
-1
0
0
0
-1
0
-1
0
1
0
0
0
0
1
-1
0
0
0
0
0
-1
0
1
0
-1
0
-1
0
-2
-1
2
0
2
1
-2
-1
0
4
0
1
1
3
0
0
-1
0
1
0
0
-1
0
0
3
-1
-1
0
-2
0
-1
0
1
0
1
0
1
2
0
0
1
1
0
3
1
0
0
-1
-6
0
-1
-1
0
7
0
2
-4
0
-2
1
0
1
4
0
0
3
0
1
0
0
1
-1
-1
-1
0
1
4
-2
0
1
0
1
-9
1
0
-3
0
-8
3
3
-1
3
4
0
2
-1
1
0
-10
2
1
0
-2
-1
0
0
0
0
-4
-1
0
1
0
-2
0
0
0
0
0
2
2
-3
0
1
0
1
3
0
0
-1
0
0
-9
0
0
0
0
1
0
-4
0
-1
0
-7
1
-5
-1
3
0
0
-2
0
2
-1
1
0
1
0
0
-1
-3
0
5
-3
0
0
-3
-4
0
8
-5
-3
-7
-2
0
0
-2
-6
0
1
0
-7
2
4
-3
0
1
3
-1
1
3
1
5
1
-4
0
0
-1
-1
4
0
2
4
-4
2
0
-5
1
3
-6
7
1
-2
1
-1
0
-3
-2
0
0
-2
0
0
0
0
0
0
0
0
2
0
2
-1
0
0
-1
2
1
0
-3
0
0
4
0
4
0
-1
-1
0
-2
0
-1
-3
1
1
0
3
-4
0
2
-11
0
-1
0
1
-1
0
0
0
0
-2
0
0
0
-1
0
0
-1
1
0
-1
2
-1
0
-1
0
1
0
-1
-3
-1
1
0
2
0
0
1
-1
0
3
1
0
0
-5
7
0
-1
1
0
-4
0
-6
3
1
-8
-1
-1
-1
1
0
0
-2
0
0
-1
-1
2
0
-1
0
0
3
-2
1
0
0
0
-1
0
-1
1
0
0
-5
4
0
2
2
3
0
-4
1
2
0
-5
2
-11
1
-2
2
0
0
0
2
-3
0
-1
-2
0
-1
0
1
2
0
0
3
-3
-5
1
0
0
2
1
1
0
0
0
0
20
0
0
0
1
-2
1
-3
0
-4
0
1
2
-5
-8
8
0
0
1
0
1
0
3
0
3
-1
0
1
1
0
3
2
0
-2
-5
1
0
-5
-6
1
1
1
0
0
-3
2
2
-2
0
1
-4
2
-1
-1
3
-1
2
0
-14
-1
0
0
-5
0
-3
-1
0
4
0
-2
-1
3
2
-1
1
1
0
-3
-7
1
0
0
0
0
-3
1
1
1
2
-1
2
-3
0
0
0
-1
5
0
0
1
1
0
1
-1
2
1
0
-2
0
-3
4
0
5
0
-2
0
12
0
1
-5
5
-2
-1
0
-2
1
-2
-2
0
0
-3
1
-1
0
0
0
3
0
-2
0
0
2
-1
1
-2
3
0
1
4
0
0
0
1
-2
1
0
-3
-2
3
1
0
-1
0
-3
-5
2
1
0
3
0
0
1
-1
-1
-2
-21
3
-4
1
3
-3
2
4
0
2
0
4
0
0
-3
0
5
0
0
-3
0
2
6
0
1
-5
-1
3
1
2
0
2
3
-2
2
0
-3
-2
2
-4
0
1
0
0
0
-12
0
17
4
-2
-44
1
1
1
0
3
0
-3
0
0
-1
0
0
-1
-3
1
0
0
1
-2
-3
6
3
0
0
6
-3
0
-1
0
1
-4
1
0
0
-1
-15
0
-3
1
-4
0
-2
0
2
-4
3
0
6
-6
-2
-1
6
0
1
4
-5
0
-8
4
1
-6
2
0
-5
-6
-10
0
3
-4
-2
0
5
0
0
1
1
4
-4
0
-1
-2
4
-1
-4
-2
4
0
-1
-5
1
-5
1
-4
-1
-1
0
1
6
1
13
6
0
1
-1
-1
0
8
3
0
1
2
0
1
0
1
5
-2
2
0
1
-1
-3
1
5
0
-8
-6
-3
0
-1
3
-2
2
0
-2
5
0
-6
0
-4
1
0
-3
0
-3
-2
-4
-1
-4
1
7
1
4
0
-3
1
-1
0
-1
-2
2
-2
4
1
-1
-1
-8
-5
-1
0
1
1
5
-1
-2
7
-1
-1
-4
0
-2
0
2
2
2
0
3
1
1
4
-1
8
3
6
1
0
0
0
-1
0
0
-1
-1
0
-1
1
0
0
0
2
0
-1
-8
2
1
-2
-2
0
0
-3
0
-1
0
2
-3
0
0
-1
0
0
2
-1
1
1
0
0
-1
1
-1
-1
0
0
1
1
1
1
-1
0
0
0
0
0
-1
-2
-5
-3
4
0
1
0
0
0
4
-1
0
-4
0
-2
0
-1
0
0
-2
-6
0
-1
-4
-1
0
1
4
-3
0
0
0
0
2
0
0
0
2
0
1
-2
0
0
0
0
-1
0
-2
2
0
0
1
0
1
0
-1
0
-2
-1
0
1
1
0
-4
1
0
0
4
0
0
-3
-2
2
0
3
0
0
1
-1
-1
0
-1
-4
5
-1
-2
1
2
-14
0
0
-3
0
0
0
0
1
0
0
3
-2
0
0
4
0
1
1
-1
0
1
-2
-2
0
2
1
-1
0
10
-1
1
0
-1
-1
0
0
0
0
0
0
11
0
0
-1
0
0
-1
-1
-1
1
0
1
0
0
-4
0
-5
0
0
0
6
0
0
-3
1
-1
1
0
-14
1
0
1
5
0
-3
1
0
-2
-1
0
-2
1
-1
0
0
-1
2
1
1
1
0
-1
-1
0
0
0
-1
-3
0
0
-1
-1
0
0
1
3
1
2
-2
