234
510
340
-103
-696
132
-74
-749
417
-589
-227
456
275
-273
-813
-443
-169
392
-44
150
-21
-418
-602
-516
-545
137
-33
-493
-540
-154
9
304
128
-1305
-635
-301
-134
195
36
85
-987
-666
-345
1068
65
-128
145
-208
-215
85
-76
-104
-932
132
-618
-79
515
209
235
50
408
-75
-420
99
-620
393
353
71
-210
107
-391
-149
159
-241
87
-377
-96
-302
-382
-273
-101
44
-124
2
-247
149
-196
-24
-130
-560
-260
-546
-190
-469
108
639
-277
-319
-400
546
-176
287
132
-72
-283
-28
136
104
399
-437
-127
-898
7
-22
1
458
416
-240
226
-340
387
-294
-420
-180
-16
-48
-198
197
3
264
36
304
-93
-76
-73
-190
-585
-130
176
-975
615
-174
-37
1607
317
-529
-158
0
-578
24
-348
-337
-534
-519
327
12
-47
267
-452
-777
-502
-198
295
-370
-274
154
90
-166
-1213
109
-113
17
-345
-668
132
77
-224
228
88
-211
168
-332
17
-488
-694
-457
46
-187
773
331
156
-796
-479
-109
165
395
241
-266
-328
89
-363
-921
281
-260
-268
-360
43
-391
-219
-168
-384
508
210
1208
-234
-212
484
64
-6
-64
86
-527
-711
-245
-347
-225
-206
-415
-22
-573
-487
-422
147
64
-122
311
-23
16
-346
466
156
-30
-516
-431
-101
-808
11
366
-7
-167
-283
-348
394
-865
-53
-439
-7
305
944
-478
-232
-981
-586
260
136
-247
-50
-840
-326
-1006
654
-543
454
-533
-457
162
-257
510
-635
-330
314
143
-550
-151
-170
-498
-771
-86
-190
79
440
-667
-72
112
-450
-236
-231
-474
-801
-348
164
-83
273
7
-305
861
-402
-1
-663
-423
-582
559
-193
126
108
-228
153
656
-273
804
-42
-147
-459
-84
-198
93
-382
93
-721
-758
-124
-432
-52
153
116
-538
-1015
-656
-217
-398
-144
-432
-211
-82
-295
-688
-937
-157
-283
12
154
-876
98
-430
70
1171
500
-1096
1453
29
-1180
40
-138
804
-30
-488
-912
-147
1073
-110
-540
519
418
-670
-132
-290
-281
93
-11
-424
-717
228
55
-141
1555
-104
-621
527
-680
-56
-111
85
-444
-642
811
-143
-39
253
505
130
761
-1026
-268
-218
-50
-352
-558
-167
-60
3
-27
-83
-520
196
-98
-403
11
-6
285
-140
709
-74
206
123
216
-504
-42
648
-761
346
-536
-1219
-1603
-15
216
-28
276
523
-806
-25
-307
-63
-31
-187
91
-174
-210
-76
-101
-66
-270
-1420
551
-1709
-589
-475
483
13
-252
92
502
-722
466
-706
59
821
-102
-245
-100
-888
-616
209
-363
80
-235
-198
-1354
84
-115
-150
-808
-355
457
343
280
447
-260
62
679
202
22
21
-262
15
-68
272
61
-276
-253
-18
-447
-65
-235
-377
-933
-856
-15
-56
12
311
-115
-102
295
174
-65
-695
-1474
-429
267
-230
-1693
-220
124
-375
-186
-523
41
-40
-35
302
103
-38
-275
299
-193
-753
-39
204
-462
579
307
136
-51
75
-97
114
-133
243
887
-65
270
-463
182
-457
393
15
43
-335
-1147
372
-177
261
-208
-203
-83
-370
-606
-282
-385
-65
-762
-9
-128
-365
-23
-320
-113
-207
89
169
-377
-943
254
-295
-301
-19
70
339
39
-361
-102
37
113
32
-165
-56
-32
-466
666
-39
49
15
-101
-494
-271
-460
112
991
197
-2032
-58
-457
233
-859
-778
708
-199
17
-469
-49
-97
938
-176
-451
17
-211
-108
904
-6
-81
-386
-977
51
173
-146
-174
-141
-311
-197
1615
1401
-709
-335
-633
121
-130
268
131
-484
-186
94
454
1071
102
277
61
32
-50
426
1176
-199
24
-30
-89
-398
-382
-483
33
997
-294
-343
-116
-1039
-910
-188
-289
3
-218
14
-952
4
-2169
222
72
-18
-105
-115
116
-126
-731
-95
-367
710
394
-833
133
-150
455
-381
-939
26
-425
541
-408
236
-356
-806
462
-436
229
-120
94
-547
-78
83
-1219
-45
-285
1275
-104
574
32
-318
-406
113
-565
-106
236
477
336
314
-99
-233
326
-186
-469
-347
-65
0
-99
-461
-489
-120
-206
-402
-8
27
259
-136
-195
-675
-163
-140
34
37
-876
-269
109
-260
80
-47
46
-119
-573
-42
-207
-85
-230
-168
-287
982
-267
-334
4
-119
-12
-162
-66
62
686
27
-238
-243
-340
-126
-997
-660
-8
-29
-940
-492
-37
-824
77
-4
-591
-74
-273
552
73
17
-499
-271
50
-86
-1138
-150
-648
-194
-632
947
-1117
-15
49
-84
-2239
-475
-211
-158
-128
-212
-229
-883
-1197
229
-30
119
372
-1357
127
-335
-178
-102
57
-106
-210
-68
-186
270
-454
-388
-200
-14
-272
-25
-1444
-183
423
-607
-100
-647
104
-610
-319
-489
-775
-17
49
-937
-1363
-148
285
-248
133
-125
23
-256
135
475
487
-351
163
-184
194
-396
45
-108
-230
-1085
-29
-509
-60
-291
-1165
75
-41
-73
-413
225
-68
-52
394
-401
422
-378
-275
143
626
-79
-81
-758
78
-399
92
237
-113
479
329
-275
-171
340
81
292
-346
307
-847
492
3
805
-634
250
-50
109
-174
-180
-231
-542
109
-319
935
346
-866
492
-2
365
247
-508
157
-291
25
326
-227
-90
77
-71
-149
9
710
-479
-225
86
199
145
-237
-242
-93
-205
250
-1093
-30
-257
68
-342
102
-386
469
88
-51
-220
36
332
81
-1115
-162
-64
-746
0
-154
-40
-26
-70
461
-279
110
96
564
317
480
-322
417
-158
57
-202
-277
336
-205
-252
-292
-161
527
-164
-234
256
48
-457
327
1146
685
-852
-462
-1235
-456
-395
-262
-543
-363
-169
-108
320
-6
155
-83
-138
-138
