1095
893
-78
-2122
-1000
-673
767
1426
1217
-3269
-548
6035
-546
723
-1994
2155
-2840
1084
-3239
-2500
-206
396
784
1058
2944
-1340
-295
-1406
-615
-1044
-1393
-3534
-3378
-1627
-1125
-998
-2215
350
-368
-898
-6584
559
-633
-684
1355
-2673
-1431
-4295
1221
1750
-1619
-1885
1980
-3166
-372
-1035
2258
646
777
1742
-1742
-378
-2124
230
-2220
3953
-2801
-4864
-1084
-573
-1455
-1699
-1002
-2765
-1351
-745
881
1061
478
-3050
-2962
-2875
-5007
-214
-1135
-593
-3986
-1911
-1905
-288
-2331
-1744
1184
5239
-369
-538
-276
-20
-743
242
-1060
11
-902
-283
-3030
-1353
-4314
1400
-3009
-6358
-1975
-1440
1439
-927
-1813
872
1992
838
-2221
-1475
-3267
-915
-3228
59
-1387
-260
-4108
-4471
-186
2694
-657
-1997
-294
-839
-1975
-985
2806
1355
-446
-6880
-1387
-4981
-2499
-2003
-2470
-1860
-335
-1
-1353
-509
-669
-509
-2811
-2863
-2283
3229
41
804
-953
-3815
-2098
279
885
-1415
-3645
-454
-3058
1006
478
-1179
-1780
-1819
-3442
-1933
-1856
422
-4273
-289
-1143
2089
-1065
-15
-1336
-1950
-3774
-3415
-1320
-2246
-2726
1868
448
-1581
-808
-2343
-618
-157
-1004
-2146
-2434
-1538
-1188
3038
-228
-2404
266
-768
-83
1043
4668
3269
-4602
-583
-1505
1433
362
-133
-2846
1982
466
333
1927
-1868
1821
-1529
-2789
-259
1015
176
-1004
-1930
-2368
-98
192
1742
-901
-3142
746
-296
2675
-2685
-2263
-1534
-3457
-3119
-825
-5558
1278
-1839
-270
-3173
-1316
-398
1836
790
-895
-1239
-57
-1065
-1242
-4468
-536
-2282
-4392
3610
-1580
338
-1281
-3201
-1072
-2649
-389
1316
-347
2134
1381
40
-188
-6067
-3353
-1891
256
377
-1398
-465
-619
-474
316
921
-948
-1158
5640
1382
-1873
-1734
-3431
-645
365
-926
-1481
-2288
-1574
-1146
-65
-2255
-1738
91
3397
-755
3439
-3118
-1854
-597
-2030
-255
-729
-534
1605
-298
-1812
1159
305
1903
1211
-2178
719
1662
-2093
-802
-1349
1905
-205
74
946
-3052
-1383
619
11442
-1178
-4993
-3332
23
2073
1673
6117
-189
2776
-1160
-1291
-109
111
775
5930
-66
2186
4668
4079
-3242
1936
933
509
913
-1142
-488
-4512
-1650
-512
-3011
765
-3065
1140
390
-4448
-17
-2736
-4141
-2406
2037
-577
-994
3747
-2513
3863
-578
-1200
-566
-3492
-2587
-1160
-4094
-5418
-1796
-1564
1250
-2542
-2218
-12
-2499
-742
260
-421
1048
790
140
-1053
-2366
2130
-2196
-2966
-526
-1356
-1489
-666
-1356
-150
-1190
-1106
-1805
-2175
-2738
-586
-2095
-1372
-3361
-1961
-591
-2014
-5001
736
551
-2293
-1152
-5016
-3007
-715
1136
-1657
44
-1246
-4124
-77
-464
2026
-704
1991
-2685
419
-2051
-1879
-137
-1637
-131
369
-66
2290
-1284
-1194
3534
133
2086
-699
502
-3086
-3428
3476
-419
-1610
-285
-880
-1326
-1536
-3656
940
1102
452
-1257
228
1341
-1309
-922
-1519
-671
1367
790
2050
725
-2714
-1376
-1150
3445
1240
13
30
-1620
-2282
-3
-1079
35
-374
-1038
-1113
-693
-1773
-128
1362
952
-4000
4927
4721
-3669
97
-201
490
-1632
-1846
-1257
3464
-818
183
-2113
1338
-3397
-757
2906
-1985
-1423
-2045
-1281
-3969
-24
-453
-265
1400
176
-2282
-1172
1121
-1534
-402
164
1220
3096
-2206
5946
1253
-1771
-4017
1133
1577
-5
-460
2940
-2519
-603
-1765
-214
-2461
-354
-3223
-7376
-1371
-1859
-4264
183
-1449
-1838
-3503
-1183
-608
-2610
-269
-2825
2290
30
-3246
-2566
-1685
-2223
787
-433
-2346
-359
-3933
-630
-2718
-2637
-938
2491
-2585
-1566
-2314
-504
-587
-2213
-799
-101
-767
-1908
-1977
-5437
-3104
-1771
-688
-333
94
-1932
-2089
-917
-1939
-1455
952
-456
2485
638
1627
-6593
-1098
-2494
-502
-301
-1380
-2255
1967
116
-935
-82
-3669
-1131
-1617
5270
572
-3870
625
-684
-1167
-1339
-1843
1726
-3338
-555
967
418
-1009
1273
935
-631
-2372
-1781
2672
-3123
30
396
-167
2320
3216
366
979
-200
-138
-5136
-2153
-859
-305
-1090
-1207
-4406
-695
2300
134
-1635
292
-740
56
5584
-2620
-470
-2031
39
2481
-549
397
-2498
5394
-1466
-699
126
441
1601
-5461
-1453
-1345
-1829
1171
862
-843
-2781
-988
-99
-1182
-2005
-605
-191
-3246
-1317
2606
1850
-1587
-3263
-1904
-1973
-604
1344
326
-65
-525
1863
-7495
-910
-3873
-535
-2163
-1321
207
3434
324
-1798
-3099
-1974
-176
-974
-1072
277
-889
-431
-982
-918
9
-1975
-2089
1909
1024
1222
-2204
-1155
-31
-356
-997
-795
-2817
1026
-715
4403
-2251
-1307
-1069
3109
1341
-3613
-1063
764
206
-1052
1079
-619
1001
142
-1917
-352
-976
-29
-1347
-2837
-715
1034
-1303
3412
3953
508
-237
-438
-1192
-773
185
-1115
-303
-253
-1120
706
-1181
77
1526
-3284
814
30
-1343
-2744
-113
-885
1005
-2225
-3848
-632
-3443
65
-455
864
-1637
-1559
-1002
-2554
-2364
-2986
-3727
-763
-65
1797
-1354
1797
-2678
-249
-420
-339
-1866
418
-2348
476
278
552
-1240
666
-5067
-530
-1475
-1056
-2647
79
-2790
-1667
-4529
-980
1436
-1054
595
-1000
-545
703
-1864
748
-1558
309
-3948
-925
2164
-2202
-2594
1017
-1337
-135
844
-3801
-6950
-2771
-3569
481
-1069
337
-1751
-1499
-1437
-1106
-912
212
-250
1088
-1404
-935
-686
-601
1274
-6896
-3546
802
-1254
-4663
-548
-7
-3964
-119
-2269
-1477
-632
-479
1406
47
6329
-2164
-1130
-708
175
-679
-3395
26
-173
-1117
-105
1619
-2039
-2578
-3936
820
-1275
-16
604
-3193
4353
-555
-2237
-1784
-1990
-2414
-770
-1439
444
-98
-332
1909
29
-485
169
-622
-1698
6648
1851
-607
-1538
-127
525
-1748
-1763
-3180
-4589
-2160
-395
-391
241
-2143
-1508
-3672
-1803
-2200
-1732
-1918
-1678
0
126
504
273
-2429
432
-3330
-4605
-2154
-2294
-463
-4290
-1284
616
-80
-3661
-2701
2398
855
-3030
-2893
-545
-1221
-5789
-3398
-2205
-372
1491
-87
-1593
-949
-2581
-414
1466
-1911
-576
-1694
-444
-59
-4432
-797
-2285
-931
-2285
-2467
1182
-3282
3759
-1128
-3164
2177
-2414
-1656
-207
-1431
43
-4580
289
411
-2151
-2499
1139
-7942
-2393
353
-3345
-1645
-92
-1976
-4255
570
-1012
