-2
-4
-18
8
-8
25
4
-18
8
-18
20
-4
14
-2
12
-20
-12
-14
-4
-8
-4
-4
-2
0
4
8
4
-6
2
-2
18
16
31
31
-28
-8
-4
0
-18
-12
-12
16
-4
-10
4
-12
8
-12
-8
12
31
2
-18
-16
-20
-4
0
-14
-6
-22
14
0
0
-12
6
12
6
-2
-6
-4
-12
2
0
-10
-10
20
6
-6
14
-10
6
20
-4
10
-10
10
-4
-10
16
-16
6
18
2
-8
-2
-4
-6
20
16
-12
-10
-4
-6
-2
4
-14
-6
12
-4
-20
-12
-28
8
6
-20
8
16
4
-2
-4
0
-4
-8
20
14
-16
8
-10
20
-6
-10
8
16
0
-2
-14
2
-10
-10
4
2
-22
14
14
-8
-8
-2
14
-14
-2
6
-14
6
-2
8
31
14
-10
12
-14
8
0
-10
6
10
-14
10
0
6
-6
-10
18
25
-2
8
8
18
-4
-16
2
0
-16
6
0
-4
-6
4
10
31
-2
-8
-2
-2
0
14
4
-4
-2
4
-10
-6
6
-18
6
-18
-14
8
0
-20
12
8
4
10
-18
12
-4
0
10
8
-2
-12
-22
20
0
-2
-18
-4
12
-4
4
4
16
16
-8
-18
-12
2
-4
6
4
20
-4
-6
12
10
10
14
8
2
-8
-14
-2
25
-8
-4
-22
2
-10
4
-28
-6
2
2
-20
4
25
-20
31
10
-12
-4
-18
-22
-2
18
-6
20
0
0
-10
-6
8
-8
-12
2
20
10
2
-4
18
18
10
14
-14
16
-22
2
2
-8
4
-20
-12
-20
4
-10
6
-4
4
12
-10
2
-14
-10
-28
20
2
6
6
12
-20
-14
0
12
2
-16
-6
-10
-4
-18
-14
16
0
-2
10
18
-12
4
6
-8
4
6
-6
8
-6
-14
-16
-6
-22
4
6
16
2
-4
2
16
-16
-12
4
-6
2
2
-10
10
-10
0
-4
-10
-6
-4
6
-20
25
0
0
2
-6
12
4
0
-2
-8
4
6
-10
-14
8
-12
-6
10
-8
-16
8
-22
-22
-8
12
-8
-2
10
16
0
-28
-20
10
12
8
0
-2
2
4
-16
-4
-6
-10
-16
-10
0
-4
20
0
0
-4
2
-10
-6
2
25
2
6
4
10
-12
16
8
2
-14
-28
-6
0
-2
2
-2
-4
-2
-16
-22
20
31
6
-10
-20
4
0
12
-2
2
8
25
-28
0
14
-8
18
0
14
-12
-2
-2
0
6
-28
4
-8
-6
20
10
2
10
25
-8
-6
16
-4
4
-12
0
-6
-4
-4
-4
0
-6
-28
8
-10
-12
-8
-14
10
20
-22
-8
4
-6
-2
-20
-14
16
-8
-10
2
-2
-18
-10
-4
0
-14
-16
2
-18
12
-28
-2
4
8
-8
-8
-6
6
-4
6
-2
0
12
-6
0
6
4
2
14
-16
-8
-8
-8
0
-10
-14
-10
-4
-12
-14
18
0
16
-10
-6
14
-4
6
10
0
2
31
-22
4
-28
-14
2
6
-6
-2
6
-20
4
0
4
-6
-4
-2
-12
-6
-10
-10
4
-10
8
-8
-6
-4
4
-2
-14
0
25
6
-8
8
6
0
-4
18
2
4
12
-36
-22
-12
6
25
-18
-10
-10
-2
0
-6
0
2
2
18
8
-4
4
-20
-4
-16
-6
16
10
-2
-6
4
0
-8
-8
-4
-2
-10
-8
-2
4
-10
14
2
4
14
10
-4
0
4
-2
2
-4
-2
-2
-20
4
-6
-28
14
-14
4
-12
10
-6
2
-20
6
2
2
20
-4
18
2
-10
8
-4
8
-8
-2
6
0
-2
4
4
12
-4
-2
-16
10
-2
12
-6
-8
-8
6
-2
-8
-4
-8
4
8
6
-20
4
-6
8
-4
-4
0
-8
10
-4
-4
-4
10
-14
10
-8
2
6
8
0
-12
6
-4
-6
-6
-10
-18
2
-6
-2
2
2
6
-10
0
-4
0
4
-6
6
-4
18
-4
6
-8
8
-4
0
-2
2
-2
-14
12
-16
-4
-4
-8
6
-8
12
2
0
-12
8
0
8
-8
-28
2
-8
8
14
-6
6
16
-2
10
-8
2
8
-12
0
16
-6
12
39
6
6
6
10
-16
12
8
-12
-12
12
0
0
0
-14
18
12
0
-22
10
2
2
4
4
-18
-4
12
-14
2
16
2
6
-20
20
-8
-10
-14
-12
14
-6
-6
10
-14
6
0
2
0
-10
-22
-8
-14
-10
25
2
14
10
-4
8
10
-28
14
4
25
10
6
2
-6
2
-10
0
4
-6
-22
-16
16
39
10
0
8
-2
4
-16
0
-8
-6
10
16
12
-2
-22
-8
-10
0
6
2
-14
25
-4
-2
-6
12
8
4
0
2
-18
10
4
6
4
4
4
4
4
4
-12
-10
10
10
-18
-6
-2
-8
2
-10
-8
8
4
6
2
-8
-4
4
6
-16
-8
2
31
-2
4
-6
2
0
-2
0
-8
2
-8
-16
2
-8
20
0
4
-8
-2
-6
-10
0
-10
-12
-2
-10
18
-6
8
-2
-6
6
2
8
-10
4
25
12
0
-16
-10
-8
2
14
12
12
-6
6
-14
-12
-2
10
14
-2
-22
-4
6
-12
-18
25
-12
-18
6
4
-2
-20
-6
-10
-4
0
10
-16
-12
39
12
-4
6
2
4
-8
-20
-14
2
-20
-6
-22
6
-4
6
-12
-6
6
0
-18
-6
20
10
-4
16
10
-20
-12
-8
14
4
-14
-2
-22
16
4
-2
8
4
-36
31
-4
6
-4
-8
-6
-14
-12
-28
8
8
-12
2
-4
6
-16
-10
18
-6
-10
-4
-12
16
-4
0
16
-10
16
2
-4
-4
-8
16
2
-4
-2
25
0
0
-10
-18
-12
-12
2
-10
-4
6
20
-2
6
10
-10
25
-14
-12
8
4
6
31
6
2
18
0
0
-4
-6
-6
0
2
4
4
20
-4
2
6
6
0
39
-8
-4
-4
-16
-2
-6
-14
2
2
-8
-10
-8
0
0
-8
-12
16
-16
-2
4
-20
12
-14
8
-8
10
2
0
-2
-18
-2
-14
-8
6
-2
2
4
10
16
-12
8
6
10
4
-10
-36
-2
25
-16
4
4
-8
6
-2
2
-4
-4
12
4
2
-6
16
-4
-16
-14
-12
-18
14
-12
-10
31
-10
2
4
14
0
16
-2
-18
-12
12
2
0
-2
18
2
-4
-2
14
-2
14
2
0
-6
31
-20
4
0
-6
4
-14
-16
-6
10
0
18
6
-6
-2
12
8
0
4
-10
-8
4
-2
-4
-6
-16
-2
2
0
6
-6
12
0
-8
0
6
0
-4
4
-14
-6
6
-2
2
8
-6
-6
2
-2
6
-2
-4
-4
-4
-4
2
20
-12
12
14
-4
2
-10
-4
14
-28
-14
-8
10
-6
8
31
4
-2
2
-14
2
18
-2
31
0
-16
0
20
2
0
-8
-6
4
-14
0
-36
2
10
-10
-22
-4
-14
-8
-2
-12
8
-16
4
-12
-8
4
-18
-2
6
25
4
-18
0
-20
10
-8
-4
-6
4
8
-28
-18
-8
-2
-18
12
-2
-4
8
-10
10
-8
-10
4
8
-6
10
6
4
-4
-4
12
-8
4
14
-4
4
4
-22
18
-14
16
-4
0
-18
2
-2
-16
12
4
-16
-22
-8
-14
12
10
20
-28
-10
-2
-10
-16
-4
-4
-28
-2
-12
-10
-6
14
-6
-2
-6
-28
14
4
20
0
-2
12
0
-8
-4
16
-16
-8
2
-10
-4
31
20
-6
16
10
-2
-22
18
6
10
-4
18
20
14
4
14
4
4
-8
-2
4
2
25
12
-8
18
16
16
14
16
6
-4
10
10
-8
10
4
10
-4
-4
-20
2
-10
-10
-14
-8
4
2
-2
6
8
20
-12
-18
-2
-10
6
0
-8
18
-12
2
6
6
-2
10
-6
-8
0
2
-2
-12
-12
6
4
-6
-28
-6
6
0
-2
-8
12
6
20
-2
2
12
-2
6
2
-6
-10
-18
2
-4
-2
6
-16
-4
-4
-4
10
-8
10
-12
-18
0
-2
-8
-10
2
-6
0
-16
-18
-18
-10
-10
-10
-4
-2
2
-6
-8
12
-8
6
8
4
4
12
-16
-18
-12
6
12
-2
0
12
-14
-2
12
16
4
12
-6
0
-22
-4
0
16
0
8
2
12
4
10
8
6
8
-4
0
20
-10
-2
-8
-2
10
14
4
4
12
0
-6
4
10
-16
6
6
-20
2
-16
6
6
8
-8
16
8
0
20
4
0
-4
25
8
-12
-20
2
2
4
-6
-16
14
-6
-4
20
-2
-12
-2
14
14
6
-8
10
8
-6
20
0
18
-2
31
-12
16
-4
-4
6
-12
-2
0
-4
-2
4
0
-16
-22
-12
0
-28
6
-8
2
-22
6
12
-4
16
-18
12
4
2
-36
18
18
-8
12
0
-12
-8
10
-16
-2
18
-22
0
-4
4
-8
-20
0
-22
-6
2
4
-4
-12
10
6
-6
2
10
2
2
0
16
-6
14
6
-4
8
6
8
-18
-10
4
-10
8
-6
-14
-12
-6
-10
31
-18
20
10
10
31
18
-22
-2
4
4
0
-4
-4
10
-4
-4
0
12
-10
14
-28
8
-36
-2
-2
-8
12
10
4
-12
-4
-18
-2
-8
2
-2
-2
10
-22
-16
-6
4
-2
-10
0
-4
-12
-2
10
18
0
-10
-16
10
-18
-6
-12
-4
10
18
0
-12
-4
2
0
12
-6
6
-8
12
18
-2
-4
4
6
2
2
-8
-16
6
-2
-2
10
-8
-20
4
31
20
2
-12
8
0
0
-10
-10
-14
-22
-18
14
-4
4
12
-4
-4
-2
0
6
0
-6
-8
-2
-12
-14
-22
10
4
-2
-10
-20
-2
2
6
-12
-12
8
-16
6
14
12
20
-16
-14
-6
12
-6
10
-4
-10
-2
8
4
-14
-10
14
10
-16
-2
8
25
6
12
-6
-4
8
0
2
-8
-4
-2
8
4
-22
12
-16
0
-6
6
-2
-22
8
-16
-2
-4
2
6
-10
-10
10
-12
2
-10
4
-22
-4
-2
0
6
10
-10
-2
0
8
6
8
4
4
-6
4
4
0
-6
4
-6
25
-4
4
-4
31
10
2
-2
4
-6
-4
12
0
-22
4
16
-2
4
10
-8
-12
-2
10
-10
-4
-22
16
2
-4
4
-18
0
-22
-4
20
6
14
8
2
-4
-16
20
-2
-18
-2
-22
2
14
0
0
16
0
6
-10
-8
12
14
-2
-10
-16
-4
4
-2
2
14
4
-36
16
0
-16
14
-2
4
-6
4
2
0
-20
0
14
-6
2
-8
-4
-16
4
14
6
-18
-2
-6
4
-8
18
10
14
2
12
-2
-2
20
10
-8
-4
8
0
31
14
10
31
-6
6
-6
8
14
-14
-6
-6
-28
-28
12
-12
-16
-8
20
-12
0
8
6
0
0
-8
-12
0
-8
-4
-16
-14
10
0
-8
20
-10
8
14
-16
-16
20
-10
4
6
-12
-14
-6
-2
-8
4
10
-6
-20
6
-8
2
-8
-12
-2
6
0
-2
2
-10
12
0
-22
12
-16
4
14
6
8
16
0
-28
6
0
-22
8
20
10
-10
0
4
-10
39
20
-4
6
4
-4
6
6
18
12
0
-4
-8
-6
4
-4
-6
31
4
18
-28
-6
-12
4
20
-22
-2
-22
16
-8
-6
0
6
-36
-28
4
4
10
-8
-16
-2
31
-20
12
12
-8
4
8
-16
-6
8
-12
-6
-14
-10
12
8
2
-8
0
-4
-12
-8
31
-14
39
4
-6
2
0
10
-4
-2
-20
6
-4
2
10
6
4
12
-12
-6
2
-18
4
-10
-8
-6
-4
-4
-8
20
-8
2
6
-4
-14
-2
-2
6
-2
2
8
-6
12
8
6
16
-6
8
-4
-4
6
-16
-10
-8
14
-28
-8
-20
4
-14
8
2
-2
0
31
-6
8
12
16
0
-6
10
-10
12
-8
-16
20
2
-28
-22
-8
-10
-14
12
-14
8
2
12
0
4
-6
-6
-20
-4
0
-12
2
10
16
-8
-28
10
10
4
20
-8
-20
0
25
-2
0
-6
2
6
-10
-8
14
8
-4
25
2
10
12
0
20
6
2
4
16
-6
-6
-6
-8
-2
-20
18
8
-12
-28
-36
0
-22
-18
8
4
2
-20
-2
-4
12
-8
4
0
2
-12
8
-2
4
-4
-8
6
6
2
0
-6
14
6
-6
6
-4
-6
-6
12
0
16
-12
16
4
-14
10
-28
-2
-6
-28
14
4
8
-6
2
2
14
0
-8
-8
-2
-12
0
-6
6
8
-4
8
-22
6
8
-18
-6
-18
-10
0
6
6
-6
10
-14
4
-12
8
-16
20
12
25
-10
8
4
6
8
8
4
-14
14
-4
-2
-8
4
-10
10
2
4
8
2
0
10
2
8
6
20
-10
-28
-6
-6
-10
0
-10
-12
-16
-4
8
-22
-8
-28
10
-16
16
-10
20
0
4
14
-20
31
0
-6
0
10
4
-12
14
4
6
-4
0
-16
10
0
10
2
14
-10
-6
6
16
12
-6
20
-4
-8
-22
4
4
6
-4
8
-14
8
2
-2
-6
4
4
-16
14
10
6
-28
12
-6
-2
-8
-6
-12
18
-10
-10
-10
4
-8
6
10
16
12
-8
-4
0
10
12
-12
20
-6
-4
-28
-10
-2
-20
4
-2
0
8
-4
-18
-4
0
-6
8
-20
0
2
16
-14
-14
10
-6
10
-14
6
18
-10
-22
-2
-14
-2
20
6
6
12
-14
-12
-8
6
-20
0
-12
2
-10
4
-2
4
6
-8
-20
2
12
4
31
-18
18
-16
-18
6
-16
0
-4
-16
-14
6
-6
-14
-10
0
-4
4
-4
-10
0
31
0
4
-16
-18
-28
20
-6
-4
31
8
10
20
-2
8
2
8
12
-2
2
18
4
10
-4
2
6
-4
8
-4
10
-36
-2
-16
6
20
4
14
-20
25
2
8
4
25
14
4
8
16
14
-4
-4
-2
-20
8
2
-14
-22
14
-22
-2
-20
-22
-2
-14
-22
6
-4
-20
31
4
18
-2
-2
6
12
-8
-16
12
2
16
-10
-14
4
12
-22
-2
0
6
4
-8
16
6
0
-8
-12
-10
-22
-6
16
6
-12
4
-6
10
-16
-4
16
-10
25
-10
12
4
-10
-2
2
-8
0
20
14
25
2
-2
12
0
0
14
-28
18
-6
4
4
0
-6
-10
-22
-2
12
-6
-4
4
-2
25
-6
-2
14
0
12
8
-6
-20
-22
39
0
6
-16
-2
16
8
6
0
-4
-2
2
39
10
-4
20
-4
-22
-4
8
-6
-12
-2
8
-2
12
-10
6
25
14
25
14
0
20
-2
-12
0
16
14
-2
-4
-28
14
2
-2
20
4
-8
-16
-8
-2
16
8
2
-12
-6
4
0
0
-12
-36
16
10
-12
-6
31
18
-8
0
-36
-22
20
-10
-2
-4
-6
6
-2
12
-16
20
4
-10
-6
6
-12
0
10
-14
-28
-16
6
-14
2
8
-14
-4
12
2
14
-8
0
16
-8
2
6
4
-8
12
-18
-18
6
2
-6
8
0
-16
18
-8
-12
-14
-10
2
-6
12
-18
0
12
-6
-2
-6
18
-6
-18
2
2
10
-6
8
6
-14
-8
25
-2
2
0
18
-4
16
-14
0
-4
25
6
14
-36
8
16
-10
-6
-2
-16
12
-4
10
-18
20
-12
14
-10
-18
-22
25
8
-4
2
0
25
-6
-2
2
16
-4
-14
8
-8
4
-4
-16
14
-8
-14
2
6
2
-14
14
20
4
-22
-12
0
16
-14
-8
-4
-10
0
-8
4
-14
-6
0
-4
-4
0
10
-36
-2
18
-2
-8
6
-36
-6
-4
-6
-2
6
-22
0
2
0
-4
2
-16
-6
-12
-18
20
-12
-18
-28
-6
-6
0
-8
-2
20
-16
10
0
-4
-16
4
-10
-4
16
-28
12
2
-2
-4
-16
8
-12
4
8
-14
4
-6
2
-16
4
-8
-22
4
-4
20
14
-6
4
2
-2
-6
-14
6
-14
-16
-14
2
-4
-12
-10
-10
-28
2
10
-6
-12
-2
-14
-8
-2
-4
-2
-8
4
-20
12
0
-2
2
-4
4
4
-2
6
-14
2
-4
-28
-16
-14
-8
-6
8
20
-2
2
-6
0
2
-2
-12
12
6
10
14
10
-2
10
-4
6
-2
39
-12
-12
-6
-12
-28
-2
20
4
-6
25
-10
-4
4
18
-10
20
0
6
16
6
4
-4
2
2
-8
8
-14
16
8
0
16
6
-6
-2
10
-12
2
-14
12
-8
-2
-10
-4
8
0
0
-12
-6
8
6
-2
-16
12
-22
-4
-6
16
16
-4
-10
-2
2
-2
2
12
12
-8
10
-8
-4
-6
6
-10
0
16
-6
-10
2
-10
2
-4
-14
-8
-2
-12
-6
-6
8
-12
-6
6
25
10
8
6
8
-18
-20
4
16
2
-14
-2
-2
-12
-12
6
-4
-20
2
14
10
-6
20
0
-6
-10
-12
4
2
-12
-6
-12
-22
10
-8
-28
6
-6
0
4
4
12
0
-20
4
2
2
12
2
-12
4
25
-12
-12
8
-18
2
-36
-12
-10
-8
18
0
20
2
-8
-10
-4
-8
14
0
-12
-6
20
14
4
2
10
8
-28
2
4
-2
0
8
-22
-4
8
18
-18
4
-16
-6
2
-6
25
-6
-2
2
12
-18
2
-2
-4
-6
4
-22
-4
-12
12
8
-12
6
18
-12
-10
0
20
12
25
4
20
14
12
8
-2
-2
10
0
-4
0
4
-12
12
6
8
-4
8
8
-6
0
16
8
14
31
6
8
-14
-10
-28
10
-2
-8
14
-12
-6
-6
4
4
2
-4
-4
-12
14
-6
4
-14
-4
25
-14
-12
-20
4
-8
14
8
-6
-2
0
4
-4
2
-6
-8
-8
-4
-4
-2
12
-22
10
-6
4
-22
-10
4
-20
-8
-2
20
-4
6
6
-14
-8
4
-2
-8
-14
4
-6
6
6
8
-8
-6
6
8
31
6
-2
-10
6
-28
8
-12
-10
31
25
-28
-18
0
4
-16
-6
16
-18
-14
4
-12
-4
-4
2
0
-6
14
4
-4
20
31
-20
0
2
-22
-8
8
18
20
-4
16
8
6
-8
-16
0
-4
-10
-8
-12
10
-12
-10
-10
16
-12
-12
-4
-28
12
-10
-14
20
2
0
-4
0
10
-8
0
-22
-14
20
-2
8
-12
0
6
-6
-28
-8
20
12
-18
10
0
-8
8
-14
6
31
-14
-12
8
16
20
-36
4
14
-4
16
-10
0
0
6
8
-8
-8
-2
-2
-6
-20
-4
6
4
49
31
-6
-6
14
-2
-2
6
6
-14
0
-4
-28
-8
-2
14
12
2
2
8
-8
-4
12
10
18
-10
-12
2
-6
0
6
-12
-8
6
8
-6
-2
-28
4
-2
10
4
-8
-2
-12
-6
-6
-4
-4
-6
25
-2
-10
-6
14
-4
-4
0
4
12
16
-10
14
-8
8
-10
-2
0
0
2
2
20
10
-8
6
2
-4
16
0
-2
0
-12
-6
2
-6
6
-14
2
8
14
0
2
2
16
2
12
4
4
-6
2
10
12
-36
6
6
-6
-14
-28
-6
-20
-4
18
0
6
-12
0
-4
0
-4
6
8
-4
12
-2
-14
6
-8
-4
12
4
2
-16
-10
2
-18
4
-20
-6
2
-12
-14
4
14
0
-14
18
8
-6
2
-10
-28
0
14
0
-2
-28
-10
10
-2
2
16
0
2
2
0
14
18
-14
-22
-14
0
-14
12
-12
-4
20
-10
-8
4
2
4
8
-36
2
6
25
12
-18
-14
4
-10
6
14
4
-12
4
2
16
0
-10
-12
-22
0
-4
14
-4
-8
-8
-18
0
-22
2
-12
-10
-6
-8
12
-10
-12
0
-4
-10
-10
-2
10
-2
4
-2
12
4
-4
-12
-2
2
4
16
31
-12
-2
8
-28
6
10
-2
2
-8
18
0
-16
-12
14
4
20
-8
10
18
-4
25
0
14
-8
8
-14
4
-6
-28
-18
-2
0
4
8
-4
31
-16
-12
-12
10
-4
-16
-6
8
-2
-16
20
14
0
2
-8
-10
8
-18
-2
0
-14
6
-10
4
-6
6
-2
-6
6
-36
16
8
-14
-18
14
-10
-6
-28
0
-4
31
2
0
31
-2
0
-16
0
2
6
0
-6
-4
-16
0
-6
-6
18
0
-4
-10
8
-10
0
-12
-12
2
10
-12
-2
6
18
-18
0
10
-4
-16
2
-6
-6
-4
10
0
-20
-20
-14
6
10
-8
-6
12
4
-4
-6
20
-8
14
-20
4
10
4
8
-16
-18
6
4
4
-8
8
0
18
10
-6
-2
-2
8
-10
-2
6
-2
25
2
-2
-20
-20
-4
20
6
-4
10
-12
-22
4
-36
-4
4
0
2
10
-8
-20
-22
-14
6
2
-4
-8
18
-12
-4
-16
12
0
14
-12
-12
-4
-4
-10
10
-8
-12
2
2
0
6
6
6
-6
-10
0
16
10
14
20
-8
8
25
12
-14
0
-6
-12
2
-10
-8
8
4
-14
4
-6
20
0
-16
-6
31
18
2
12
8
-18
-10
-4
4
-8
4
-12
2
-18
20
-6
-14
-12
-8
10
-6
10
-10
2
-6
8
-18
-12
0
-10
18
-2
0
-20
20
2
-8
6
-20
-2
4
-2
-8
2
-8
12
-12
-6
-4
6
0
-4
12
4
-2
10
-4
16
14
0
-12
-2
2
-18
14
-14
-20
4
18
4
4
16
4
-8
12
-28
6
-14
2
14
10
-22
0
-8
-16
-10
18
12
2
-8
-10
14
-8
-16
-2
-18
-10
18
-4
-12
-22
-6
-16
-2
16
4
6
-18
31
14
-8
-4
6
16
-10
-22
-8
-10
20
18
-12
-8
-6
-6
0
-4
18
2
-20
-12
-6
31
-20
-10
8
-6
16
-14
-20
-6
-20
-16
6
-6
0
-2
10
2
-28
-8
-6
12
12
18
8
6
-10
-8
-2
-18
-6
6
18
6
0
-8
6
-16
8
49
18
6
-18
-22
10
0
-4
-6
-10
2
-2
-4
31
-4
-6
-2
10
-4
-2
-10
8
0
-10
20
-8
0
20
4
0
10
2
14
-8
-2
10
-12
18
-20
-4
8
-8
-10
2
-6
-6
-10
-22
-2
10
4
-12
0
-6
-2
0
0
-14
10
12
-10
-18
-14
-12
8
0
4
-4
10
6
4
8
-2
-12
6
25
2
-36
2
-28
31
-4
-20
4
20
2
2
0
6
12
0
-14
6
-22
18
4
0
2
6
14
-12
-2
2
-8
-2
2
-8
20
12
0
6
0
-4
2
2
14
2
-14
6
-4
8
2
-4
-4
0
-14
-2
8
0
2
-18
0
-6
-16
8
-14
-2
-4
4
6
10
-28
12
2
8
12
-2
-6
-10
4
14
-22
16
0
-4
12
8
-12
2
0
-14
20
10
10
10
20
14
2
4
14
0
6
-6
-4
18
-6
-6
0
8
2
0
-10
6
12
14
-4
0
-22
18
-6
-18
-2
0
10
6
-16
14
-2
-4
-2
6
-8
-10
0
10
-6
-2
8
4
-4
39
-6
12
6
-16
-20
2
14
-22
16
0
-2
8
-14
-12
16
20
-12
18
-6
18
6
2
18
-10
-20
18
14
-12
14
4
10
25
-4
10
-4
-2
-28
20
0
-12
6
-18
-4
0
4
-12
14
8
-14
10
-6
-4
-8
8
-14
10
10
12
-2
8
-18
-16
-2
-2
-2
0
-16
-4
-10
-2
-4
-6
2
-6
18
16
16
6
2
20
-2
2
2
14
-12
10
-14
6
-8
8
14
14
-14
20
-6
14
4
-2
16
-2
16
-2
6
-8
31
4
-2
-22
-6
8
-8
-8
8
-12
14
0
-14
14
6
0
-2
2
10
-2
12
-2
-8
-10
8
6
12
-14
0
-28
-4
49
8
-8
-4
16
16
-2
6
-8
-6
6
6
-2
6
0
-6
-8
-16
-2
6
-10
4
12
-6
4
-4
6
8
4
10
-8
-4
-2
2
2
2
6
-12
-2
-8
-2
2
-4
-20
-8
0
0
-8
-8
10
-8
-36
10
-10
-16
-8
-2
-22
4
-8
-2
-8
-8
8
-18
-10
10
-4
-14
8
4
-6
10
0
20
0
12
18
-18
-14
8
10
16
14
-6
0
8
2
8
2
-2
20
4
14
4
-10
2
12
-6
12
-6
-4
-10
2
0
0
-12
0
4
0
-6
-12
-2
25
4
6
-2
-6
-18
-10
6
-4
-6
-12
6
-22
-2
-14
6
-4
4
6
-8
-2
10
-12
6
-6
0
16
-4
10
4
12
-10
0
-12
-12
-4
-4
-12
-6
-16
6
-10
-14
-6
20
4
18
-4
2
-2
-10
8
-10
-2
4
0
-16
-6
-22
-14
-16
-2
6
-2
-8
2
-18
0
2
31
0
0
-6
0
-4
0
10
4
6
16
2
10
-8
-12
-14
12
20
0
-6
-2
14
12
8
6
4
6
-4
-22
-28
14
4
-6
-2
-14
2
-6
-10
6
-6
14
-6
-14
2
6
-6
-36
10
8
-4
16
0
2
-16
-6
-6
4
-6
4
-4
6
-22
0
16
-28
2
-2
4
0
-2
6
20
10
-12
-4
8
-6
-14
14
0
18
-28
0
-22
-2
-14
-4
-16
8
-16
10
6
-10
20
12
8
0
-6
0
4
-8
-2
0
12
12
0
-4
12
2
-10
-8
-14
0
-12
-2
-2
-14
-20
-14
14
2
4
-8
-2
6
0
-12
4
-8
-2
-4
-2
-14
-12
31
-6
-6
-4
6
-12
-6
-6
-22
-10
-8
2
-12
2
-12
-6
-8
-12
-10
-2
4
4
14
-6
6
-14
-10
4
-16
0
4
-2
-12
14
-6
25
-6
-12
-20
4
-2
-12
4
-10
-2
2
10
-2
-6
8
-18
4
-20
-12
-22
-4
-10
-20
-12
-12
2
20
2
12
-12
6
20
-2
-16
2
-8
0
8
-14
16
-12
16
49
4
12
20
12
4
2
4
-4
-18
-8
10
-6
-8
4
31
4
-16
0
2
-8
-4
6
14
-28
0
14
2
-2
-6
16
-2
-16
6
-12
-2
-12
-2
12
2
2
-2
-22
-4
8
-4
-8
6
-14
-10
-20
-8
18
20
-2
-10
-6
-12
-2
2
-6
6
8
25
18
6
10
2
-4
0
-14
4
4
-12
8
18
-6
-6
4
-28
31
-20
-4
0
-20
10
-14
8
-6
-16
-18
-14
4
14
-4
10
14
-22
8
2
-2
10
6
2
4
-10
-2
2
-4
4
8
-2
6
4
8
-4
6
2
12
-28
12
14
-6
-2
10
-4
0
-2
-18
0
10
14
2
16
-22
14
6
16
-14
14
-12
-4
6
-4
-2
6
14
2
-16
16
16
-12
-6
10
12
-2
2
-10
10
-14
-10
-16
-6
0
10
2
0
0
0
2
10
-4
8
18
-2
6
6
6
-2
-18
4
-20
2
31
6
-8
-22
2
12
-20
-16
-28
-10
0
6
-14
31
-14
-22
18
8
8
-22
12
2
4
-10
-4
10
-6
31
-2
-6
25
4
-6
20
-2
10
-6
-14
25
-16
-4
8
14
10
-12
-6
-12
-8
-14
10
-2
4
20
-12
-4
16
16
-6
4
8
-28
-20
-36
-4
6
0
-4
-8
-6
-6
-16
-10
-12
10
-4
-20
-14
0
4
-28
-2
-10
4
-10
-22
25
-6
-6
-18
10
6
-16
4
-6
-12
2
16
-6
-14
-8
25
10
12
10
-12
31
-6
-6
0
-18
2
-2
4
-6
4
6
6
-16
-2
-2
6
-18
-12
-4
-22
-10
20
18
-16
-12
8
-2
-2
-4
0
8
0
14
-10
4
-2
-10
-12
6
4
-6
-2
-12
4
-6
-2
-8
-4
-6
6
-10
-2
-6
10
-4
-20
-8
8
0
2
14
-10
-4
10
8
-18
-6
-2
-6
-10
-12
8
2
8
4
6
-2
18
0
0
20
14
31
-2
-4
-16
-12
-8
-4
-6
4
-10
-16
-6
6
25
2
6
8
-12
-4
8
25
2
-2
-16
-14
12
20
-12
2
8
0
0
-4
2
-12
4
0
-12
16
2
2
8
12
-14
-4
2
-20
12
-6
4
20
2
8
10
-10
-4
-10
8
-4
16
2
12
-6
6
10
2
-2
-2
-2
16
-16
-14
4
-6
-10
-8
6
2
-14
-8
2
-10
-4
-14
-2
-4
-20
2
2
-8
14
-8
10
6
2
0
-14
6
-14
-12
-28
-2
8
6
-6
-4
-10
-4
2
2
-16
16
31
2
0
-12
14
-14
-28
-6
-6
12
-8
-12
2
10
0
12
6
31
-6
12
-10
8
-4
-4
2
20
0
-8
-4
2
-12
-12
-10
2
-20
-2
-22
-4
12
8
-6
10
-4
-4
6
4
14
-4
-4
-12
18
6
6
2
31
8
8
-2
0
12
-8
-4
-36
-20
-6
8
-4
4
2
10
-6
-4
6
-18
-8
-6
-2
-6
-20
-14
-28
4
18
6
-4
0
-2
10
20
-6
4
18
-28
31
-2
-4
-10
-14
-8
-8
-20
16
-18
-16
-14
-6
6
-8
-4
-14
-2
6
-10
-2
-8
4
-16
0
0
-12
0
10
2
4
-4
-8
18
-4
31
-2
-2
-8
25
6
-14
0
-12
6
12
-6
6
-10
4
16
0
16
-6
-28
-8
8
4
-2
10
-4
4
14
18
-6
6
-6
-8
-10
-14
4
14
-12
14
16
8
25
4
-4
0
10
4
-12
6
0
14
4
-10
-8
14
16
-10
-22
16
12
2
18
18
12
-4
-2
-4
8
-2
6
-2
2
6
-4
25
-10
-4
14
2
18
-2
-6
-6
18
-14
-12
2
-14
-14
6
-12
-8
-10
2
-16
0
-4
14
12
12
20
-16
-2
12
-14
0
-4
-6
10
-10
-10
-10
2
4
-2
20
-6
-10
-28
-16
2
-18
2
-2
0
4
8
-10
-16
2
-8
-8
-14
-8
-8
6
-12
-4
4
-2
-6
10
2
6
8
-4
0
0
18
18
-8
-2
-8
-2
-10
0
12
14
0
-8
-4
-16
-12
12
14
8
-2
4
4
-2
2
4
-8
12
0
-8
0
-12
-10
-6
6
2
-8
-8
8
-2
-6
-2
4
-2
-6
25
8
0
-12
-6
8
-2
4
0
0
-4
-20
18
8
-16
-10
12
25
-10
-36
10
4
20
2
4
10
-6
14
31
-14
-14
-6
0
12
-6
-10
4
-4
8
6
-18
-4
4
39
10
-2
-14
10
-2
-8
10
14
-8
-6
-8
8
-28
-10
-28
-2
8
-8
-6
0
-14
14
-12
12
14
-8
-2
4
0
8
4
14
12
12
25
-4
0
-2
-8
0
0
2
-12
-10
-4
0
-2
-2
-8
0
8
18
2
-12
14
8
-12
12
8
-22
12
-4
-2
-4
2
4
0
-4
20
4
-4
-12
16
12
12
-14
-28
-6
-12
-8
6
-8
-14
-10
18
20
0
-4
-8
6
20
-4
-8
6
10
16
-10
-10
-6
2
20
4
-6
-18
2
-4
-22
25
14
-4
-8
-4
6
-20
-10
-4
4
4
4
-20
-2
0
2
-2
-4
0
-6
-2
2
-4
0
-4
-10
-4
14
-8
-8
-14
10
-8
-4
10
2
-4
12
2
-6
-18
12
-20
8
18
4
-4
-6
4
6
-12
-10
4
-16
-4
-4
-12
-4
-28
-4
25
16
-28
-4
-4
-8
8
-18
-14
4
-8
-4
-8
2
-4
-2
0
-12
12
6
4
-4
8
16
-10
10
-14
-2
10
-10
-12
-12
-6
18
-4
-6
4
-8
2
-18
2
-12
-6
14
-28
-22
-2
14
-6
12
8
-14
0
8
10
-4
-36
-4
0
-8
-6
6
16
12
31
12
-2
-6
2
-2
-14
0
-10
10
6
-10
0
-2
-6
12
0
-4
-22
12
-20
0
8
2
6
-12
-8
2
-6
-4
0
0
-8
-2
10
4
2
-10
-16
4
-22
-2
0
-10
4
8
-2
0
-4
-4
-10
0
-8
-6
-12
6
-18
12
4
-16
-12
-18
-6
14
20
0
-12
-12
10
-2
-10
31
-18
-14
-16
4
-6
-12
-2
-18
-4
-16
2
-14
-4
-6
-10
25
16
0
-2
8
4
-14
4
-6
6
2
-12
6
0
12
-14
-10
-6
18
-12
4
18
8
4
-20
-6
12
4
8
4
16
-20
-2
0
-28
4
31
-12
12
-4
-6
-2
0
2
25
-4
14
4
-2
-20
-36
6
4
16
-10
16
-18
12
2
-6
-2
0
-12
14
-10
6
-2
-4
-4
6
10
4
12
12
6
18
-10
16
-20
4
18
0
-6
4
-4
-36
0
-8
8
-20
6
-4
18
12
12
-16
-4
-10
16
8
14
-16
0
-18
-18
20
-18
-2
8
25
6
-6
2
6
-10
0
0
12
-16
0
2
12
6
6
-12
8
-10
16
4
-4
20
-6
6
-2
6
8
-8
-4
16
-6
0
-22
10
0
-6
12
8
18
-2
12
-12
12
-2
0
12
-2
2
0
6
10
16
6
14
2
10
-6
-16
12
-12
18
8
-20
18
16
-6
-4
-4
-10
12
0
-10
-2
14
8
-12
8
0
16
10
-22
-6
10
-12
-28
-16
8
12
-16
-22
-8
-6
-12
12
14
-2
10
-6
-10
20
10
-6
-2
-14
0
16
-2
-6
-4
-6
-6
-14
-2
2
-6
0
-28
20
0
12
-12
6
4
-20
8
10
8
4
8
16
12
8
8
-10
-22
25
-2
-6
4
-8
-14
-4
20
12
2
8
-4
12
-2
4
6
16
6
4
-10
18
6
2
16
-2
18
-4
4
4
-16
-4
-4
8
-12
-12
-22
-8
-12
2
25
-6
10
20
-4
-2
2
12
-10
0
-12
-2
6
10
-16
20
-2
-28
-14
4
-2
0
0
-16
4
14
25
-8
4
2
-6
-2
-10
8
-10
4
14
20
-8
0
6
2
-2
20
-4
-2
-4
20
0
-2
-6
-4
18
2
-12
6
8
8
10
-2
-4
-2
-8
8
0
0
8
-6
4
-16
-6
16
-2
-8
-6
20
-10
-20
-18
-6
-8
0
-8
-10
10
-6
0
-10
10
0
6
4
-4
12
2
10
6
-8
-12
14
2
-10
0
-10
4
18
8
-2
2
4
-12
12
10
0
2
-2
6
-10
-2
0
6
-2
-36
18
0
-8
-6
2
-4
4
6
4
-18
-6
-8
-4
-2
-12
-4
-12
-4
-6
8
0
2
-22
-28
4
8
-4
-2
4
-18
-18
20
-22
-4
-20
4
-2
31
-14
31
6
12
12
12
6
6
18
-6
-4
0
4
-2
8
-10
-2
-8
14
-8
6
-2
-6
-6
12
-20
-28
0
-6
16
0
-6
0
-6
0
-4
2
-2
-28
-8
-22
-8
-20
6
10
0
12
12
4
-8
2
-6
0
-2
-10
0
-8
8
-6
-10
-14
0
0
20
2
12
2
0
12
12
4
10
0
-8
10
-14
4
6
-2
0
-2
0
0
12
-10
16
20
-8
6
-8
8
4
-22
8
2
0
-10
-6
-4
-8
-8
-4
-18
-8
-14
2
16
20
4
-16
-22
0
12
25
-6
8
8
4
-14
2
-2
-4
-2
-2
-6
-2
-6
-4
4
-6
0
6
-10
14
4
-2
-28
-2
8
-10
8
-22
8
25
-6
8
-6
-14
10
0
20
4
-10
-6
2
-8
8
-4
0
-4
-6
-20
0
8
-2
2
-10
-8
16
-4
4
20
-12
25
-14
-2
-2
-2
4
-6
8
-16
2
-16
-22
-12
-8
4
0
6
12
-4
-6
-10
2
-12
-22
-14
0
-2
16
25
-4
-2
0
-8
4
-8
10
-10
2
0
14
-4
2
4
-14
8
4
10
10
4
-2
4
-4
-14
-20
-8
-16
0
20
2
16
-6
-2
10
-2
18
4
4
16
0
6
-6
-6
-12
-10
-16
16
-22
-10
-4
-6
-6
-2
-22
-8
2
-22
18
-8
25
6
-6
16
12
4
-18
2
6
6
-4
-4
6
-8
-22
14
-4
-12
8
-12
20
10
8
8
-4
-6
-8
4
12
-2
-4
18
-4
-12
-16
-12
-6
-12
12
0
-6
12
-12
16
12
8
8
10
6
31
18
18
18
16
12
6
-18
4
-10
12
2
4
-2
8
-8
-6
10
-4
-2
-8
10
-4
31
-12
-16
16
0
-4
14
-12
-12
20
4
-18
0
-2
-6
2
-14
-8
-12
14
31
4
6
0
-8
-8
-14
8
-2
4
-22
-2
2
0
-14
-2
16
18
4
6
2
-18
18
4
-10
0
-4
16
-6
2
-36
-12
-4
4
16
0
-8
-12
0
2
4
-2
-2
-6
-2
6
-12
-8
6
-2
4
-12
10
-6
14
4
-2
-4
-36
-8
-8
2
6
-8
14
2
-2
-2
-12
20
-6
18
-2
8
-10
-12
2
-2
2
-8
0
2
12
2
4
-2
10
4
39
-10
-14
20
-4
6
18
-4
-18
20
-6
-14
-28
12
-8
2
-4
-2
10
-14
-14
-2
-4
-12
25
8
-6
20
6
-10
-10
0
-6
-4
-22
-10
-2
-12
-4
10
18
2
8
-14
-2
12
-12
6
2
14
-8
2
0
20
6
-16
-2
6
20
4
0
-2
-4
0
2
16
16
10
-8
2
-2
-2
-14
8
10
4
2
25
4
-2
6
8
18
-2
-22
12
-2
-8
-10
12
14
6
4
-36
6
-16
-10
8
10
-6
-14
0
16
4
0
-8
4
4
-8
-16
2
-10
-16
-12
0
8
12
-12
-28
-20
25
-2
-6
12
-4
-6
-14
6
-28
-6
0
0
12
0
8
-2
-2
2
-22
-16
8
8
-8
-22
-10
-6
0
-8
10
6
12
6
-4
-14
-12
12
2
4
2
0
-6
-2
4
-4
-12
4
-10
12
-2
2
-6
4
-6
-28
-20
-14
-36
-8
-4
25
10
-6
39
12
4
14
2
-22
4
-8
-16
-8
-14
-14
39
-20
-8
-2
-8
6
-12
-2
4
-4
-4
12
12
-4
0
-4
0
-6
18
25
18
12
-14
10
4
-12
-8
-8
-20
10
-8
-8
-22
-14
14
-10
-2
-4
0
-14
-14
16
-20
-12
31
16
-10
10
2
-6
4
-36
2
-36
2
-14
8
-8
-14
8
10
-10
20
6
20
-4
12
10
12
0
-8
18
-6
-18
-6
6
4
-22
4
-8
12
16
-16
8
0
-20
-2
12
6
39
-6
0
2
0
8
-16
25
8
-12
10
-8
-4
10
2
-8
16
-16
-6
-12
6
-4
-4
-14
4
0
-10
-8
10
14
6
12
-4
0
-14
16
8
-8
31
-12
-6
0
-2
-10
-6
-8
4
0
-4
4
-10
6
-10
-10
6
10
2
4
6
-8
-2
-16
4
20
-4
0
-18
10
-4
-12
6
-2
-28
-2
-2
10
10
25
4
10
-6
6
-4
-10
-22
14
0
-22
12
4
4
8
-22
6
-10
-6
25
-2
-2
-20
-2
-8
-8
4
-4
18
0
-8
-2
8
-6
4
-12
-14
-12
-2
6
-6
18
10
4
-10
-2
-2
2
-10
8
0
10
-6
0
0
16
2
-28
4
6
2
6
8
-16
-18
-10
8
-8
31
-14
0
2
-14
-10
-12
31
4
-8
-4
-8
8
8
-14
-14
-6
4
-16
25
-18
-8
4
49
-8
4
0
10
-2
20
-10
-2
4
0
2
12
-12
0
8
-12
10
4
2
4
31
10
8
-16
-10
-14
12
0
-14
-4
12
14
0
-2
-12
-6
10
0
-14
-8
-2
16
4
-8
14
12
-2
-2
-6
6
10
10
2
-14
14
6
-8
6
-8
-14
6
-4
-6
20
-10
0
2
0
-10
8
-12
-14
4
-14
8
-2
-10
-12
2
2
-12
-14
-8
-2
-14
-6
10
-10
0
-4
10
0
-2
-4
-12
12
14
14
31
2
-22
-2
14
0
16
10
-8
-6
-4
6
4
-18
-12
14
6
-28
-6
6
-12
0
-8
4
-22
0
-8
-14
-8
6
2
8
-10
6
-2
-8
10
18
4
-2
-2
-2
-6
8
10
4
-8
18
10
10
-12
-4
0
16
-6
0
-18
-18
-2
-6
-8
-2
-12
2
-2
-12
-4
-14
-16
4
6
-2
-6
8
25
4
4
8
-2
10
-4
0
8
0
-8
12
4
-20
-20
-10
-2
4
2
-2
4
10
-6
12
31
-18
-14
8
6
-28
-28
-12
4
18
-4
18
2
0
-18
8
4
2
12
2
0
14
10
2
-10
10
-28
2
-14
-10
-8
12
-14
-10
-2
-6
0
-18
4
6
-2
0
4
10
10
-8
2
20
-16
-2
-4
-8
0
4
25
6
-6
18
10
0
2
-8
-16
-6
8
16
-12
2
-6
10
4
-4
12
-4
-4
-4
-4
-2
25
-6
16
-4
-2
2
2
2
20
-6
2
2
10
-14
-6
-8
8
12
10
18
-6
-2
6
4
-8
0
-10
-12
16
14
-18
-4
-2
20
10
2
2
-2
-8
-18
2
2
-8
6
-2
2
25
12
-8
-4
-4
-16
-28
0
-6
4
2
12
10
-8
18
10
2
0
-20
8
-12
-4
8
-4
2
-18
20
8
6
-4
10
-2
-8
8
-18
-14
-18
-16
20
-14
-12
10
-2
-18
-4
10
4
0
4
4
-2
12
0
0
14
-14
-12
10
16
0
-10
0
10
8
-6
-2
25
6
-12
-4
-6
8
14
-4
-16
4
-6
6
-12
4
-6
10
-22
-14
-4
-4
-4
-6
4
-10
12
0
31
6
-12
-2
14
-4
10
2
-12
-10
16
0
0
2
4
-4
6
10
-18
-8
-4
4
8
2
6
-4
-10
-8
2
-18
-12
-2
12
-2
0
6
0
0
6
-4
6
0
-12
16
31
-6
-8
-18
10
-4
-2
6
-6
-6
-2
2
-4
-12
14
-2
0
-14
0
-6
6
6
8
0
-8
10
0
-8
4
-16
-12
2
6
12
-4
14
-10
2
-16
-10
31
18
-16
18
-2
0
0
-8
-8
4
-10
6
-14
14
2
2
2
-4
18
6
14
-12
-2
0
12
10
-6
0
4
-2
-28
4
-12
-2
-6
-18
10
-10
-8
2
-12
2
8
-14
8
2
2
6
2
6
-12
6
-10
-22
-4
0
14
-4
10
-22
-10
4
0
16
10
-8
6
4
2
4
2
-2
-10
-2
2
10
-10
-4
-6
-8
-10
-8
-4
-2
-4
-4
-2
31
-2
4
-8
6
0
10
-16
-18
12
0
8
4
25
-12
2
0
-8
6
4
-10
20
0
-6
8
4
-2
8
-2
16
-20
2
2
-16
-18
-4
20
8
-4
16
-14
-18
-8
-14
-2
4
-4
-4
6
10
-14
-18
-4
10
12
-8
-18
10
0
14
6
2
-2
8
25
-4
-18
-6
16
10
-16
-12
0
0
6
-4
14
-2
-2
-4
-14
0
0
4
4
0
0
12
6
-10
0
-6
-8
-2
-6
8
4
8
6
12
-2
2
6
-16
-28
31
-10
-8
-10
-8
-4
-10
-8
4
-22
0
-10
49
-12
4
-4
-4
0
-8
-20
-2
0
-2
2
-16
2
2
2
31
-4
4
-4
-6
0
31
-10
10
10
-10
31
0
-2
-10
-10
20
-2
-8
2
4
0
-14
12
4
10
-10
12
8
18
8
-2
-10
-6
-20
-14
31
20
0
2
18
-4
4
2
0
-6
18
-4
-10
2
8
16
20
0
-8
8
-6
-8
6
-4
-14
6
-14
-4
-4
-14
0
4
-16
20
12
8
-14
-28
-28
12
4
-14
6
-4
31
14
-4
-4
10
2
-8
-20
-10
6
0
-12
-12
-10
-22
-22
-20
-14
4
-2
-6
-12
16
6
-18
-4
-8
-12
-2
-10
-36
2
-16
-4
-12
-4
12
6
2
4
16
-2
-18
14
10
-16
-28
39
-18
-6
-12
4
-2
10
14
14
-10
12
6
-4
10
31
14
-22
-8
-10
-16
12
-22
8
-14
12
-8
-8
20
-14
-18
12
12
6
-4
-14
-6
-4
-4
12
12
6
25
2
-2
16
10
0
-2
0
8
0
-8
-6
0
-8
-6
-10
20
-12
12
-12
-18
-10
-16
12
-16
6
-8
6
8
-16
-12
6
12
-8
-14
0
8
16
6
31
18
10
20
-4
-12
-10
-10
-6
2
-18
-28
18
-4
12
8
-8
4
12
-4
-2
-4
25
2
6
-12
20
-22
10
-4
-4
2
10
-8
-14
-4
0
0
-2
-2
-10
-2
12
-12
8
-6
-8
10
-6
12
8
2
2
0
14
8
6
-14
-28
-8
4
-2
-6
8
-4
4
8
-2
16
-4
-20
-2
4
4
12
-14
20
-10
8
12
-4
-12
-4
2
-4
-6
25
-28
-22
12
2
-6
8
-12
-4
-2
-4
4
0
-12
-4
6
0
18
-8
10
-12
-10
16
-2
-10
-2
-28
-2
0
-10
-8
14
10
-6
-22
-18
-8
-8
-28
14
0
6
14
6
8
-10
-22
12
-4
-2
14
-2
14
-14
2
20
-4
2
20
6
6
8
12
-6
6
-14
-28
-2
4
4
6
6
-8
12
18
-10
14
0
2
-14
16
-2
-10
4
-4
0
-4
0
0
2
10
-6
4
-14
-4
-12
0
8
-10
-6
18
-10
-12
2
-4
2
-6
4
-2
-12
-14
0
20
-18
0
4
12
4
0
0
-6
-4
16
2
-4
8
-6
-14
-2
0
6
25
-8
18
-10
0
-2
12
-2
-8
-6
-12
12
2
2
-18
2
-2
-4
12
-2
0
10
-8
-6
12
-2
-2
0
10
-6
6
-36
20
14
6
-18
4
18
8
-12
2
-8
4
12
-6
-18
-12
-10
-2
8
6
-4
2
2
2
-8
-20
-4
-4
-18
-6
-6
-2
10
2
-16
4
6
14
10
10
12
-22
16
-2
6
10
8
-2
6
-4
-6
2
10
0
20
-28
-4
-12
16
-18
-6
8
-8
6
0
-10
-14
-12
0
0
-20
-28
0
-10
14
-12
-14
6
4
-8
-2
10
0
-18
-4
-20
-8
-10
31
6
-4
4
-2
4
10
-18
-16
-18
-8
2
6
2
4
6
4
6
10
-6
18
-10
-12
-6
-12
16
-4
10
20
-4
-6
-22
0
18
-10
0
4
6
-2
-10
-8
2
8
-6
-20
25
-4
-2
8
16
-12
2
2
-10
-10
-8
-12
10
-10
8
-16
20
-16
-14
6
10
-18
-12
16
-10
-4
16
14
-16
-12
4
6
4
-6
-20
2
-10
0
-12
0
-6
6
-2
-10
-12
-16
-16
-4
-8
6
31
-22
4
-14
-2
14
18
-2
4
-14
2
-22
8
4
-2
-8
-4
2
0
0
-22
-12
-10
-4
4
-8
-4
-2
-8
-10
20
-10
-8
-18
-4
-2
-2
6
0
-6
14
0
-6
8
0
-2
-18
0
14
6
-4
12
-4
2
4
-28
8
-4
-8
-36
-14
8
6
-4
12
-36
-8
4
-20
12
-4
-2
4
-16
-4
16
14
-16
-10
18
-4
2
25
8
14
-4
12
10
-2
-8
0
25
2
4
-14
-18
-12
-8
4
-6
-4
-2
-2
20
0
4
10
2
-12
-4
2
4
-18
-4
-16
-12
2
-6
18
8
-2
4
10
6
0
18
10
-20
2
4
16
-4
10
-14
2
-8
-4
6
18
-12
-4
2
6
4
-4
-16
-6
-20
-16
-2
-4
-6
-12
2
10
-6
-6
31
-18
-14
0
0
-2
-4
-2
16
-2
-4
-12
6
-14
-6
-6
-16
-4
-10
0
-4
6
-4
6
-2
-22
4
4
2
12
0
2
2
-16
4
2
-8
0
12
-2
0
8
-6
0
10
-10
-10
-4
0
6
2
0
0
-28
-6
12
8
8
8
4
-6
-6
-6
16
-10
-22
4
2
0
-14
2
-4
16
-12
12
-16
-6
-10
2
10
4
14
-2
20
10
31
-10
-2
16
14
18
16
-6
2
2
-12
-8
6
-6
12
31
6
0
20
2
-2
4
14
0
-28
-10
10
-22
-18
12
16
6
0
12
4
-6
2
14
4
20
-2
-18
-4
-4
-2
-8
-22
-8
-18
-8
-12
-4
0
2
-18
-10
-16
-18
2
-4
-18
4
6
20
6
2
-2
6
-6
-6
-14
-4
31
0
10
16
12
0
-12
-20
25
-8
4
16
-4
-18
-6
0
-20
31
-12
-10
-12
39
4
20
2
-6
0
4
14
2
-10
-4
-2
-10
-2
-4
4
-10
0
2
2
-12
-8
-14
-12
14
4
-16
20
8
-4
4
8
-16
6
4
-10
4
4
8
2
-12
-14
8
4
16
-6
2
6
-2
0
-16
-10
0
0
16
-20
6
-10
-20
-2
-8
0
-10
10
-4
8
-22
-12
-36
-22
0
-6
-6
-2
-6
16
20
6
31
2
25
-28
0
8
12
-4
-14
8
-28
-18
-8
-18
16
4
2
25
20
-16
-28
-2
-4
-10
-2
14
4
-6
-2
8
-8
12
4
-14
14
-28
0
-14
-22
-12
-6
-10
-12
-8
-10
39
20
-10
-20
20
8
-16
4
-14
2
4
-2
-14
0
-14
-4
25
0
-4
0
-8
0
20
8
2
-4
-8
-10
-28
-20
-18
-10
-12
-22
-20
2
-20
2
-6
8
-2
-36
-6
-22
-6
-28
12
-2
-2
2
-4
-10
20
6
14
-20
2
-2
-6
-14
2
8
8
18
0
-6
-22
20
2
-6
-10
-10
12
10
-14
-4
-22
20
-6
10
-8
10
20
-2
10
10
-14
-10
16
2
8
-6
2
8
20
-16
-14
14
-14
10
-4
12
-10
4
4
-8
-10
-6
2
4
-12
-2
-4
-4
-18
-6
6
12
-4
8
0
-8
-6
8
-14
12
-4
-10
-12
-6
8
-4
4
-4
14
-14
2
-8
-12
-18
2
-2
2
16
0
-2
8
-8
6
0
2
2
31
12
39
-4
-6
-36
8
-16
10
-2
12
-16
-22
2
6
16
-10
-4
2
-8
12
-8
25
-6
-14
6
4
6
8
18
-14
-6
-16
-10
20
-14
-6
-2
-6
16
16
8
-4
14
2
-14
0
-4
-2
14
-8
4
-8
-12
4
-10
-2
-8
-16
25
-22
-6
31
2
-6
-10
14
-6
-12
0
-22
6
-4
-22
-10
18
-8
-6
-2
6
-16
-12
8
6
0
4
-14
-14
0
0
6
4
16
2
-8
31
0
-4
10
-4
-12
-8
-22
-14
14
6
-12
-6
-18
-16
2
-28
2
25
-14
2
0
-8
0
-4
-18
10
10
-6
12
-16
-2
-16
-2
-8
31
25
-20
-10
0
-8
4
0
-8
20
-18
0
-10
-14
0
-14
-14
14
-10
2
-2
2
-10
8
-2
-4
2
2
12
-4
-4
-6
12
-6
2
-14
4
25
-2
-2
14
-12
-6
4
-12
-4
-4
-8
0
2
10
-10
-2
2
-6
-4
0
-2
-10
2
-22
-14
-4
-18
-4
14
2
14
10
-10
-8
2
10
4
8
12
-10
20
-2
14
-4
6
-8
0
0
16
-28
-18
-4
-2
6
-12
-12
-10
-10
-14
4
25
-4
-8
-18
25
-16
12
4
12
0
8
2
-6
8
-4
16
18
-18
-20
25
-10
-4
-6
-20
-2
-2
-10
16
0
-12
8
-6
-4
6
-18
-8
18
0
-12
20
0
-10
8
16
-4
0
-10
-4
-6
-2
-6
-8
-10
-4
6
20
6
-4
-16
8
-14
2
-12
-10
4
14
-2
18
-8
2
16
-10
-10
20
-14
-8
-2
-8
10
-4
25
0
10
0
0
-4
-6
-14
2
20
-4
-16
12
-2
-2
-4
-2
-10
12
6
-4
0
-14
-8
25
-8
-14
-2
-2
-18
0
-20
18
-16
-6
8
-14
2
-22
8
10
-16
-2
-4
-4
0
0
2
-2
-2
-4
-6
-28
-36
2
6
-10
-16
-2
10
-6
8
-16
-4
10
-16
-4
-6
0
-2
-2
10
-6
-16
6
2
-16
12
20
2
4
-8
-2
16
-6
-18
2
0
39
20
4
2
8
-2
-4
-20
-14
-16
14
2
-6
16
16
4
4
4
-4
-10
31
8
-14
12
-22
-4
-4
16
-12
2
-6
4
-16
-12
-16
0
14
-8
6
14
12
0
12
16
10
4
-12
10
-22
-16
20
10
-12
-4
8
-6
-2
-6
6
-2
12
-14
12
-4
-8
20
25
2
-18
-14
2
4
-6
-4
0
8
6
10
-12
-8
-12
25
16
-8
-12
4
-2
4
-4
6
-8
-14
-16
10
-20
-6
-14
-10
12
-10
14
6
-12
-2
-22
-2
6
-12
2
-6
12
-12
-18
-4
-12
-16
20
12
18
4
-22
-16
14
-8
8
-22
-10
4
18
20
-18
-4
12
16
-14
-10
2
-12
-14
0
0
6
4
0
10
0
4
0
-2
-6
2
2
-14
-12
8
0
8
-12
-12
-8
-6
8
0
-22
-8
-4
8
8
4
-4
6
14
12
4
-4
20
-10
2
-12
20
-8
8
20
2
-22
-2
12
2
-16
-4
6
-20
-4
6
-16
0
-2
-2
-4
6
0
14
10
0
-4
-10
-8
10
-4
-2
10
0
8
2
-10
-4
-2
-14
-2
-6
8
2
-28
-10
-22
10
6
2
0
8
8
14
-10
4
-6
-6
-2
-6
8
-10
0
-6
-6
-2
-6
-18
-14
-6
-10
10
31
-28
-18
4
-8
-14
14
4
-12
-10
-4
4
-8
-4
6
-4
-14
10
2
-2
-4
8
-6
-2
6
0
-6
6
-8
-10
-8
-12
8
-2
-4
-16
14
2
-12
-4
-22
12
-6
-10
-20
-6
12
-10
-2
12
-10
-10
6
-2
-6
-20
2
-4
8
14
8
31
-2
-6
14
6
0
0
10
-2
14
0
10
2
-18
10
-10
-6
25
14
-4
-8
0
-6
6
4
-4
-2
0
12
10
-16
-4
-6
-12
-10
-4
10
12
-6
-14
-16
0
-12
18
0
-12
-12
8
-10
12
-2
4
-12
2
-4
-18
-6
6
0
20
-10
-4
6
-12
-14
-36
10
0
12
-6
25
0
6
18
-14
-18
2
-6
4
-14
31
-4
-2
-8
8
-12
-6
-4
0
25
16
-22
-2
20
10
-10
-10
-2
-18
-4
-16
-20
-22
-14
2
-2
2
6
0
-12
14
25
-18
2
-6
-18
0
-2
16
-16
6
31
-18
-20
0
20
4
14
4
-6
4
14
6
2
-36
10
2
-8
-22
-22
2
12
4
0
-10
-16
-6
8
-8
-14
4
-16
-6
-8
4
-28
-2
-8
-16
20
-14
4
2
-8
25
4
-2
-10
10
18
12
0
10
39
-16
2
-6
12
-8
-4
-14
2
10
6
-10
-8
0
0
-4
16
-18
10
-10
-6
4
6
2
-8
20
-4
0
-2
-14
-20
25
6
-2
12
-14
18
6
12
-4
-16
-6
-8
-10
2
6
0
-6
18
2
-6
8
4
-8
14
12
4
-14
18
-4
-4
6
12
31
2
39
-12
4
-8
-4
6
0
-14
2
16
-10
0
-2
16
25
2
18
2
31
0
10
8
2
2
12
2
-10
-12
20
25
-14
4
-28
-12
-2
4
4
39
2
8
-6
2
0
0
-22
-12
-6
6
-16
-20
-18
-20
-14
20
16
20
20
14
-12
12
6
4
-8
6
-12
14
6
-2
-8
12
4
16
2
4
-12
-22
-14
0
-6
4
-20
-4
0
-36
14
-6
8
10
2
12
12
8
12
-4
-16
4
-4
2
-14
-6
0
-10
4
14
8
6
-2
-2
-6
8
-8
10
6
-12
-4
2
6
2
-4
10
39
-20
2
12
2
-2
-16
-28
-36
-10
-14
-8
-22
-10
12
0
8
2
-22
4
2
10
-4
-6
6
2
0
-4
-4
12
-16
-22
-14
2
-10
12
-8
-18
16
6
16
-2
-6
-6
-8
-4
-2
20
-6
8
0
6
-4
20
2
6
0
18
-4
10
-8
14
-8
4
-4
-20
8
-4
-4
-6
12
-12
14
-6
-6
-16
-8
-8
6
-10
2
-12
-4
-20
-10
-12
-6
-18
-16
2
-14
-14
-18
-4
4
-10
6
-4
-6
8
0
-8
25
-2
-4
-8
-28
-8
-12
18
2
-6
0
2
4
-12
14
-2
-6
2
-8
-6
-2
10
-6
-2
-2
-4
-6
-36
-12
-22
-12
-6
-6
10
-28
6
-12
4
8
-28
-8
2
4
14
-16
2
-6
-14
31
12
-2
-22
8
-18
2
4
10
14
-16
-4
12
10
8
10
2
-28
12
-20
-36
-8
20
-12
16
-10
-14
2
18
-10
16
-14
25
18
-12
-8
31
-14
-6
14
-22
-14
-18
-10
-6
2
2
-12
-6
-6
-12
-20
12
0
2
-2
-8
12
-10
8
0
20
10
-12
-20
-14
6
-8
18
2
8
2
16
14
-18
18
8
-12
-14
-8
12
-4
10
-12
-8
-10
4
-12
8
4
-6
-2
6
2
16
-14
-14
14
-4
18
25
-4
14
6
-2
-12
2
6
8
8
10
18
-4
25
0
10
2
16
14
0
6
0
-4
10
-2
0
-12
-16
6
-6
-2
12
16
6
4
-12
2
16
0
0
0
0
16
-22
0
4
-18
6
2
2
4
0
-14
-10
2
6
4
-4
12
-4
6
-28
-16
6
0
-18
-22
-6
18
12
16
-2
-10
31
-16
31
-2
-28
-8
-2
0
0
-12
14
-2
-14
-18
-2
-2
-22
-16
-4
8
20
-4
0
-4
-6
20
-4
16
0
-6
4
-16
25
25
-10
-28
-20
-16
-2
4
-6
-4
18
-14
-10
10
0
-12
-6
-22
-16
8
2
31
0
-10
-28
-2
-2
8
2
-22
-4
2
20
-2
-12
-10
-6
6
0
14
39
6
18
6
0
-16
-20
-8
-8
12
18
20
4
-14
10
18
18
25
12
10
10
6
8
-16
-4
-4
-8
-14
20
-18
-14
16
-6
6
10
0
-2
-20
-8
10
4
8
-4
-8
25
6
6
6
-10
12
10
-14
-6
-16
-10
-20
20
4
2
-6
-10
4
10
-12
6
0
-2
-22
-8
10
-4
-2
-2
16
4
2
-2
20
-14
8
-20
-2
10
0
-6
-4
-2
0
0
12
31
12
-2
10
0
12
12
-6
-18
-18
2
-8
10
10
-16
-18
2
14
0
8
-12
-4
-16
0
-4
0
14
-6
-18
16
-12
12
18
-4
-14
6
2
20
0
-16
-10
-12
25
-2
-4
-4
-8
-10
-6
4
-12
-36
-6
-2
-14
-12
4
-22
8
20
-22
2
-18
-12
-12
20
6
-12
8
18
20
2
-8
-22
-22
-4
-10
-4
4
-8
-4
4
-8
4
25
2
-2
-6
-6
2
-10
0
25
4
-6
-10
-2
25
-12
0
-16
-16
10
16
10
4
-14
4
-4
0
0
10
20
-14
20
12
2
-6
-14
18
-16
16
-20
2
20
4
-10
10
2
0
-10
20
0
12
18
-22
10
-10
4
-8
4
-6
-10
-8
14
-2
6
-14
-18
6
8
-16
-12
-10
-10
18
0
-8
-12
6
-8
6
16
25
2
-4
-8
-10
-8
10
4
2
18
-6
-20
6
0
-2
6
0
10
-2
-12
-12
4
-12
25
12
0
6
-22
-12
10
-2
-4
18
6
12
4
12
-4
-6
-6
18
12
10
-4
0
12
10
16
4
0
-16
-4
-12
-8
-2
-2
-16
31
12
-16
31
-22
12
-28
-6
10
-2
-6
0
6
-4
-18
4
14
-4
2
2
0
8
4
0
-16
-2
18
-2
-8
2
-14
31
4
-14
14
14
-6
-2
-8
-18
-8
2
8
8
10
6
4
4
-14
-22
-20
-6
-8
6
-14
-6
-8
12
-10
10
4
14
-12
-28
-2
-6
-2
-2
8
6
2
-6
-10
8
8
-8
-4
-18
0
6
0
-10
12
-12
14
-6
-12
8
-2
-4
-12
4
-18
-2
0
6
2
12
4
8
2
8
-14
-8
18
49
0
-2
-14
-16
20
-12
-18
4
-6
16
8
12
16
-18
-22
-10
-12
-10
10
-8
4
20
8
-4
-10
12
-22
8
20
6
-14
-28
-28
-4
-16
2
-4
12
-6
-4
25
-28
0
12
20
-4
-10
-2
16
6
-16
-16
0
6
-20
-10
10
14
-6
2
-2
6
-2
-12
-2
-8
6
12
-20
25
-16
-14
0
-2
-18
-4
-12
-10
12
2
12
-16
-10
2
-12
-22
6
2
20
-12
-22
0
20
31
-2
0
0
-10
10
-16
-28
6
-2
-4
-14
8
-12
-10
-8
-2
-14
6
-12
-2
-16
-16
4
20
4
10
-22
-16
4
2
4
-4
14
-4
-16
31
4
0
4
-4
-4
-12
-6
-8
-16
0
2
-12
14
0
-8
4
4
-4
0
2
4
8
0
14
-6
-12
20
-16
12
18
-12
4
-4
0
2
-2
-10
0
-12
2
-20
-8
-16
0
6
-28
-20
2
-10
-8
-22
31
-12
-2
6
-18
-8
8
-6
-16
12
20
-8
10
-6
-4
14
-8
-18
6
-20
-18
0
16
-2
2
10
-2
2
-12
0
-14
0
-14
8
-2
10
-18
0
-6
-16
6
-28
0
-14
-2
-6
-4
6
-12
14
4
4
10
-2
12
18
4
-6
10
-14
-6
10
-12
-2
0
-6
-2
-12
-14
-4
-6
18
-2
-12
-14
20
8
-2
18
-12
-8
-4
6
18
8
-8
-2
8
-10
6
0
0
-4
6
-6
6
2
4
-6
0
-4
-4
0
-8
10
8
12
14
25
8
-16
-6
4
-4
2
-14
4
6
4
2
-12
0
-10
4
-16
4
31
8
-10
-10
18
-4
4
-12
4
-6
10
18
-16
-6
-2
-12
-10
-2
-8
-4
-12
-14
4
-12
-2
16
-2
-10
8
-6
-22
-8
-22
18
-28
-4
-6
-10
-8
-14
2
-2
6
2
2
0
-2
0
14
10
-10
-2
4
-12
-28
12
-8
-16
-8
-10
-16
6
6
20
-20
-18
-8
6
2
0
4
-14
-12
0
0
-2
-6
0
-4
4
8
-12
0
0
-4
6
-2
-8
-14
-8
-10
20
0
-8
-2
20
10
-4
-36
18
-2
4
12
4
-8
-10
4
-10
-6
6
-8
8
-6
-4
10
0
-18
-28
4
-6
2
-6
6
12
-8
10
-2
-36
8
-16
20
16
-12
14
6
-22
-22
-4
25
-18
-12
-12
8
6
18
12
25
-2
6
31
6
2
-10
10
-12
-4
-8
20
-4
6
-14
18
12
2
20
-16
8
-4
-12
2
-20
-12
-12
-8
-12
-4
-12
4
-16
4
-8
4
14
-8
-2
-4
0
8
14
-2
12
4
0
0
-36
6
10
-4
18
2
0
2
-8
-8
14
-2
0
14
-10
-6
0
-2
-28
-8
0
10
14
-2
8
-4
-2
-8
-4
-10
31
16
2
2
0
-2
-6
12
10
18
8
12
-4
-10
10
-10
10
-10
4
39
6
-2
39
16
-14
6
0
-2
2
6
-14
2
6
2
-4
-8
-6
2
-6
-14
4
4
-14
6
2
-12
-16
8
-16
0
0
-28
-36
6
-4
-2
4
6
14
-4
-16
-6
-2
6
-14
-8
-22
-14
10
4
-8
-4
10
-6
18
-6
8
-6
-18
6
-16
8
-12
12
20
-4
-16
18
-12
-10
12
18
25
2
-10
12
39
-12
-10
-2
16
14
6
14
-8
6
-10
8
8
-4
-8
8
25
20
-2
0
-4
-6
20
2
-14
-2
0
-2
-10
-14
6
-4
-36
-6
-12
-28
-16
4
14
-6
-6
-18
12
6
-8
31
-2
-6
14
16
-12
16
6
0
14
-2
-12
-4
4
10
-4
-10
4
-8
6
-16
6
12
-6
-36
20
-14
-14
2
12
-4
-8
8
-10
-14
2
-2
12
-2
-18
14
14
-4
8
-36
-2
-6
-14
10
2
0
6
2
8
4
20
16
-16
2
-2
-28
8
-2
-2
-10
-8
-6
-12
-8
10
0
-8
6
8
20
4
0
20
-6
16
-2
-2
20
0
-4
-4
10
-6
-22
6
-4
-6
-12
-14
4
4
4
14
4
6
8
-12
-12
6
-10
6
20
49
4
6
0
0
6
-12
6
-10
2
6
-2
4
-10
-28
-6
0
-6
8
8
4
0
-2
-2
-18
12
-10
-6
2
12
39
-14
8
-8
0
6
-6
4
-20
-8
6
6
-4
2
10
-8
-4
-14
10
2
0
-6
-4
-2
10
2
2
0
-18
-8
2
4
-12
-2
4
-8
-6
8
-16
-6
6
0
-14
25
18
-22
4
-4
-2
31
4
-10
10
4
-2
4
2
12
4
-16
0
-22
-6
4
-2
-8
8
2
2
-2
20
-8
0
-14
8
-4
-10
-22
-12
2
-6
-14
-20
-18
12
6
-10
-2
8
-4
6
-6
-6
-2
-12
0
-10
-16
8
-2
-4
-4
-6
-4
8
2
0
4
2
2
-4
0
-8
-10
4
0
12
2
2
2
-8
12
-14
6
6
-18
8
10
10
-4
10
-22
-6
6
-6
-12
12
-8
-4
-6
-10
6
-2
-2
-4
-14
-10
2
25
-18
-20
-8
-16
-12
-18
0
8
-12
0
6
-6
-14
10
25
18
-8
10
-6
-4
-6
12
2
18
-2
-18
6
-6
-10
-10
-4
6
-4
6
14
8
4
-20
4
2
14
-10
-8
31
12
-4
-2
6
-14
-16
-6
12
8
20
-8
25
-12
16
10
4
-10
0
-4
-10
-6
14
18
20
14
-14
-10
14
-6
8
10
2
12
8
-10
-4
-14
8
20
-8
10
0
14
-12
-20
-28
8
-4
-12
14
20
20
14
10
6
4
-20
-6
-6
-2
0
4
-18
25
-4
-18
-10
10
-18
20
2
-8
-2
8
2
-16
20
0
0
-12
-10
6
-4
8
6
6
-12
4
10
-14
12
-16
-14
10
12
18
8
2
-28
-14
6
0
0
-8
-18
6
4
12
20
14
18
0
-4
8
0
-14
-6
-2
8
4
-10
-8
-16
-6
-6
14
-12
-2
-2
-4
4
10
-10
-14
2
-6
0
-4
0
2
-2
-2
-12
-10
-10
20
-2
-2
-8
-10
-2
-22
-4
-10
6
10
-10
-28
18
-2
6
20
-2
-6
-2
-2
-20
-6
18
2
-28
-4
6
-18
2
-18
10
0
-36
25
12
6
-14
-6
0
10
-2
8
20
-2
-2
-10
-4
-14
-8
0
6
-18
-8
-12
16
-10
10
6
8
-6
-6
2
-10
-2
2
-14
4
20
16
16
14
2
-2
18
4
-6
20
2
25
-12
-2
-2
6
-4
0
-2
-2
0
2
8
31
25
-10
4
14
-6
-22
-12
4
-12
12
4
-8
-6
-12
4
12
2
-10
4
-6
-14
-16
4
4
-8
14
2
-12
12
-6
-14
-4
-14
8
-2
0
-10
-8
2
16
-2
6
4
-6
-2
4
18
-6
0
0
0
0
-12
4
4
-2
25
-16
-2
14
-14
-2
-8
-14
2
-2
16
39
-12
-16
25
-22
18
8
8
-2
2
12
-2
6
-4
-10
-16
-6
6
-12
4
18
-4
6
-10
10
-2
2
25
-2
-12
-10
4
-6
8
-6
-2
4
2
-14
-28
-22
12
2
-2
-18
-6
-10
-14
8
-6
16
14
31
12
0
-2
-6
25
-20
-4
-10
-20
14
-14
-2
-12
-4
10
18
-2
2
-6
-14
-4
2
-2
4
18
10
-4
-8
10
8
-2
-20
6
-12
-8
-6
-6
12
-2
20
10
0
0
6
10
4
8
-12
6
16
20
-18
-12
-4
-6
-4
0
6
-4
-2
-6
-16
-10
18
-16
-4
14
-2
-10
14
-8
10
-6
-6
14
-4
10
-4
2
10
12
0
-4
-8
10
16
-2
-4
8
6
16
-2
12
-14
-8
16
-36
4
0
-22
-14
4
2
-18
12
-12
16
-8
-22
-8
-8
14
-2
-12
-14
0
0
-22
-10
0
-28
12
-4
-12
12
18
10
-12
8
12
-2
4
-22
31
12
20
12
-10
-10
16
6
8
-12
-12
-28
20
-12
0
-10
25
-4
-20
-14
12
-2
4
-8
0
25
4
20
12
2
12
6
0
-18
4
8
-12
2
-2
-8
18
-4
-16
-4
-10
-8
-6
-4
2
14
-14
4
-2
-2
4
20
-12
4
14
-10
-8
10
-6
-6
-36
-4
-16
-18
0
-18
12
0
-4
10
-6
6
4
6
-6
8
4
6
-14
4
0
-8
10
-20
-12
2
-2
-2
6
-20
12
-10
-8
-22
-16
-4
-28
-8
2
10
4
-10
-10
2
-16
-10
8
0
8
-2
-18
4
-22
-28
4
-2
-6
-16
14
-18
14
-20
-8
2
-2
-10
12
6
12
12
4
-2
0
-8
8
6
4
2
-20
-8
-4
0
-22
8
-10
10
-10
-2
-8
0
-8
2
8
-20
12
25
-4
-10
-2
14
4
-10
0
0
8
-6
0
10
4
-8
31
0
8
-2
-12
6
4
-2
-8
-28
-6
-22
12
-4
-18
10
4
12
20
-2
-14
2
-10
-8
-8
-2
-20
4
-10
18
-2
8
10
2
-16
4
-16
2
-28
-4
4
-8
4
-28
10
0
12
-6
-4
10
6
-22
18
4
6
-2
2
-2
4
-8
6
10
31
20
14
-28
6
4
39
12
-4
-10
8
-18
0
6
2
-8
-10
0
-12
4
10
-4
6
-12
4
-6
8
6
31
-8
-12
-2
2
12
-6
-20
0
10
18
14
-18
0
-4
-4
-12
-16
-10
-8
-2
-2
-22
0
-6
-14
4
-2
4
-14
-2
-12
-2
-2
0
-4
4
-4
-14
2
-12
8
2
-2
2
-12
4
4
0
12
-8
8
14
-2
16
-2
-8
-8
-2
16
6
-2
-2
-12
2
-2
4
-8
-2
-2
8
-10
-14
-2
-6
-12
-4
-10
18
-16
-2
0
-6
-14
8
18
-12
14
12
-6
-22
8
25
-14
-2
6
-14
6
-4
-16
-12
-12
-14
0
20
-14
-6
25
8
2
20
-12
-14
-4
6
-2
6
4
-10
-14
-8
-8
-2
-12
-10
8
-8
-8
-14
12
8
4
-16
-8
-36
-4
-4
2
8
18
-4
6
20
-2
-2
6
-6
20
-8
16
-2
31
-6
-6
0
0
16
0
-16
14
-6
0
-2
25
-2
-18
-20
10
-12
-8
0
18
-12
2
-6
4
-6
2
0
-12
-22
6
-2
2
-2
-16
-14
-18
-10
-8
-8
6
-36
20
-18
12
4
14
20
-2
-16
0
-8
-10
-12
-10
-6
2
-6
0
10
20
4
6
4
8
-2
2
-2
-6
-20
8
-20
-4
18
0
2
6
-6
20
12
-10
-2
2
20
-6
-18
0
8
20
-10
2
14
-14
-16
-6
6
14
6
0
2
-12
-16
-16
-4
4
-4
10
-2
10
4
2
14
10
2
6
4
2
-6
10
8
10
6
0
-8
14
12
20
8
-10
10
-8
-18
-8
-12
-18
0
18
18
0
8
-22
-6
-14
16
-6
-2
-2
31
0
2
-2
8
20
-2
-4
0
25
4
12
12
10
-12
-4
-10
-4
2
-28
16
-4
14
0
6
0
6
2
2
-6
-4
10
2
-22
4
-8
-8
-6
-8
10
2
-22
12
0
-12
16
-10
-12
4
-2
6
4
16
8
-12
-28
4
-18
0
-14
25
-6
20
-2
2
-6
-14
6
12
0
-6
10
2
4
20
-4
-4
-12
2
-2
8
4
2
4
-12
-18
-8
-12
-16
-4
0
-20
-4
-4
-18
18
-6
12
-8
8
6
12
6
-10
-10
2
-4
-2
2
-22
-22
-6
8
-2
-2
-6
-12
-12
-10
-4
-2
-6
4
-12
16
16
-8
18
-28
-2
8
12
20
-12
18
-12
4
-2
-8
-16
-2
4
-8
-16
6
-12
20
14
-28
0
12
8
10
0
-28
-4
-18
-2
-4
-8
12
18
10
8
0
-2
-4
-2
-4
-36
10
14
-14
6
12
25
0
0
8
-2
-10
18
10
-8
4
25
10
6
2
2
0
-10
-10
-28
0
-2
6
-6
6
-6
-6
-16
0
-6
8
2
-22
-18
6
-10
2
14
-2
-2
-18
2
20
4
-6
8
6
8
8
4
25
-2
-16
0
2
-10
-8
14
-4
8
2
6
-8
20
-14
-20
6
-18
14
-20
-4
-10
6
-8
0
-12
8
20
-14
18
4
2
-4
6
-4
-12
12
-4
-8
-12
-10
0
25
12
-22
6
-6
-6
-18
25
-2
16
-8
-4
20
31
-16
39
-2
8
-28
-6
-2
-16
-4
-10
0
-12
31
4
-16
-18
-6
-10
0
20
-16
39
-6
0
6
2
14
-8
8
-16
-14
-22
20
-28
12
10
-10
-20
14
-16
20
10
6
4
-20
0
-18
-6
0
6
-14
-2
25
-20
-14
2
-14
-12
0
-2
-8
-2
12
0
-18
14
-16
-6
2
-10
39
10
-8
0
-28
-4
2
4
8
39
0
20
-2
-8
20
2
-8
2
2
14
-4
18
-4
-20
12
0
-6
-20
4
-12
-16
-4
2
-6
-22
18
10
18
14
6
-12
8
20
-20
-4
6
-4
-12
0
8
0
-4
-14
16
-14
-2
-28
4
0
-4
6
-2
6
4
-22
-14
10
-10
-16
39
-16
-10
14
2
-4
-4
12
-4
-16
-6
-2
6
-12
8
0
4
18
-6
-2
-2
20
8
6
14
20
-8
2
-4
2
6
2
-4
0
4
39
-20
12
10
2
12
-8
12
-10
8
-8
2
-2
-8
-12
-6
-6
-2
14
20
4
-10
14
2
16
-6
-8
10
2
20
6
-10
6
6
6
-2
0
-2
-6
31
-8
16
0
2
-22
-2
10
8
0
18
10
-12
6
25
-18
8
25
8
-4
6
8
-6
0
10
16
8
-6
2
-6
2
-8
8
0
-10
-28
-10
12
-14
0
2
-8
14
-16
14
-14
-2
-8
-6
-2
-6
-6
-14
-12
0
-22
-14
2
0
-18
-14
-14
-4
-18
-4
-6
4
-14
18
8
-14
-8
12
-6
-8
-2
4
4
25
-10
6
14
16
-10
-4
2
-10
20
2
-4
0
4
4
8
2
-8
8
-2
0
-10
2
0
-6
-16
16
8
-8
14
-6
-16
12
-6
-8
-20
-8
-6
16
-12
-6
14
6
-2
8
8
-12
4
4
10
-6
-14
25
-14
16
-12
-4
0
20
-8
10
-10
16
0
-6
-2
4
2
10
16
-2
12
8
-6
31
-16
-14
-4
-16
2
-12
-2
-16
-12
2
18
-28
-14
8
-28
18
-12
8
2
16
18
-8
8
8
8
0
-20
-20
20
18
14
14
6
-6
20
6
4
-14
12
-36
-20
-22
-10
-12
-20
18
-10
20
-14
4
-4
4
-6
-10
-14
14
-2
8
-6
-16
-2
25
6
-4
-6
16
14
-8
31
-18
18
-22
8
2
18
2
12
8
12
-8
4
-8
-10
25
10
-4
-2
2
-16
-4
-22
-16
0
-12
6
-2
10
-12
18
-8
20
-8
-18
-4
-10
-2
10
4
-22
-2
-14
20
-14
-4
0
8
-8
2
-20
0
-2
-8
-10
-12
-10
12
-6
-2
-4
2
4
-16
-8
-10
-20
-20
25
10
14
-4
0
-2
-14
4
-4
8
4
10
2
0
-20
-10
18
14
-14
8
18
-8
2
6
4
6
-16
-4
-6
10
10
14
0
16
-2
-2
25
-2
-10
14
-18
16
2
-4
4
-16
-10
-6
0
4
2
0
10
-12
10
-8
-12
-10
-4
-16
-12
-8
-12
10
-8
-18
-18
0
-2
12
6
16
39
8
-8
4
-12
4
-14
-8
-8
14
0
8
-10
-16
-12
-8
4
10
-6
6
8
4
0
12
0
18
8
0
-8
8
-6
-10
-12
8
4
6
-16
6
-2
0
10
-22
31
-6
-18
2
-4
-14
-6
-10
4
2
8
2
4
20
-8
0
4
-18
8
10
12
6
31
0
6
-2
16
6
-4
-8
-22
10
39
0
6
-22
20
2
10
2
2
-16
-8
-8
12
-16
-8
-12
31
-12
-16
4
0
8
8
-18
-14
-28
18
-2
10
-2
16
-2
-4
4
16
-12
14
2
-10
-16
-2
6
-14
-10
0
-6
0
10
6
10
-4
-16
-12
2
-28
8
14
18
-8
4
2
2
-6
2
18
-6
-12
-12
-2
-12
6
31
6
2
2
-16
-2
-10
12
16
-6
20
6
20
10
-10
0
-10
-14
31
6
8
-18
2
-2
8
10
20
-6
-4
0
14
-8
0
4
4
6
2
2
25
-28
20
-6
2
4
-6
-6
-14
-36
4
-2
-20
-12
2
14
4
-10
-6
10
-12
-10
-2
-10
-14
-10
16
2
16
-6
0
-8
39
-12
-2
-6
4
-18
8
-4
6
2
-2
2
4
-6
-4
0
6
-4
-4
-16
-18
25
-4
14
-4
31
14
-10
0
-8
4
-2
-12
20
-4
-4
-4
-20
20
25
-14
-6
-10
12
0
-2
31
4
12
2
-14
-8
12
16
-2
4
8
-16
10
2
10
6
-18
-22
-16
8
0
-36
2
10
12
16
0
-14
-12
0
8
8
-14
-28
8
-8
4
6
-18
-6
10
14
-6
2
10
-14
2
31
-16
0
-6
-28
10
0
-6
-2
2
10
-2
-16
16
-10
8
31
-10
-22
10
-22
-8
31
6
31
8
10
12
-14
2
-8
-14
6
14
-12
-4
-8
14
-4
-6
2
-2
2
-4
0
-16
-2
12
12
-12
-2
-2
4
-4
12
2
-22
8
-2
2
8
-8
-8
-4
0
8
0
-8
-12
-8
-2
-8
6
6
-6
-14
31
-12
-36
-12
-12
-8
-6
8
-18
-2
12
-6
0
31
8
16
6
0
-4
12
-8
-8
4
14
10
-28
-12
-2
-4
25
-2
-12
-10
4
-6
8
-18
0
-14
6
2
-10
2
4
-6
-2
-22
-6
2
18
2
-12
-2
20
2
2
-6
-4
0
8
-12
-2
18
0
2
20
-6
10
10
-10
-8
10
10
14
20
-20
8
-4
14
31
-14
-18
16
20
-8
8
-4
-36
2
-4
-6
-6
-16
-10
-10
-8
-8
10
2
4
-2
-4
0
-8
2
-8
-14
12
-6
-6
0
4
-2
6
2
0
-10
0
20
-18
-6
0
18
2
-12
18
-20
-4
-36
4
20
8
16
-12
-2
-2
10
-8
-6
-8
-10
0
-18
-20
4
6
0
-6
-8
4
-10
8
-2
-22
-4
18
-20
-22
8
20
-12
4
-6
12
-6
2
25
6
14
8
6
4
6
10
25
-4
16
-2
-4
-8
-14
0
10
2
25
-6
0
4
18
18
0
-4
-4
8
-12
-6
-12
-8
-2
-10
2
0
-12
-2
-20
-2
-10
10
-8
4
-6
25
0
4
0
14
2
-10
-4
-2
-4
-4
-36
6
2
14
6
-28
-2
14
6
-2
10
4
20
4
-8
10
25
-2
6
-28
20
-10
0
-8
0
6
16
-10
20
4
10
14
-28
2
-22
-4
-10
-12
-10
-10
-2
-4
-10
-4
-12
-12
-6
-4
6
2
10
-8
12
-10
14
8
-4
-8
10
6
-6
-8
-10
2
-8
0
0
-14
-2
18
4
0
12
-10
-16
0
14
-12
2
-12
-18
-12
-18
-4
-4
-12
6
-20
-2
14
-8
-10
6
-16
8
10
2
10
10
4
10
-10
2
-16
-8
-2
2
-8
8
-28
-2
0
-6
-12
-6
20
-10
0
6
-12
-2
-14
-4
8
2
0
2
-6
0
-8
-2
0
-28
25
2
-6
-20
16
14
-2
2
-8
12
-8
18
10
-22
10
10
0
18
2
-8
0
12
6
4
6
6
4
2
-4
-8
2
-12
-12
-16
20
-18
0
-18
-8
12
2
2
-6
2
4
-8
18
14
-8
-8
18
4
12
-22
14
-10
-8
-4
0
8
-14
6
-4
-6
-8
-10
8
-16
-8
20
6
-10
18
-8
-4
-4
20
2
20
-16
4
25
-2
-8
-2
-12
4
31
-4
-4
-2
10
-6
8
6
2
25
2
-14
0
-4
-28
-2
6
-8
-2
-2
12
4
4
14
-14
-20
6
2
0
10
4
20
-6
-6
18
20
-10
8
0
14
2
4
2
-8
12
8
2
-6
2
8
10
-14
-4
12
-6
-2
0
10
0
-8
2
4
-28
10
12
-10
-10
-22
31
18
0
-2
4
-2
20
-2
2
18
-6
6
25
14
-12
-28
-20
-28
-8
25
-12
-14
-4
-4
4
31
2
16
31
18
25
14
8
-8
-8
-12
4
18
-8
12
-20
-6
16
4
10
31
0
-12
4
-20
-6
2
-16
0
-18
-4
-16
2
-12
-16
-36
0
-10
-6
8
25
25
16
-20
-36
-14
20
-14
-12
0
8
8
-4
-8
-10
8
16
6
-10
-10
25
-6
-2
4
-2
-4
8
-22
8
-2
-4
16
-2
-2
2
-4
-18
-10
-2
-28
0
-4
-12
-2
8
-8
31
25
14
0
8
-4
0
2
-12
4
8
18
-16
14
-6
-2
14
-4
-12
-16
2
-4
-14
6
-4
10
4
2
-10
6
2
16
-2
-4
0
10
10
0
-4
12
2
0
-22
6
-28
-12
-6
25
-20
4
-6
-6
10
-2
2
-2
-4
8
-14
-6
-10
16
31
-10
2
-6
18
8
-12
-10
6
-8
2
-4
-20
4
-6
-14
0
12
-2
18
8
39
20
-4
14
-10
-10
-12
-2
8
-4
-16
0
-22
0
-2
10
14
20
-2
20
2
-16
-16
-12
16
8
10
-18
-22
-28
-18
0
-18
-22
2
-8
2
-4
8
0
12
-22
4
-12
-2
-2
4
-16
-28
8
-12
-4
-10
-6
8
-8
16
-10
6
-28
8
-6
-14
6
-10
-14
10
-8
-16
-6
-4
-6
12
-12
-10
16
-16
-2
-12
-2
2
-8
-10
-10
2
0
14
2
0
4
0
-6
-2
16
-2
-8
6
-4
-10
10
10
0
-8
-2
-8
-8
2
8
-14
12
-2
-6
-12
-4
-2
0
-14
-2
2
25
6
14
2
8
-4
-2
4
-4
-8
0
2
-8
6
18
-12
12
8
-2
4
2
-4
-20
6
6
18
31
20
2
-2
4
2
12
-22
-2
2
-2
4
-10
20
12
14
0
-8
-6
6
-10
-22
4
2
6
6
-2
-8
0
0
8
-10
14
12
12
20
0
6
-8
-8
-20
-4
-16
0
-10
31
-10
12
4
-22
-10
-8
10
-18
20
6
4
-4
0
6
-28
-18
0
-8
-2
10
6
2
-4
-2
-4
2
6
-8
-8
6
6
-6
-6
-14
-6
0
2
6
-2
-4
0
-4
4
-2
0
-6
6
-10
-4
2
-2
-2
8
4
10
-2
0
-8
8
-2
8
2
8
6
-4
2
-14
-10
8
4
4
-2
-2
-4
2
12
4
-12
-6
12
16
-10
-18
8
-6
2
-10
-8
-4
12
-14
4
-6
-16
8
8
4
8
16
16
8
-8
-12
10
6
-22
8
-14
0
8
-6
-14
-16
4
0
10
-4
-4
-22
12
-6
14
12
-20
-10
25
6
-6
-2
4
-4
-20
-14
0
-10
2
2
-2
-8
-4
4
0
8
4
6
14
10
6
-8
-16
-6
18
14
2
-10
8
-8
0
-16
-6
2
4
4
-20
-8
-12
-14
4
-12
-2
25
-6
2
0
-4
8
-8
-4
-18
39
-6
4
-8
2
12
-6
-6
2
-4
-2
8
-8
2
39
18
20
-2
-28
-2
-14
0
-8
4
14
4
-4
-14
12
12
-10
-22
18
-8
-18
12
4
-22
6
0
4
31
-36
-8
20
-12
-10
20
10
8
4
18
6
6
2
4
-10
2
14
4
16
-22
14
-6
10
-14
-12
-12
-2
0
0
2
2
-6
6
18
-20
-8
0
-2
-6
6
-12
0
6
12
4
-10
8
-14
-12
31
-8
8
0
16
-18
-16
-10
8
2
14
-10
-4
4
16
-12
-2
-8
-22
0
6
-2
31
-22
-6
25
8
-4
-8
0
-22
14
-22
18
8
-14
0
6
8
10
6
16
12
0
-10
-16
6
12
-22
2
0
31
8
-6
2
6
-6
-28
4
-22
20
-6
-4
-4
-18
12
6
8
-22
-16
2
-2
8
20
10
8
-8
4
0
4
-28
-20
14
8
-4
16
14
4
-14
6
4
39
-22
8
-4
-2
-2
-4
14
-8
-18
18
4
-6
14
4
25
-6
-2
-8
-12
-8
-8
0
12
6
31
-2
-8
-20
8
-10
-4
-18
16
-12
18
-16
0
4
-12
6
10
0
-10
-8
25
2
31
-2
20
-2
-12
-12
4
-14
18
4
-4
8
-6
-8
4
-16
4
-2
-8
8
0
-8
-10
-14
-4
-12
-4
-12
12
0
6
-8
31
-16
-8
8
4
10
-4
16
-4
-16
-14
0
4
10
4
10
-4
10
6
-18
2
10
-16
0
-6
4
16
-16
-4
-4
0
2
-14
8
-8
-2
2
-10
-6
14
-6
8
20
-8
-8
-6
0
2
-2
10
6
-4
25
6
2
14
-14
4
0
0
-8
-16
-6
6
-4
-6
6
0
12
4
-10
14
-10
-14
18
0
-2
-8
-4
4
-10
-8
-4
-28
-4
-14
-22
2
-6
-22
4
0
25
-4
0
-10
-16
6
-10
6
6
-18
-8
-14
-8
-2
6
-2
10
-2
-4
4
-4
-2
-6
-4
8
2
6
2
-4
4
-4
-4
-10
-8
16
10
-22
4
39
20
-10
0
-14
8
-8
12
4
-8
-16
10
0
25
12
-8
-4
4
6
14
4
20
2
-6
-12
14
-14
0
-6
-16
-12
-18
2
2
-2
12
-2
8
12
4
4
8
-16
-14
-8
6
4
-12
-10
0
-10
18
10
-16
-22
8
-14
4
2
-12
-2
-10
6
-6
2
-10
8
4
16
-4
14
-2
-4
16
12
8
-20
12
-8
2
0
-22
-6
2
-12
-16
2
10
25
-22
14
14
-2
16
12
4
10
-4
-10
25
31
-6
6
-14
-2
18
2
-2
10
14
-22
-4
10
6
31
8
8
-10
-36
14
12
-18
2
0
0
0
-18
14
-6
4
-4
-12
20
-16
-2
-8
-20
-10
-4
2
2
-4
-14
8
10
-12
2
-22
-8
-2
2
4
-8
-4
-8
-8
4
-8
2
0
6
-2
-14
25
10
-8
6
12
12
4
2
0
-10
-2
-6
4
-8
-2
-14
8
0
4
-8
-4
-18
12
-8
0
16
8
6
-14
-12
14
-4
8
4
18
-10
6
-12
12
-8
10
10
-12
2
-14
8
18
-8
-8
-18
-12
-4
6
10
-18
-10
2
2
-8
25
-4
18
8
18
-4
4
-4
2
-8
2
-16
10
0
-4
-6
12
2
10
-8
25
-6
-12
-2
-14
-2
2
-2
-6
2
6
-14
0
-6
6
-4
0
10
10
0
6
-6
-10
6
20
-8
-10
-10
-2
4
6
-22
-16
2
0
-22
25
6
8
10
6
2
-8
2
20
2
-4
-20
-16
-16
-8
12
-4
4
4
6
0
-2
-6
-12
4
-4
31
-6
-4
-16
8
2
6
8
4
-4
8
16
4
-8
20
-8
-10
12
-12
-8
-4
-22
-6
-12
-8
-4
-12
-2
-8
0
8
-18
4
14
10
-4
-10
-4
8
4
2
4
-6
-2
-22
-2
-28
2
2
12
0
-36
14
-28
-12
-16
14
-10
-12
12
-12
-14
8
-12
31
-22
6
-2
-16
-6
-10
-6
2
12
-10
-4
-10
16
0
-4
-8
-4
-4
0
20
-2
-16
-16
14
4
6
25
14
14
10
-10
8
18
-4
-6
-12
-14
-4
6
10
-4
14
-8
-22
-22
-6
49
-8
4
-6
-16
18
-8
16
-6
25
10
-4
-10
-10
-8
8
-12
-10
-16
2
-6
4
20
-4
20
12
-2
25
4
-22
-4
6
-2
-8
-6
10
8
-14
-6
8
4
-12
-2
-2
4
-14
-16
-10
6
4
8
31
0
2
-10
-12
6
-4
-8
-6
-2
-22
6
-2
4
-12
4
2
-6
2
-20
16
-2
4
0
0
4
-6
2
-12
-6
-4
-6
-18
-10
-28
-6
6
-14
-12
8
-4
-14
-10
14
0
2
-16
-10
-14
0
-2
-2
10
0
4
-2
0
-12
-2
2
-4
6
4
-6
8
-2
20
2
2
0
-10
6
-8
-8
8
8
2
8
8
6
0
6
-2
-6
-2
6
4
8
20
-8
18
-2
-10
-8
20
4
14
14
16
-4
-8
0
4
10
2
6
2
-10
2
-4
-8
-2
12
-14
-2
-12
-10
-4
-10
-8
-6
-4
0
-2
-6
-8
8
4
-8
-6
2
2
-4
2
6
-14
-2
4
-10
0
8
-10
-16
0
-2
4
4
8
-22
-4
12
10
8
25
10
12
0
2
18
-4
4
8
10
14
2
2
-14
-2
2
-2
-2
10
2
2
-10
10
10
-4
8
6
2
-6
0
-22
16
6
-6
4
-14
4
-6
4
8
-6
25
8
-10
16
-4
-10
4
-2
-4
-10
0
-28
8
8
-4
-8
-2
8
18
-12
6
10
-6
20
-12
-2
20
8
4
10
-12
4
6
-2
-12
6
2
12
10
-10
-8
-4
12
-8
2
-10
-16
14
4
-2
6
-6
-10
20
-12
-4
-14
-4
-4
-4
16
-10
31
-4
4
-20
18
6
6
8
0
-4
-22
2
2
-16
16
8
8
-4
31
10
-8
8
0
-8
-12
31
31
-6
14
-2
-6
31
2
10
-8
20
-4
-2
-8
4
0
10
16
-10
-2
14
-2
8
-8
-6
4
-4
8
12
4
25
25
-12
-8
-2
14
10
4
10
-22
6
16
8
-4
-4
8
0
0
18
-2
-14
-4
12
6
-12
6
12
0
-2
-2
2
4
18
2
-6
-12
-12
-8
-2
0
16
-12
8
4
-16
4
0
8
-4
6
-2
18
4
-12
-10
6
6
20
-4
-10
2
2
10
12
-2
-18
8
8
-12
2
-10
10
-8
25
-6
-36
-12
0
-8
14
-4
6
6
-12
-14
8
-6
-14
4
14
-4
39
8
6
0
-4
0
-28
20
4
-16
12
8
18
-6
10
-16
-4
-16
12
8
-8
6
2
0
0
2
-4
0
-12
12
-14
2
2
-10
31
2
6
14
20
4
-8
-6
8
-6
-4
-10
2
-10
-2
20
4
4
-10
0
-10
10
-22
-2
-4
-6
-10
-4
4
-4
-10
-2
14
-2
-2
-6
4
-22
-6
0
4
0
-2
-28
0
-28
-8
-12
-2
-8
-6
39
-4
0
-14
-12
-4
-4
8
8
-10
10
4
-6
-2
-14
2
-8
20
2
-10
-20
6
-8
-6
-6
0
4
10
31
16
10
-6
-4
-2
8
-14
31
0
6
-4
6
-6
-12
-10
2
-2
-4
10
4
16
-4
6
18
0
18
-6
-10
0
10
-8
-16
10
-2
-6
18
-10
4
-2
12
0
-12
8
-8
-12
-18
-6
18
8
-8
-18
-18
18
0
6
-2
10
-2
-2
-6
8
-14
6
-4
-8
0
-16
31
-4
6
18
18
-2
-4
-14
-4
-6
4
-2
-2
-2
0
-10
-2
2
2
6
6
-16
12
-4
12
-6
6
-8
2
-10
-2
6
-12
2
-6
-2
16
0
-2
0
14
-10
6
-14
10
-6
6
4
-16
4
-6
0
-8
0
8
6
-4
-14
-22
14
-6
-12
-14
-16
-28
-12
16
2
-18
8
-28
-12
-4
-2
-18
-22
-8
-14
4
-12
-6
-12
4
-8
-2
-4
4
6
12
-8
2
-12
-6
0
-4
18
0
-4
-6
-10
10
25
-12
-18
-4
31
0
-20
-6
-14
-20
8
8
-12
-12
6
-2
-14
-36
-8
-8
-10
-22
-28
2
-2
12
16
-20
-2
16
16
4
-6
14
-6
-4
8
-14
-6
6
-4
-6
14
2
-10
2
8
4
-2
0
4
-12
-4
10
-6
0
2
-20
-14
18
14
-2
-4
-6
-28
6
8
0
-6
2
6
-22
-8
-8
-2
-4
-22
0
-2
8
-2
0
-8
0
12
-4
25
39
-4
-16
-12
0
0
-6
12
0
0
-28
-10
-4
-6
6
-10
-18
-6
-4
12
18
16
-12
-8
-8
12
8
2
-12
2
-14
-8
-10
-2
-22
10
2
-8
-6
-4
-2
-8
0
-28
-6
-14
8
-6
8
2
-8
-4
-22
12
4
0
8
-2
2
-2
-12
-20
12
8
-4
2
16
4
6
14
2
6
-14
-8
-10
2
-2
-16
2
18
-2
-22
20
4
4
-4
8
20
10
2
0
-4
31
2
-4
2
2
0
-4
2
6
-2
-10
-16
2
20
8
0
6
0
-16
-2
2
14
-14
4
4
25
12
8
0
6
4
2
10
-2
-6
-2
-12
-4
10
-2
-12
8
16
10
-22
6
2
-14
2
-4
10
-4
-22
2
-4
-8
4
10
2
-10
-10
10
18
2
25
4
8
0
-6
-22
16
0
0
12
2
18
18
20
0
-8
12
16
-10
-6
-4
10
-12
14
-6
6
-2
-16
-12
0
14
-10
6
2
-2
2
-8
14
-10
-28
-16
-16
-8
8
-10
-2
31
-10
16
16
6
-20
12
14
-4
-20
8
16
16
-14
0
-20
0
-16
-10
-6
2
-2
8
-2
-8
49
31
18
14
2
-8
-4
6
10
-12
14
14
10
-16
-10
-4
-4
-12
4
-12
-14
-12
8
4
2
8
12
16
-4
4
4
-10
-16
-2
-18
-12
0
-16
-16
-18
2
-2
0
-16
-2
-4
-4
-10
2
-12
-4
-2
2
-16
18
-12
-4
-14
-20
8
6
20
0
0
-6
12
4
0
-4
2
6
-28
4
4
0
16
12
-2
-8
20
0
-10
-10
-12
-10
-10
-4
-14
6
18
14
14
8
2
2
-20
2
14
-16
-2
14
-4
6
6
4
8
0
-12
-28
-18
4
25
4
12
8
-2
-4
14
-4
12
-14
-14
-22
12
-4
-20
12
-8
0
6
-20
6
2
6
-2
8
6
-8
-10
20
-2
4
-4
4
-8
0
-6
-6
25
4
14
4
-10
0
0
-12
-2
39
-14
8
-4
6
2
12
8
14
8
-6
-14
-12
2
6
-14
4
10
12
2
2
-10
14
6
-20
14
-4
-12
-4
10
0
-10
4
6
10
-4
0
4
0
12
-28
-10
-10
2
-2
31
-8
14
4
-8
-18
16
-8
39
-10
0
-14
-8
0
2
-14
16
-4
0
2
-12
-12
-4
-2
0
6
12
-4
-20
-4
2
4
2
4
-8
0
-12
-20
-16
2
-28
-16
-12
6
0
2
2
14
2
-6
-2
-22
12
12
6
0
0
2
18
10
20
14
-2
12
2
6
0
-2
-4
-22
-10
-6
-4
-12
10
6
10
49
2
-6
-2
-28
8
0
0
14
-4
-12
6
-4
10
-14
-6
-16
-8
-2
-2
-12
20
-4
-22
10
8
0
-16
2
-12
-6
-8
4
0
-6
2
-16
6
-8
-2
2
16
8
-16
-2
-2
-12
-10
0
8
6
10
-4
12
10
2
-14
-6
4
-4
-8
2
-8
-6
6
-12
-6
4
4
31
-12
0
-14
-8
20
-16
14
-2
-22
-8
6
20
6
18
-18
8
12
-8
-14
-14
14
-4
0
4
10
-14
-4
2
-2
-2
4
-12
0
0
6
-36
4
-8
-6
12
-6
8
0
16
6
-2
-28
4
-18
2
12
20
25
-12
-4
12
4
2
0
-10
12
-2
-4
8
-2
2
16
-16
18
-20
2
-2
0
4
4
-4
-12
-10
-10
-16
14
-2
-6
6
8
-8
6
12
-8
0
6
-22
0
-8
12
-12
-10
14
6
10
-4
10
6
2
0
8
-20
-12
-18
-8
-4
2
12
-6
4
16
-20
-8
-4
10
4
-6
-4
-16
4
-12
-18
-8
-6
-2
10
-28
0
-14
6
16
0
6
4
-20
4
2
-18
-20
-8
14
2
8
8
2
4
20
6
4
4
8
-6
-12
-20
-2
-16
-18
2
0
-10
0
-8
10
2
-16
-2
-6
-6
0
-2
-10
16
6
0
10
20
0
-4
4
-4
-4
-10
-4
-2
-4
-14
-20
0
-2
-6
-4
12
-8
8
-22
0
0
6
31
6
16
-14
-2
-8
20
4
14
-8
8
4
2
-8
-4
2
-2
8
-20
10
-4
20
-6
8
6
-4
-20
8
0
-6
-4
8
0
4
-8
-18
-2
10
6
-16
8
4
18
4
8
6
12
4
4
-14
39
-2
2
20
-4
25
-16
-12
-12
-8
-20
-6
-14
-28
6
6
-6
-8
-4
-8
16
-14
8
-6
0
14
-8
-22
18
18
-10
18
-22
0
20
-6
4
-22
0
8
6
-4
-6
20
-2
-6
0
2
8
0
-8
8
-2
-22
-18
14
14
12
6
0
-6
-6
-10
-10
4
8
4
-4
0
10
-2
20
-12
10
-8
-16
-8
-4
18
6
0
2
-12
14
2
-16
8
2
25
4
8
-4
-8
-6
0
-4
10
6
25
0
-4
4
16
-8
-4
8
-18
-10
-22
0
-28
10
8
-2
4
6
2
-10
-6
12
4
0
-10
-4
4
-4
6
-2
6
-4
-10
2
-6
-12
-8
-10
-18
-16
-2
0
0
-2
2
10
8
0
-6
20
16
4
8
8
-8
0
-6
-16
10
-12
-4
2
2
4
-8
8
-6
8
0
-22
-2
-2
4
12
-6
4
2
6
-2
-4
0
-12
-2
20
12
-6
8
4
-4
-6
6
4
16
10
2
2
-22
-16
-8
2
-22
4
-2
12
18
12
-6
-28
4
-2
-2
-8
-10
-18
-6
6
2
10
10
-8
-8
-6
14
-4
-22
20
-18
2
8
-18
2
-8
2
-6
6
0
10
10
31
-18
-6
-4
-14
6
-6
-8
0
6
6
8
-6
-8
-8
0
-4
-10
8
16
-16
4
-10
4
8
2
-4
4
-36
31
-12
-2
0
6
-8
-4
-14
-6
6
-22
8
0
0
6
-22
-22
-2
2
-8
6
18
0
2
2
-10
12
16
14
-10
-12
6
-8
2
-4
-2
10
-6
0
14
-18
4
14
4
-4
8
-28
25
-10
2
16
16
14
8
2
-14
-12
-6
-12
12
-14
-8
16
4
-2
-14
-8
2
-10
6
-10
14
12
4
-12
-2
8
0
10
12
10
0
4
-4
-2
10
6
12
-16
-6
-14
2
2
8
12
-12
4
10
6
25
6
6
-12
-12
6
-2
-28
-4
-12
-22
-12
-22
-2
8
0
0
-4
2
20
-4
-8
2
31
10
2
14
-4
20
-12
31
-4
20
18
-6
-14
10
-8
25
-22
-8
6
-10
2
12
-6
-6
0
-2
-10
6
-8
8
0
-14
2
-14
-8
-2
6
20
12
-4
-2
-2
4
6
-12
-20
-8
8
14
6
-2
-12
-16
16
18
2
-4
-6
-10
-2
4
10
31
-4
-4
-2
10
-22
-20
10
-8
-10
0
-16
2
16
-16
2
-18
-28
18
18
-8
12
4
-2
12
-12
-8
12
12
-2
4
-4
-2
-4
-18
2
-12
20
4
-2
-16
-8
6
4
-6
-6
-18
-2
6
4
0
-4
2
18
12
-4
-8
-16
-16
-2
-28
4
6
39
0
-2
31
2
-12
-4
-2
-6
12
0
-6
-6
-2
8
-2
-4
12
20
10
0
0
-8
-14
4
-4
-6
-14
-10
-6
-12
-6
4
6
0
6
8
6
16
-4
0
-6
8
6
10
14
10
0
2
4
-4
-12
4
12
16
-16
-4
-10
-4
-6
6
-12
0
-8
12
-8
-4
8
-2
6
-4
10
10
0
-8
-12
0
-18
-10
-8
10
-6
10
-14
-20
2
2
4
2
-12
-6
20
-2
10
-6
16
6
10
-8
0
-10
-20
16
12
-2
6
14
0
6
-14
10
4
20
2
-8
4
10
2
14
-2
-8
-8
-12
-20
6
-6
20
-2
14
-12
-6
18
-16
-4
0
0
10
2
4
4
-12
20
-18
-10
20
-10
-14
-4
-6
-8
2
12
6
6
-8
8
-2
10
4
-14
-10
-2
0
-2
6
2
8
10
4
-6
-4
14
-2
-8
-8
-4
10
8
-2
-10
10
-4
2
16
-4
-6
-6
-2
-6
0
10
-2
-6
0
6
-8
-14
-16
16
8
-4
-6
6
-12
12
-8
-20
8
10
0
-36
25
-14
-18
2
-18
2
-22
10
-4
25
-6
12
0
2
25
2
-8
0
-2
4
-8
-2
-6
2
-4
-12
6
16
6
10
-6
0
4
-12
-6
4
0
8
-14
31
4
-12
10
-2
10
-18
-6
6
-8
6
-4
2
18
0
-2
2
-6
16
2
-2
-2
-18
-8
-6
-22
0
-2
-6
4
-10
-12
0
6
-12
2
-8
31
-4
-4
8
-2
8
-4
-28
10
-6
8
4
0
2
-6
0
4
-2
4
16
18
-12
4
-2
-12
-16
0
2
4
6
-12
12
8
-22
0
4
-10
-12
6
-2
6
-12
14
-10
-14
2
14
14
-2
-16
-16
-12
-16
4
-6
-4
-2
12
25
-10
2
0
4
4
14
-22
-2
0
-6
-18
-2
-4
-10
-10
-2
-18
-6
8
0
2
-4
-10
20
-12
4
6
-6
6
10
2
0
-2
-4
2
-8
-14
18
4
-4
-20
-4
10
2
-12
-4
14
4
-6
-4
-2
2
10
8
-2
0
-16
-8
-12
-4
6
-22
18
14
-10
6
12
-8
0
-2
-12
8
-14
-6
0
4
18
14
-8
-16
-4
-6
2
-2
-16
-4
8
16
-8
18
-8
-18
4
2
-10
-18
8
-4
12
0
-14
-12
2
-8
2
2
2
2
-4
4
-2
-16
31
8
-10
-20
31
0
-6
-6
-12
12
-2
6
-18
-12
2
8
-4
8
-2
2
6
0
4
-36
18
-22
14
8
4
-6
-10
8
-2
-10
12
4
-16
-8
4
6
-8
-6
0
2
10
0
20
2
-14
4
-10
-20
4
2
18
8
-2
-2
-2
-6
-18
10
-14
6
-2
-8
-10
-2
20
0
-6
-4
8
-10
6
2
25
39
4
-4
-8
2
-2
6
-2
-10
-2
31
-4
0
-4
4
-14
-4
14
6
16
4
-10
2
-14
-4
-4
-12
-2
4
20
-12
-4
6
-22
4
-22
-4
8
-12
4
6
-14
8
-20
2
0
2
-8
-4
-20
-8
-6
4
-2
10
-8
12
2
-8
0
16
0
-14
-14
-8
12
-6
8
0
-10
-6
-8
20
6
2
-10
-2
2
-4
-2
-28
4
0
-6
-16
0
6
14
-4
-18
-8
-2
20
6
8
31
-8
-28
0
-12
-18
0
12
16
14
-18
-4
6
-4
-12
4
-8
-4
18
-8
-12
-6
2
8
8
0
6
-8
0
0
-2
16
6
-18
12
-16
0
-6
-8
4
-10
2
-2
-18
-6
14
8
25
31
4
-6
-8
4
2
31
4
12
-18
2
31
0
6
-16
-4
-12
-2
-10
-6
-16
-18
10
4
4
6
-18
-6
6
4
-6
0
2
0
-6
-4
-8
8
2
-4
-4
-14
6
-22
0
6
2
-8
10
2
14
-10
0
-2
16
-6
-8
0
20
25
14
25
4
6
6
-8
4
16
-6
0
14
2
39
-2
10
6
0
4
10
-6
2
25
0
-2
-4
-12
12
0
-12
0
-8
12
6
-6
2
-2
-2
-6
12
-2
4
-16
-10
-4
14
-12
-12
-10
-10
-18
-12
-4
-6
-4
0
-6
12
6
6
2
12
10
-10
-18
-20
0
-8
-8
12
4
-10
-6
16
-4
0
2
2
-8
-28
12
8
-12
4
-4
-14
0
4
-10
2
8
4
25
-10
-2
0
-4
0
-20
-12
-2
-18
10
-8
25
6
-2
-2
-4
8
-18
-2
8
0
-18
-18
-2
-8
-14
49
-10
4
-18
-2
-12
0
16
-4
-18
-4
10
6
0
2
-2
10
6
20
25
20
16
-6
-12
12
-4
2
14
-4
6
4
-22
12
12
8
-4
12
-12
6
-8
-8
-6
-10
0
10
8
31
8
2
-4
-8
-18
-4
-16
0
8
-2
-4
2
20
12
6
6
6
-16
12
-22
4
14
10
-16
18
-14
-2
-6
-18
12
4
12
12
12
14
-16
14
-6
0
0
-14
-8
31
2
10
-12
-8
4
-2
0
12
0
-10
2
10
6
14
8
-2
0
0
4
2
-2
0
-2
8
-2
2
4
-14
2
-2
-2
0
14
31
-6
-10
-2
31
6
-16
4
2
0
8
0
-2
18
31
8
-4
10
-10
-4
12
4
2
0
-6
10
4
-4
-14
31
-22
8
-22
0
12
-6
12
2
-16
-2
-16
8
-8
-4
16
2
2
-14
12
-8
14
14
-4
12
4
-4
8
0
-8
-14
8
-8
6
2
16
-22
-4
14
-12
0
8
8
-2
14
4
6
12
2
10
2
-10
-10
4
2
-6
0
8
-22
10
0
-4
6
-4
-8
16
-6
6
-4
18
-8
0
-4
2
-6
-6
4
-16
0
-12
-12
-10
-12
0
12
16
-12
-8
-4
10
-18
-6
-8
-20
4
-4
-8
10
6
8
2
-6
-2
-20
-16
12
4
6
-2
-12
8
8
14
-8
-16
2
-2
-4
-6
14
4
0
-6
-6
8
-4
10
16
2
-2
-4
14
8
4
2
18
10
-18
-14
-4
6
-16
6
6
-8
8
6
31
-4
2
6
8
-2
-10
12
-10
-4
-8
6
-4
6
6
-4
31
-28
-4
18
0
4
14
6
6
20
6
12
-6
-4
-14
2
-6
-10
-2
-2
16
-14
2
-10
-6
8
-12
6
-16
2
14
-8
4
-8
-6
-14
4
12
4
20
6
18
6
-16
12
-10
4
-8
-8
-4
-20
-18
12
-12
-16
-8
-20
6
-4
-18
10
-2
4
-14
-8
-20
12
-4
-2
31
-14
-6
16
-4
-14
-16
-16
-22
8
-10
2
-12
4
12
-6
4
18
6
12
31
-2
6
0
4
0
-10
-8
-8
0
12
12
4
-2
2
0
8
6
0
-4
-10
10
-8
8
-6
4
14
-8
-18
6
-2
-10
10
2
-8
16
-10
12
-4
-20
-12
2
0
2
-4
14
-12
31
0
18
6
-6
2
-6
-4
12
-12
-2
-20
-10
8
-2
8
8
-12
4
0
-8
4
12
-10
12
20
10
-14
2
-16
-10
8
-6
-8
8
2
-20
14
-10
25
14
12
-16
4
8
-12
-4
31
0
4
0
0
0
-8
0
-8
-20
12
0
6
10
4
-10
2
2
-14
-8
-6
14
-8
2
-6
-2
-6
4
16
-2
-10
-8
12
-4
25
-6
2
-4
4
-2
-6
-6
10
-14
-6
-6
0
4
-4
2
-4
2
2
12
-4
2
8
-12
-4
-8
2
-8
0
6
-6
-2
-2
-12
6
-6
-8
6
-20
0
-4
-10
8
12
8
4
10
8
12
2
20
-12
49
8
-2
14
-4
-4
-8
0
25
20
-2
4
6
-4
10
4
14
-18
-2
-8
-8
-16
4
-6
12
18
0
20
-2
-6
-16
-12
-10
-2
-6
6
2
-4
-8
-6
4
6
8
8
0
-6
-20
-4
-4
-10
-22
0
0
-2
16
18
20
-12
-12
-10
-2
12
-4
-6
16
6
18
-8
0
-2
2
-2
2
-6
8
-4
-4
-16
-22
4
-4
10
-2
4
8
10
-6
-6
-14
-4
-10
4
31
4
-8
2
10
0
-6
8
2
-16
8
6
-8
-22
-4
2
4
8
10
2
14
-8
-6
-14
25
-8
2
-6
-6
-10
-8
-4
10
8
4
4
-8
10
14
0
-14
4
2
-8
6
-8
-10
-12
-8
8
8
2
-2
25
-6
-14
8
-10
2
-18
14
-8
-22
10
-6
-4
2
-16
6
2
0
6
-6
4
-16
-4
6
8
25
10
-4
4
-2
-8
-8
10
18
20
6
-14
-4
18
20
-10
8
12
-16
2
16
14
14
-2
18
4
2
-8
14
-10
-2
0
6
2
-16
-16
25
-12
-8
0
-10
-22
2
-18
-10
-8
-6
2
12
-4
-18
-4
16
0
-4
-6
6
-6
10
-12
-28
39
-2
-10
0
12
-6
2
-8
4
-4
-2
-2
-10
10
10
10
-10
4
-8
-2
-10
8
-10
-8
-2
-10
14
8
-6
6
-14
6
10
-6
2
25
2
0
-4
20
6
-12
-2
-10
18
-8
-18
4
10
-6
8
-4
-12
0
-16
4
-12
-20
0
-4
-12
8
8
-4
-22
-12
4
-2
6
4
-8
20
0
20
0
-10
0
-8
-6
8
-2
0
-4
-4
-12
20
-2
8
4
25
14
-2
14
-8
6
14
-4
0
-8
16
-10
-28
-2
20
4
6
-6
-2
-18
10
10
2
0
31
-8
-14
2
-10
6
2
4
-4
-18
2
-22
14
-4
6
-2
16
-12
-4
-22
0
8
-10
2
-8
-12
-4
-10
0
-4
-10
-10
-2
-4
6
-8
2
-6
12
-10
0
-4
-10
-6
-4
16
18
-10
6
-16
6
-4
25
-2
-4
-4
-6
14
-2
-4
-2
-18
2
18
-20
0
-2
0
0
0
-2
12
2
0
6
-2
-6
-4
-36
10
-10
-6
-14
6
-4
-2
0
0
0
-6
6
-18
-10
-6
-8
0
4
16
0
10
10
20
8
-20
-2
-14
-20
-8
-10
-16
-8
25
-10
4
-8
2
20
-4
-18
-2
-2
10
-2
-8
4
-4
10
-8
8
-2
4
2
2
-8
-10
6
-28
-12
-6
-8
6
2
-6
-14
10
-8
12
-16
20
8
10
-12
-2
-8
12
-12
-16
-12
14
0
-12
-2
-4
-12
-12
-12
8
-4
4
-12
0
-6
-22
14
8
4
8
8
-8
-2
18
-6
-6
-2
20
-6
-4
2
12
-20
-6
14
-12
8
0
4
-10
-10
4
14
20
-2
10
4
-2
14
-2
-8
-10
4
-18
14
6
0
-6
14
-6
-10
-14
-10
25
-6
4
-12
-8
4
12
-2
2
-6
14
-12
6
-6
-10
0
-20
8
-12
12
6
-2
-8
8
-8
25
-22
-4
-8
-4
12
2
16
18
20
4
18
-2
-8
-16
0
-8
-2
-36
-6
14
20
-2
20
8
-14
2
-14
2
-2
8
-4
-20
-12
12
-4
2
4
6
6
8
-2
10
-2
-10
-2
-8
12
-8
-8
-4
0
12
12
0
4
-2
0
25
14
-12
-4
-6
12
4
-16
-22
10
-18
-10
-6
-4
20
-10
-8
6
-4
2
-10
0
12
-4
10
-6
10
-6
0
20
14
-20
0
0
-10
0
2
-2
8
-8
-2
-2
-2
-6
-10
-14
-2
4
4
-2
-6
4
-2
-8
-2
0
-6
-14
6
4
10
6
-22
-12
-6
-4
-4
4
2
12
-16
-16
-4
4
-28
2
4
-8
-2
18
-10
0
-12
6
-4
-4
-20
-2
8
-8
0
10
-10
-10
20
-10
-6
16
12
-4
-12
-28
-10
-18
8
-4
-2
10
-12
6
4
2
10
-20
16
-10
31
-8
4
16
-10
-6
0
-8
-4
-2
6
10
6
-8
-18
2
-10
31
14
-4
6
-10
14
2
-6
-8
-16
6
2
-6
-28
2
25
0
-6
6
0
31
-28
18
-14
-10
6
-6
4
0
-8
4
-18
10
4
-4
-6
6
-16
0
12
2
6
-2
0
2
16
6
-4
-12
-2
-20
4
10
8
-14
10
4
2
8
2
-2
20
14
6
-12
-6
6
-8
0
8
0
-4
10
10
8
31
10
12
12
0
16
-10
-6
25
-10
-12
6
6
-6
10
-8
-2
6
16
-4
20
-6
-16
0
-6
4
14
6
8
8
16
2
10
-16
-8
-2
-12
0
6
-4
0
-12
-8
4
-2
-6
10
-14
6
-16
-10
8
2
-4
-10
-20
0
8
-8
14
-4
-6
16
16
12
-2
-2
8
4
-12
-8
-2
8
25
-2
-22
0
4
-8
-8
-16
8
-2
4
10
4
10
-18
-2
8
0
6
-4
8
-10
8
-22
-22
16
4
20
18
-8
4
-4
-6
-8
8
-14
-4
-6
-4
4
-2
-10
-2
4
8
10
-18
-2
-28
12
20
-22
0
4
18
12
31
2
10
-10
-10
-2
-8
-14
-2
2
10
8
6
-8
-4
-4
6
4
-16
4
10
-2
-28
-4
6
12
-4
-12
12
-12
-2
0
-8
-10
-12
-12
4
-2
2
-28
-8
-12
-10
-4
12
0
-6
8
10
-10
-6
-8
-4
-10
4
6
0
18
-4
0
-6
20
-8
-4
-22
-6
-18
8
2
-8
-6
6
6
0
0
4
20
-8
-10
-18
-10
20
-22
16
-10
-6
4
-4
0
-20
-28
-2
-12
-2
-14
2
-14
-2
-16
-12
-2
0
-6
-14
0
31
-6
0
39
-4
-10
4
-4
16
-2
2
8
-22
0
12
-8
-20
2
49
2
10
4
-14
-10
-18
20
-12
-10
-12
-6
14
-6
10
-8
-12
-16
0
10
18
-4
-10
2
25
-6
-12
-2
4
8
-20
8
-4
2
-2
-20
-10
-10
0
8
0
-22
2
4
10
-6
8
-10
-14
-8
-4
12
-4
-2
18
-6
6
-2
-2
2
-8
-8
8
0
12
6
-22
4
-16
-10
-4
-2
12
4
-4
4
8
-28
12
-18
-2
-12
-18
2
-10
-14
16
0
-20
-2
-10
-12
-8
2
-4
2
-2
-12
6
-14
0
-2
4
-28
4
-6
10
6
10
-10
-6
-10
-2
-4
-4
12
-12
-10
-6
-6
14
10
8
-16
10
20
6
-6
-6
-8
-16
-28
4
-12
-4
6
14
-4
0
-6
6
0
-16
-12
-6
18
4
6
-10
12
20
2
14
-16
-8
-28
14
10
-36
16
0
8
-10
-2
-2
2
-2
-6
8
4
-18
4
-10
10
0
-10
-8
20
-22
-14
10
31
-4
-8
-4
18
-10
0
14
-4
-20
-10
-18
-10
-2
-8
-20
4
-2
-10
31
8
8
4
-18
31
-6
8
0
-6
-22
-12
-2
-12
0
6
2
-12
-2
-4
-2
-2
-12
-28
-16
-2
2
-2
-4
0
-8
0
-2
-4
-6
14
-4
18
-8
12
4
2
-14
8
4
10
25
-6
-12
6
-8
-22
20
-14
-2
2
12
-2
6
2
0
-22
2
18
-8
2
6
-6
-6
-28
4
2
-12
2
12
-18
0
6
4
-12
-6
-6
6
12
-10
-8
0
14
-20
-12
18
4
2
18
18
20
-8
10
-6
4
31
-12
-10
14
-8
-22
-28
-8
10
-10
25
-14
4
8
6
-6
-20
-2
-22
0
16
14
-4
12
2
-6
4
4
-8
0
0
8
12
-4
2
-14
12
-28
8
12
-8
8
0
10
-10
-8
-8
-20
14
20
10
18
-2
10
4
12
-16
2
4
-12
4
-12
8
2
20
-4
2
-4
-10
-36
12
-6
-10
-28
14
8
6
-14
20
2
12
12
-18
31
-22
-14
-20
14
10
25
-14
-20
-16
-14
12
16
14
-8
2
16
-12
2
-12
-4
-6
-12
-8
-4
-4
6
-10
-22
16
2
4
-2
31
-6
0
-28
-4
-2
8
0
-28
4
-4
-16
14
0
-16
-2
-10
-4
2
31
20
-4
-16
-10
-2
-10
4
31
4
0
6
2
4
-6
6
-12
-2
-10
-18
-28
12
2
12
4
20
0
2
-2
20
-8
-4
-2
-6
-4
2
12
2
6
14
-6
-10
-2
-12
-12
-6
-16
12
-2
-6
-12
-10
16
0
12
-12
2
0
-2
-10
6
16
-12
2
-8
6
-12
8
0
6
0
-16
8
-2
0
18
14
2
2
-2
0
4
-2
10
6
4
-8
-18
-2
-2
2
6
4
-4
10
-36
25
12
6
20
4
-16
-4
-4
8
6
10
-12
-28
-8
31
25
-12
8
-8
-4
2
4
6
4
-2
-2
-4
20
2
4
18
-2
-10
-16
12
-4
-6
2
-6
31
10
-4
-14
18
-10
-4
14
14
0
-4
-4
-4
2
-10
16
10
4
-20
-8
10
0
8
10
10
-4
-6
8
-20
2
12
-20
16
-2
-16
10
-4
8
-2
-4
20
-8
-10
-2
14
6
-4
6
-10
-14
-14
25
4
-2
-4
20
16
-6
-2
-4
-12
8
-16
-6
-18
-4
14
8
-6
2
0
-6
-18
25
-4
6
-10
14
25
4
10
-14
8
20
-18
18
-10
-6
-16
14
-20
12
14
0
-4
-4
-2
4
2
0
20
-14
-4
-6
-12
-6
-14
-20
2
0
-2
6
-4
10
25
4
0
-8
-10
4
10
6
-8
10
14
-4
-8
18
20
2
8
8
0
-10
0
-6
-4
6
-16
-4
-10
16
6
4
-2
0
20
-10
12
8
-12
-4
14
-20
-12
-6
10
-4
12
10
0
-8
12
-8
-4
-2
2
-28
8
6
-4
6
8
-4
18
-8
0
0
-2
8
10
31
-12
2
8
18
6
12
12
0
-6
-20
-6
-2
6
2
-12
-14
31
-2
-2
-12
25
16
4
-14
-10
12
20
-14
-28
10
2
-4
-8
8
2
-10
-10
2
-4
2
-6
-8
-16
10
-6
20
2
-2
20
2
20
-10
-4
2
14
14
-6
2
-12
6
2
16
-12
-12
-6
-8
0
-22
10
-6
8
20
-8
8
-6
2
-8
-6
-4
14
-18
-8
0
-4
10
-8
6
10
-6
4
-10
-8
16
-20
16
-10
4
-12
8
-16
-2
-8
-2
-10
8
10
12
20
-10
-6
8
-12
4
16
4
10
-2
2
8
-18
-4
-14
-16
-18
-4
-10
12
-16
-6
4
0
14
-4
2
14
4
-16
2
-16
-10
39
6
0
-10
-6
-6
-6
-4
-28
-6
14
8
-12
-6
-12
-14
20
-8
-10
-16
0
8
-2
-2
20
-28
0
2
0
12
-14
-28
20
20
2
2
-6
25
-10
0
-2
-36
10
12
4
4
-14
25
0
2
-16
-2
-6
-6
-4
-6
-22
0
0
2
10
-22
-16
2
20
-4
-18
0
12
8
2
-6
-2
-6
4
-2
0
6
25
-2
0
-14
-4
-4
8
4
-4
-2
10
-6
8
6
10
16
-14
25
8
12
8
20
-4
10
14
6
0
2
2
-6
-8
6
0
-2
10
-2
-2
2
14
-28
49
8
2
4
8
-8
-8
-12
4
-12
-28
-4
-18
0
20
12
-10
20
-4
0
-14
-6
-16
-2
-8
-16
16
31
-6
-2
-2
-22
25
-16
20
-10
-22
2
2
0
4
-14
20
2
18
0
-6
6
-2
0
-2
-2
-4
0
-4
6
12
-22
8
-16
0
4
-2
8
-8
-10
6
2
-28
-6
6
-18
-28
8
-28
8
-2
-4
10
-10
10
-2
20
-18
10
8
4
10
6
2
-4
6
-20
-2
-4
4
4
8
31
-4
14
0
-22
0
8
-14
-10
-18
12
8
-4
16
-16
0
2
-2
6
4
-6
-4
-18
-28
-8
12
-8
4
12
-8
16
8
-4
6
6
-10
0
-4
-18
-36
-36
0
-18
8
-8
6
6
14
8
12
-12
8
8
-4
-16
-12
-10
4
0
-8
-4
-10
-16
-16
-14
2
-18
-4
10
-16
-4
8
-8
-6
6
-2
2
2
6
20
-2
0
-10
-2
-4
6
-2
-12
10
-4
10
-4
-6
8
0
2
-14
-12
25
-4
4
-4
12
10
10
4
-4
-4
-6
16
-16
8
4
6
6
-8
12
4
-18
2
8
-10
6
-6
-8
10
6
0
-4
12
-6
-20
-2
8
-28
-6
4
12
10
0
-12
-8
-4
4
-4
-6
0
-2
10
2
-12
-6
-6
0
-8
6
6
25
-4
-4
4
-4
-6
0
6
6
25
-6
-6
-18
6
-2
-16
4
-18
2
2
-18
-4
-8
10
-4
12
0
-20
-16
-16
18
-4
0
-4
2
2
-8
-18
2
-8
10
-6
-2
-8
14
-8
-22
-4
20
4
-6
-6
12
-22
-12
-10
-6
-12
0
-6
14
2
-8
-12
4
25
-6
-10
-2
8
-16
8
-20
-2
-20
-16
25
-16
6
-2
10
-4
-12
-10
0
14
6
-16
8
0
16
-12
-2
-20
18
-10
25
-22
-12
-4
0
-6
-18
6
14
-8
-4
-22
14
8
-28
14
0
2
12
-6
-16
8
4
0
-10
2
8
-10
-10
-16
10
2
10
20
-2
12
-4
-4
2
-2
31
31
-6
2
0
6
0
-28
-6
39
20
-14
6
-16
2
-16
-4
12
10
-18
2
-8
6
25
6
-4
-20
-8
12
-4
18
20
-4
-28
20
0
-4
0
-8
-10
14
18
8
14
-2
25
-8
4
-4
-10
-6
-8
-4
-6
-4
-12
-4
8
-2
14
6
20
-14
-6
-6
4
6
16
-18
2
-4
12
10
8
25
-12
-20
-14
-4
-2
4
-10
6
2
-2
0
-18
4
6
14
-4
-14
-18
-12
-20
8
6
8
0
49
6
-28
8
20
10
-6
-4
-14
-6
25
-4
16
-6
6
-2
14
-2
-8
-2
-10
6
-16
20
4
-4
-28
-4
20
-6
31
0
8
4
4
2
-6
0
4
16
4
-4
-36
-6
8
2
16
2
-8
25
-12
14
14
-6
-20
-4
2
-20
0
0
-8
10
12
-10
8
4
0
31
8
-20
-4
-4
6
-8
-4
4
-10
-10
6
-2
-4
4
-6
-2
-6
4
-10
14
-20
10
-4
0
6
-8
8
39
-8
-8
-8
0
-8
0
-16
-14
-22
-10
-4
-22
10
25
4
6
-18
-2
6
-22
-2
-20
-16
-2
18
-2
2
0
-28
-16
-16
-28
6
12
12
-10
-12
-16
-12
2
10
12
-28
0
-2
-4
12
10
-2
6
2
0
20
0
-16
18
10
10
2
4
-10
-8
20
14
10
18
-6
-2
-10
2
8
25
-2
2
-16
-14
4
4
-16
6
-8
-2
-18
-8
-4
-36
-4
4
-8
2
-2
18
10
4
-2
-22
-6
2
16
0
2
-2
-10
4
-4
8
-16
-10
10
-2
-4
-4
-14
-6
-8
2
-6
4
-10
8
8
0
-14
-4
8
-20
-18
-14
-22
2
-4
-8
0
-2
20
-10
8
-10
4
0
-2
-16
-2
4
18
-18
4
4
-20
8
6
-12
-2
-2
2
4
-18
2
25
10
0
14
-10
6
16
6
-2
2
2
-22
0
8
-10
8
-16
8
20
14
-6
2
-14
-8
16
12
6
10
-6
6
2
-8
-22
-4
-10
0
18
-10
2
-8
2
6
-4
12
18
4
-6
-10
-2
-2
14
-12
39
-6
-12
-10
-6
8
4
-10
4
16
-2
6
8
-2
2
-4
-14
-20
-14
4
0
-2
2
12
-10
-2
-18
-6
-8
-12
20
4
2
12
-10
-4
0
-14
14
25
-6
0
8
14
-22
0
6
2
16
0
6
0
18
-20
-12
16
39
2
2
-2
-8
2
-2
-8
14
0
4
8
12
18
2
4
14
10
2
10
0
-6
4
-14
0
6
-8
-4
-2
-6
2
-4
12
8
-20
-6
0
-12
12
-10
14
-6
-4
0
-8
-2
2
-8
-18
-14
-8
8
10
-2
-10
-14
31
-18
-8
4
-28
10
14
-8
-2
-4
2
2
4
-20
4
-4
-8
-10
-4
31
-2
-16
0
-14
-2
-4
4
12
-4
12
25
0
20
10
-4
-22
-12
-4
-14
-6
2
-8
14
-8
-14
2
2
-8
4
-16
-6
20
-4
20
2
0
-28
-4
-2
8
-6
-14
6
12
-4
-8
8
0
-28
-10
-22
4
12
14
12
18
20
-8
-20
8
8
-18
4
20
-4
-8
4
6
-8
31
8
16
-10
14
10
-10
-10
-6
4
-12
14
-16
-18
-16
-4
14
14
6
-6
-16
-16
4
-4
2
-6
-14
14
2
-2
10
-16
-4
-8
0
25
-36
2
2
20
-2
-20
-6
4
6
-4
-4
6
-4
12
-16
-12
4
-6
31
2
14
10
20
-8
-2
-4
-4
2
4
-10
6
-14
-12
4
-10
-10
-2
-22
0
-10
20
8
-2
2
18
-8
-6
2
12
-4
10
12
-10
10
-8
6
-6
-8
-12
-2
-12
4
8
31
-4
-14
-12
-12
31
-10
10
-20
0
-8
6
0
-2
4
0
-16
-8
-6
-12
31
16
-12
31
-18
-20
-2
8
-14
4
-4
-28
14
-10
-16
12
-36
-14
16
4
2
-18
2
25
-20
6
-2
-22
-16
8
14
0
6
-8
16
14
-8
-8
-16
4
4
-4
-20
-4
18
18
39
-8
-8
-14
20
25
-12
10
-10
-4
31
0
-6
2
-10
6
12
-14
-2
12
-4
-22
-6
-10
-4
2
10
10
-8
0
4
-16
25
-4
6
-8
14
-4
4
18
-8
31
-6
-12
10
-8
6
-6
12
-22
-10
8
-16
0
39
6
-14
4
0
4
-12
2
-6
49
-4
8
12
0
14
-8
31
12
6
14
-6
-20
-6
8
-4
-10
12
-28
-12
4
6
10
4
-6
8
8
-16
-14
-12
4
8
18
-14
-2
-36
0
-6
4
-4
16
-6
14
-6
4
4
-16
0
25
4
-10
-2
6
-6
-8
16
2
10
-16
20
2
-20
0
6
14
2
6
0
-4
2
4
-28
0
6
-4
-14
-2
0
6
-12
-2
31
0
16
-2
4
0
2
-2
-18
-2
-6
-2
-14
-2
8
12
-2
-8
12
16
-10
2
-4
-12
-2
6
8
6
4
20
-2
-2
-2
-28
-16
-18
-10
6
12
14
-12
10
4
12
0
6
2
0
8
-2
12
0
6
6
-6
-14
0
0
12
6
6
2
6
-6
18
-2
2
-14
20
-10
-10
-8
10
-12
-4
20
0
-8
-14
0
-16
10
14
10
-6
-4
2
-12
0
25
2
6
-10
-6
-4
-10
10
8
-6
-2
10
6
4
-12
-18
8
39
0
12
-6
-10
6
8
0
-4
6
-10
20
0
12
-4
10
-10
-8
-16
-6
-20
-8
-8
12
20
2
0
-14
4
-6
6
18
0
4
-8
6
2
0
2
-8
2
14
-2
-8
10
6
-2
-28
4
-10
12
2
-20
14
4
-20
18
12
-36
-4
2
-12
4
-8
4
-14
-2
12
2
39
-12
-4
20
0
14
-14
0
25
-2
-2
16
-10
31
8
-4
-6
-18
-8
-14
14
-20
25
-8
8
2
-20
8
-2
-6
-4
-10
16
8
2
-14
4
8
-18
-6
-4
-2
2
-14
20
-6
-10
6
4
-16
-8
0
-8
4
2
-14
2
2
-22
2
0
-10
-4
14
4
-6
-2
-16
0
-8
-10
0
-12
18
6
-2
16
-20
0
-2
-2
0
-14
6
-18
-2
-28
14
25
10
-4
-12
-8
-8
-6
0
8
-4
-14
18
-4
-8
10
4
2
2
14
16
-2
-6
10
20
2
-12
-6
-4
-6
8
8
0
4
-6
6
16
-22
6
6
-6
-2
4
-8
8
-28
10
4
-6
0
-8
10
-6
-12
-16
-4
14
2
4
-4
-18
-16
-2
2
31
-2
-12
10
-16
-22
10
0
0
-2
-14
0
6
-18
-6
-4
-6
8
-14
-4
-12
-4
8
4
-20
2
-8
6
10
-14
-16
0
-2
-8
16
8
-8
-8
10
4
-4
-14
2
-4
6
2
25
2
-6
4
31
12
18
4
18
8
-12
-10
-6
-10
31
12
16
-18
4
31
6
-2
-16
-4
-8
8
-12
6
-4
-2
31
31
16
-6
-2
16
20
4
2
-4
-8
4
6
-20
-18
20
6
4
-20
16
0
-4
12
-6
14
-20
10
4
-12
0
-6
-14
16
-28
-6
10
2
8
6
10
4
-6
-6
18
-6
-12
14
-4
6
-36
6
6
-14
-18
-10
0
-6
-10
-16
-14
-16
-2
2
-4
-8
2
-16
-8
25
6
2
18
-16
-8
-4
14
-16
8
-2
-16
-8
-20
-10
-28
-4
14
14
-14
-2
10
14
10
6
-8
8
2
10
12
-10
-4
-28
6
-10
-6
0
4
10
2
12
12
0
-6
2
-14
4
-12
-20
25
14
-2
8
6
-36
8
18
6
10
-2
18
-14
-12
-12
2
-2
-4
18
-12
10
14
10
10
-4
2
20
39
-10
39
-6
-12
14
-12
14
-10
8
10
-4
0
31
-8
-12
-10
-4
-8
-10
12
-2
8
6
-18
-6
-8
6
49
-10
-6
-14
-6
-12
10
6
-8
2
8
2
8
16
14
-10
8
-4
0
2
4
0
-12
12
-4
4
-4
-22
-16
4
18
0
0
-12
4
-16
2
-12
12
2
-2
12
-10
-2
-4
2
0
25
-6
-4
-10
12
-10
-8
-20
0
20
4
10
-10
-10
12
-8
0
-16
0
25
-4
2
25
14
20
-10
-12
-8
8
0
-18
2
12
-10
-10
-8
-6
-10
-28
-2
18
-22
6
16
14
0
-28
-8
6
8
8
-14
-4
6
-2
-12
2
25
2
-10
-2
4
-10
8
-4
10
31
0
8
-12
-8
-22
-4
-8
-2
-8
2
10
0
-12
-12
-10
-16
8
-12
20
14
6
-6
-12
8
8
6
20
-22
2
18
12
-8
2
8
25
-18
0
2
2
8
4
-16
6
-20
10
-2
6
-2
2
4
4
4
-4
-4
-4
-2
-2
10
-6
2
6
-36
-10
-28
6
0
0
0
-16
-14
-12
12
-4
-12
2
-6
-22
20
-2
-4
14
14
-4
6
25
-22
-16
10
10
18
-14
10
2
-2
-10
-8
-6
2
-8
2
-8
8
-4
2
12
-12
-8
-20
-4
0
8
-18
-2
-16
2
4
4
12
-2
0
10
0
12
-6
2
4
6
16
6
4
18
-8
-4
8
0
-2
-2
0
-20
-14
-14
-16
10
10
12
8
0
-8
-6
8
-16
-12
-14
-4
14
-2
-2
-8
2
12
14
-16
-8
8
12
-2
-12
-10
16
-6
-12
-6
-2
-8
4
-12
10
0
-16
14
18
31
-8
0
-10
12
4
-10
0
-12
-18
31
2
-2
-16
-20
0
-8
10
-22
8
-22
0
4
-8
-14
0
2
4
0
14
-12
-12
-10
-4
-4
2
4
0
-16
-12
2
18
-4
0
4
-18
-22
-4
14
4
12
10
2
8
6
-4
6
-2
-4
2
-4
12
0
6
16
-20
10
-6
16
12
16
-14
-20
16
18
-2
-4
-4
-6
20
2
-16
-16
-12
12
4
2
12
4
4
-8
-22
-10
-2
4
-6
20
14
-2
-12
8
18
-4
-10
-6
-22
4
-14
2
16
10
-8
-2
-6
-8
-12
-6
12
4
-12
6
-6
-16
-2
-6
4
-4
-12
8
-4
16
-16
-10
-10
20
-8
-16
-14
8
16
16
0
-10
-16
10
18
0
12
-16
-6
-6
18
-10
-4
6
25
-2
-16
16
-28
4
-14
-6
-2
-8
6
-2
-6
4
25
-6
-8
-4
-4
10
-16
-2
8
-6
4
-16
0
4
8
2
-4
18
2
-2
-4
0
-20
-16
14
18
4
-6
-10
16
-12
18
-6
25
-2
-12
8
-6
-10
-8
-4
-18
-8
-4
-12
-10
-2
-6
-2
-2
16
-4
-14
-10
-10
-28
-6
-18
-8
-8
4
-14
4
16
-2
2
-4
-2
10
-20
-22
4
-10
2
-6
4
4
-2
25
-10
14
-2
-12
6
-20
-2
16
10
-8
-8
10
20
12
-4
16
-14
6
-36
-20
-16
-6
-14
-10
-4
6
12
18
20
-20
6
-20
12
-8
2
-28
-14
-2
2
0
-20
-10
-4
-6
6
4
8
8
2
-36
-28
0
16
20
-8
-12
8
-2
2
2
-22
0
16
0
8
12
4
-4
-6
8
4
-4
-2
-28
-12
2
-8
2
-14
-22
4
14
-2
14
4
-4
4
-36
-2
-22
-4
4
-8
0
8
-4
-4
-20
25
-14
16
10
12
-18
2
-4
25
-8
2
-2
-12
4
-8
12
-6
-6
0
-18
0
14
12
-18
-6
-4
-12
-2
-8
-4
25
-4
14
-18
-16
10
4
0
4
2
4
-10
-18
-2
8
-4
4
-28
-12
20
-2
-4
-8
18
-6
-16
-6
8
-4
-10
10
-4
8
-10
-12
20
-6
8
-4
-12
-4
6
16
-10
10
-14
14
20
0
10
-4
-12
-12
-8
6
-22
-10
-6
-10
8
12
-14
-8
-2
4
-8
-8
2
-8
25
-6
2
-10
2
12
-4
-14
2
-4
18
10
-10
4
14
18
-8
0
12
-6
-14
-4
0
0
18
-2
-6
-2
-4
8
6
6
4
-6
-10
2
-20
-16
6
-22
14
14
4
-2
4
8
0
10
-16
2
-6
6
-4
0
4
0
20
-22
-18
-28
-2
6
-28
6
-28
-2
4
-20
16
16
-12
2
-8
-6
-12
20
-6
-4
2
16
4
6
31
-20
-12
6
-6
-6
0
18
2
0
12
8
6
-28
18
-2
4
8
-2
20
-4
14
-6
14
4
4
-4
-6
-22
6
-6
-2
-18
-2
6
-10
6
-10
-14
-20
-18
-6
2
-6
-4
0
-2
-14
-4
0
6
-2
2
12
18
4
8
12
-18
-2
-10
-8
-10
-6
16
-14
-36
-6
2
16
18
12
-6
-8
12
-2
-14
4
2
-2
16
10
8
10
-12
6
-12
8
8
-28
-2
0
6
-6
-6
-6
6
0
12
6
-22
2
6
8
8
0
-12
8
-4
-2
4
-4
2
12
6
-12
20
-18
-14
14
-2
2
8
-20
6
2
2
4
-4
-4
8
2
-12
-6
2
-8
12
0
0
-18
-6
14
6
20
-2
20
0
0
10
-6
-6
4
-18
-10
12
2
-14
10
10
0
-2
-14
0
4
-2
-8
20
6
-20
0
-20
-22
-4
0
-8
-12
-14
2
-4
-12
0
16
14
6
2
-14
8
2
-28
6
0
6
10
2
8
8
-4
-10
20
-12
4
-16
31
-8
-8
-6
-14
-10
-2
-8
-14
-2
2
10
4
25
14
0
6
-6
-10
10
-36
-4
-12
-16
31
6
-14
-2
-4
-22
8
4
8
-2
0
-18
-2
6
16
-2
8
-8
31
-22
20
10
0
-8
-10
-2
-6
-10
-8
-20
6
-2
10
-14
14
-10
0
18
2
4
-2
-4
-6
6
-10
8
-2
-14
-14
-18
-14
14
12
6
2
16
-6
-22
-18
10
-6
-22
0
-12
-8
-2
-2
-20
-8
-18
-12
0
16
-4
6
-14
-12
-16
-8
-2
0
-8
2
2
-4
-16
6
6
6
-8
-8
2
-4
-2
-18
-4
25
0
8
0
8
-4
-14
-12
6
-2
-10
0
-22
-4
0
0
4
8
-4
-2
8
-28
-10
0
-2
0
10
6
31
2
0
-28
-4
-12
-10
-4
8
-28
4
6
10
-14
2
39
-2
10
-16
2
12
-10
16
16
-12
-4
6
-6
16
2
-12
2
6
-14
-28
-8
0
-10
-14
18
0
25
6
4
-14
16
0
12
-10
-22
-12
12
4
6
0
0
12
-12
2
0
0
-14
20
12
31
4
12
14
18
-16
2
-4
4
31
4
0
10
-6
2
20
-16
-6
-10
4
-16
-10
12
-2
-16
4
-8
8
-2
-8
4
-2
-2
-2
-18
-2
10
-4
2
-10
2
12
-2
-18
-6
0
6
18
2
-12
-2
-8
2
-4
-2
8
-6
-4
-16
-2
4
-4
-4
4
0
4
-2
12
0
-4
0
25
-2
20
4
0
-10
2
-2
12
-6
-6
14
-4
-6
-4
-6
8
0
-8
8
-10
-8
-10
0
-6
16
-4
-10
12
4
8
-2
18
-6
-8
0
-2
-16
4
-10
8
-6
2
10
-12
2
10
-2
16
-2
2
-14
4
-2
12
-6
-6
39
-20
-14
-6
-16
2
-8
0
6
8
-14
-36
8
10
-4
-8
10
18
12
-14
-16
0
-8
8
4
2
-22
2
2
-2
-6
14
-2
-6
0
-10
-20
10
8
31
-12
-6
-12
2
2
-2
0
2
-10
-28
31
18
-8
-6
4
18
-2
-8
-22
4
10
0
2
-2
12
10
-20
-6
-2
20
-12
31
2
-36
-2
12
-8
-2
-6
10
-6
-8
14
-12
8
4
31
4
-8
-8
-10
2
-2
2
-4
-4
-4
-10
-8
-12
-4
14
-10
20
4
18
20
12
-8
-4
14
-10
-2
-4
-6
12
-12
-10
8
-16
10
0
-6
8
2
2
-8
10
2
0
-12
14
-16
14
0
-28
-14
-10
-10
-4
10
-14
18
-10
-8
-4
6
39
14
2
14
-8
-6
6
2
4
-6
-14
0
-6
-8
-6
18
14
2
14
12
-14
-10
-18
4
4
0
-10
14
8
14
-2
16
4
-2
10
-10
-18
10
20
4
-18
8
-2
-10
6
-8
-16
-12
18
-4
-4
10
-6
6
-28
31
12
-2
-28
25
20
-4
-10
-2
25
-18
-4
25
31
-8
12
0
-8
-14
-10
-6
16
-4
-8
2
4
31
-12
12
-6
0
10
8
-8
-14
-22
0
-14
-2
-4
31
-4
-6
-2
-12
4
18
2
-8
31
6
-18
-4
12
-2
12
14
14
2
-20
-12
25
16
-28
4
-12
16
-6
-6
2
-12
2
2
20
0
-2
2
14
-8
0
0
-18
-6
2
-2
20
-6
-12
-16
-4
-10
8
2
-4
6
-20
10
0
-14
12
-22
-6
-14
0
0
-12
-4
-16
-4
-8
-12
2
4
-8
-22
-12
-8
4
6
-2
-8
8
12
-6
2
8
6
-22
20
-4
-6
-12
-20
8
10
0
4
-12
14
20
-14
12
8
-12
0
31
2
-6
8
6
0
20
-6
-8
2
-10
4
-20
-12
-16
-14
25
2
0
6
6
14
-8
-14
-6
-14
-12
-16
-36
-8
-16
14
25
12
-6
14
-4
-6
6
6
-4
25
-6
4
4
-6
-28
0
10
-8
-2
4
-12
-4
25
6
-18
-8
-2
-10
-4
-12
-10
-14
-4
-18
-4
2
-10
-12
14
2
2
-8
10
14
-6
6
12
-2
8
2
-10
25
-18
-2
0
-6
12
-16
0
-14
-6
-16
8
10
-36
-14
8
-10
-12
14
-10
-4
16
8
-18
-2
6
10
2
4
-6
12
-14
2
8
-2
-4
10
-16
-14
-20
-12
-2
8
-8
-10
10
-4
-2
2
8
2
12
-14
0
14
14
0
6
16
4
-6
0
-4
-4
-14
-12
18
-16
12
20
-6
-22
-8
-16
-18
-12
10
-16
-16
-8
25
-10
-4
-14
20
-4
0
-2
-8
0
25
-4
-36
6
-4
-10
0
6
6
14
-4
-2
-14
-2
6
4
-28
-6
8
-16
2
4
10
8
2
-4
12
-14
4
-14
6
8
-8
6
2
6
20
4
-8
-14
10
2
0
0
6
8
-14
16
0
-12
16
6
-10
-18
4
-8
-4
6
-6
-6
-6
2
-6
16
8
-10
-4
-6
-4
-4
4
2
8
10
8
-6
-4
8
12
0
0
6
-10
10
-4
8
-6
0
-22
-4
-12
-14
-2
-18
0
-6
-6
-8
14
-4
8
2
-4
2
-8
16
-12
4
-8
-10
8
-14
-4
-36
-2
-16
-10
8
-6
-2
2
8
12
-10
-2
8
31
2
6
-8
14
-16
2
-12
-6
10
0
-2
-2
-16
31
-4
14
-10
-2
-12
0
14
2
-4
2
0
-2
-4
-2
-20
-2
-10
8
6
2
-6
25
-4
12
-14
-16
2
12
14
-6
6
0
20
-20
18
0
4
6
0
-16
2
20
2
-4
8
20
-2
18
6
2
0
4
10
14
14
6
2
-4
4
6
-14
10
2
-16
-4
4
-16
14
-2
-10
8
0
-12
-14
-6
2
-12
-18
0
-8
10
-12
2
-8
4
16
-8
-14
10
-12
-2
-6
-2
12
-14
-20
-18
-10
18
-2
-2
4
-18
-2
0
-18
10
25
-4
-10
-12
-16
-28
10
-8
4
8
16
2
16
-2
0
0
-18
18
0
0
-8
4
12
-2
18
6
-8
8
6
10
-6
2
-4
-2
-28
-10
2
-28
-8
-10
-6
6
6
2
-12
4
16
2
-6
2
-8
-2
-6
6
4
-18
-4
18
4
0
-28
16
-4
-4
-12
-10
-28
-2
-14
-8
-8
-12
-10
-14
-2
0
2
-6
2
-18
25
2
-20
14
4
-6
8
2
2
-6
-6
-22
6
10
18
-12
-14
-2
-2
8
-8
20
25
6
4
2
-6
-10
16
10
-6
-18
-14
4
-2
25
-22
-12
8
-2
8
16
-2
-18
-20
-12
-6
16
-14
-2
-10
14
4
4
-6
20
2
6
-8
6
-8
6
-6
12
-4
-2
10
0
-6
8
2
-18
12
-10
-2
0
2
-2
10
6
-2
4
-18
4
6
-36
4
10
0
0
-2
-6
-8
0
-16
-22
16
8
4
-2
4
-4
-4
-6
0
20
-2
0
8
-8
-8
14
14
-4
8
20
-8
-28
8
8
0
12
-14
-10
10
14
-12
12
0
-4
-16
-4
-22
2
-10
0
-20
4
-12
0
25
-8
12
-8
6
-2
-18
8
-6
-10
-12
-16
18
-4
-22
-8
4
10
10
4
16
10
-6
4
18
-4
6
-22
-10
-12
6
8
-4
-8
-2
-12
31
-6
4
14
4
6
-6
10
-2
-16
-20
-6
10
2
-10
-4
18
-8
-4
-14
-14
8
2
-10
-18
4
-16
20
-4
-20
-6
0
14
12
14
-2
-6
-18
-22
-16
-14
8
-22
10
-6
-2
6
6
0
-22
-14
-14
-8
10
-2
-36
18
-36
-10
12
0
10
-4
-6
2
4
4
-6
-14
-12
6
12
-6
8
2
-2
14
6
10
-14
-16
18
-8
-4
-2
-16
14
-2
6
-2
-12
-6
0
-10
-4
-8
12
8
4
-2
10
8
12
4
12
0
-14
0
-10
-4
14
8
-8
-16
4
8
4
6
-12
6
-10
-28
20
-28
20
-36
20
6
-12
18
4
8
-2
-28
-20
-2
-16
-16
31
12
-10
4
-6
12
-12
-8
6
4
2
-36
-4
-2
4
4
2
4
-10
8
16
31
2
-12
-6
14
-6
25
14
-4
-14
-4
12
-2
-22
-2
14
-10
25
-4
-6
-20
12
20
4
18
2
-16
-2
25
18
6
4
4
-6
18
20
-14
-12
8
-16
6
18
10
-4
2
4
-6
-12
10
6
25
25
25
18
-8
-6
-18
-14
0
2
-6
-28
0
4
2
0
6
6
-18
-2
14
-12
-6
-12
25
8
-2
2
-20
2
2
-12
-14
-6
18
-4
0
4
8
-2
-20
6
4
12
-8
-4
6
6
2
-20
14
14
6
-2
4
-6
-14
-12
-8
10
10
-18
4
12
-8
-8
-18
39
-14
6
-10
2
2
-10
10
14
4
0
4
-18
10
2
-8
-12
8
0
-28
-12
25
6
20
-8
12
4
10
8
14
2
-8
12
16
0
-6
-18
-4
-16
-4
-6
-6
-28
25
20
-2
-20
-8
-6
-20
2
12
4
-4
-8
-20
-2
-14
16
2
-18
16
-6
-8
-18
14
-12
4
18
0
-8
-2
-20
4
-6
6
-2
14
-4
-14
-12
31
-28
6
49
0
-18
-8
-6
-4
12
-4
-2
4
10
-4
-6
-12
-18
-14
-12
-2
-8
-12
-14
-10
-4
-2
4
4
-16
25
-22
-16
14
31
20
18
16
-6
4
-14
10
-20
2
-8
2
-2
10
4
-16
8
-2
-4
-14
-4
-18
8
-10
20
-8
10
-8
10
2
4
-20
4
2
-8
-8
20
-16
6
2
-6
4
2
2
31
2
-2
12
10
-2
14
-20
-6
-14
-28
0
-22
12
6
14
-12
-10
6
-18
6
-2
12
-12
2
6
-6
-2
-12
4
-20
-8
14
2
4
-6
-4
-10
10
-4
-6
-18
-12
-14
16
-4
4
-2
0
2
10
-20
14
2
-2
-10
4
20
-4
31
-8
20
18
6
31
-8
-8
4
8
0
6
-2
-22
-2
-6
-8
-2
6
31
8
-18
-14
-2
-10
4
6
-14
-12
-20
12
-2
-14
25
2
-10
4
-10
4
2
4
18
-8
0
-16
-16
-2
12
4
-16
-10
8
-16
2
-36
2
20
-22
2
-10
-4
2
2
10
25
-10
-8
10
0
-2
-20
-10
-6
2
-4
-6
12
14
-8
-12
8
16
-20
2
31
-8
20
12
16
0
-2
-22
2
-20
12
10
-4
-12
31
20
14
0
-12
-6
-6
-16
-14
0
-10
-14
16
-10
4
-2
0
4
-10
-16
0
-4
16
2
-12
8
12
0
10
4
-8
-12
6
-14
-12
-2
8
6
-8
25
-8
0
-2
4
-18
10
-12
0
-14
18
-6
-4
8
12
10
0
-2
-14
25
0
-4
16
10
14
2
0
-10
-2
4
-6
18
0
-8
-6
6
0
8
12
2
0
14
8
-22
-2
-10
-2
-14
-2
-6
-8
4
2
-22
8
-12
-16
2
-6
16
-4
-4
-10
16
-8
18
8
0
2
-20
-2
2
-16
6
-14
-14
-10
-10
-16
10
6
-12
-8
10
-10
-6
-10
18
2
18
4
-10
-10
-20
-8
-12
-2
6
-8
-18
12
-10
-6
6
-8
-12
10
-14
-16
8
10
12
-2
4
-2
-10
-6
2
4
-22
-28
6
-2
2
-8
-4
6
-18
20
12
-12
10
-22
6
4
-8
18
4
8
-2
-18
4
-8
-16
20
-8
12
4
4
8
-8
18
8
4
8
-2
2
0
0
4
-8
2
-2
-4
16
25
-4
-10
-6
-22
-6
-20
-6
25
0
4
-18
-14
12
-10
-16
-14
8
-22
4
-6
0
0
2
8
4
4
-10
-10
8
-2
-10
-22
8
-4
14
-22
2
4
12
2
-12
-10
20
12
12
-12
-12
16
-16
-10
-16
-2
-22
-2
20
0
4
-6
0
12
-8
-12
-8
-12
14
18
10
-18
8
-8
-10
6
6
-10
10
-2
2
-16
-8
-12
-2
6
-14
6
-12
-2
-6
25
8
-14
-28
6
-10
6
20
-10
6
-6
16
20
2
-10
2
2
-12
8
2
6
2
-10
-2
6
2
-16
-12
-6
4
0
10
-6
4
-14
6
6
-6
-6
4
-20
12
16
-22
12
-4
20
-10
2
-16
6
-6
20
8
14
20
18
8
4
-10
-18
-18
12
-10
-10
18
-10
2
8
-22
-12
0
2
25
18
2
14
-6
20
10
0
2
-10
2
-14
4
-20
20
4
18
-2
0
-14
-6
-4
-14
8
2
-6
-4
8
-2
-16
2
-4
-8
-4
4
10
-14
-28
8
8
6
-12
6
-6
-8
-4
-10
-14
-6
-14
-12
-4
2
-6
-6
-2
-6
-20
39
-22
6
2
-6
6
10
-28
2
-10
8
2
-12
-12
4
14
-6
-8
-4
-28
2
0
8
18
-2
-20
10
-18
-6
-16
-2
-8
0
12
0
2
-14
0
-2
10
-12
-14
2
6
14
8
-8
-18
-20
18
12
0
2
-4
-6
14
10
2
0
18
18
-6
6
-16
0
14
-8
0
6
10
-14
-8
-8
16
-28
-6
-10
-8
4
-4
-2
-10
2
0
4
-2
-20
6
4
-2
-12
8
-2
6
6
-6
-4
-16
-4
-2
8
6
-8
-10
2
-12
18
4
-10
0
25
0
-8
12
-12
-2
-2
2
2
-12
-8
2
-6
-2
-2
12
2
-22
16
8
-28
2
8
18
8
20
4
-22
-18
-16
18
-14
2
-4
4
0
-28
0
20
-2
4
10
-18
0
6
6
2
0
2
-2
8
-10
-4
2
-12
0
-2
4
-12
0
4
-2
0
10
-2
-12
-14
-8
-12
-8
0
-10
-8
0
0
-2
-22
-16
-16
12
14
-4
-22
-2
-10
8
-16
-6
0
0
6
12
31
12
-10
-8
2
6
4
6
0
39
-2
4
-14
-6
6
-22
-6
-28
-18
-10
-8
-10
-2
-20
10
-2
20
-10
4
-2
4
-4
6
12
10
-12
16
-10
-8
4
6
-20
16
25
8
12
10
16
-20
14
0
-4
-6
4
25
-8
12
12
-8
-8
8
-6
12
31
-4
-12
-2
-2
6
-2
0
12
-18
-18
-12
6
12
12
20
-22
-28
14
10
-8
8
-2
-20
-8
10
-10
-4
6
-12
25
-6
-28
-14
39
-14
-8
-28
-20
10
-2
8
0
6
-8
4
-2
-4
6
-10
14
-2
8
-14
10
16
-8
10
-8
4
-16
-8
-2
2
4
0
6
6
0
-10
-4
-14
14
10
2
-2
-12
-4
2
6
-2
6
-14
-12
0
-4
-12
-14
-2
2
-6
-4
0
2
0
6
12
20
6
-2
14
-2
-4
6
10
14
12
-12
14
-10
-18
0
8
16
8
25
14
-18
14
-8
-8
-2
-8
-14
4
-14
-2
-4
14
-8
-2
20
4
18
18
-4
-2
-12
0
-6
-16
25
2
2
8
4
-18
-8
-18
2
-2
-8
-2
-18
-2
0
-4
31
0
-6
2
8
-12
-4
10
-10
-4
-18
20
-14
-4
-6
-6
4
2
2
18
-22
-12
0
-4
0
4
-8
-2
10
6
6
-6
-6
6
0
-28
-16
0
20
0
14
0
10
-28
-22
18
-6
-2
8
-12
16
20
-10
-2
2
20
-8
0
14
4
-2
-6
-6
-2
-18
-16
4
-6
-6
-6
6
20
4
-4
-28
-12
0
2
-6
-2
-12
2
-12
-6
-4
-4
16
-2
10
31
0
-6
12
-2
-16
4
-16
20
4
-12
-6
2
0
-14
-4
12
-14
-10
2
-16
0
2
6
6
16
18
-8
10
-14
4
-12
-2
-8
-6
-4
-4
-12
6
-4
-10
-2
0
-4
-18
-6
12
-16
-6
6
-12
-2
-6
0
-8
2
2
14
-10
-22
6
-12
-8
16
-6
6
10
6
-4
8
-12
-20
-14
14
4
-4
-10
10
6
2
6
-6
-2
-4
20
18
0
-6
8
6
0
-4
4
16
-10
-20
10
-12
4
12
4
0
0
2
-18
-6
14
-20
-10
6
0
8
6
0
-16
2
-28
20
-22
12
0
-6
-10
-22
-4
-6
14
4
-12
8
-8
10
0
6
-16
0
2
-2
20
-6
-4
10
-10
12
-10
-12
6
-6
0
2
12
10
0
-18
16
10
4
16
-12
16
20
-2
4
6
-6
39
6
-16
-14
-12
20
-16
-8
4
2
-14
2
-14
-20
2
-6
2
-18
4
0
2
-2
10
18
0
-4
-4
0
-12
-6
10
4
8
-4
0
-6
-2
-16
-6
-8
6
10
-18
2
-14
-2
-10
-8
6
8
0
31
-10
-10
-14
-18
2
0
-4
0
12
8
-12
4
10
25
8
0
-4
10
-20
39
-18
10
-2
2
10
10
-4
14
-2
10
8
-20
18
-2
-10
0
-12
31
-2
0
4
16
16
0
-10
12
2
10
20
-12
4
-4
-10
25
-4
-18
10
-10
-12
-12
-2
2
-12
-4
0
-4
-6
0
-2
0
14
-6
-14
-2
14
10
-14
10
6
4
0
12
-18
16
-18
2
20
-8
-18
-12
-10
-4
-10
-20
4
-36
8
4
-6
-28
0
-12
4
8
-16
0
-2
-16
6
-2
-18
8
2
-10
4
-18
-2
0
-10
-14
18
-4
10
6
-2
-18
-4
-10
-6
-2
6
4
-2
10
-6
16
-10
0
4
-2
-20
31
14
0
-2
-6
2
6
-2
2
-12
-6
-22
2
4
4
6
-8
0
31
-4
0
-6
4
20
-6
12
14
14
2
-14
2
0
12
20
2
-6
4
0
20
-4
10
0
-14
-20
-6
-16
-4
16
-8
-8
-10
2
-4
-2
-10
-10
4
0
0
10
4
0
-4
-4
12
-16
-10
4
-6
0
6
6
-12
-8
0
16
2
-6
-8
-14
4
-2
-8
0
4
6
0
16
-2
-8
-8
0
20
-10
6
14
12
0
-14
4
-6
4
6
-8
6
10
12
-6
25
12
4
-22
12
4
-6
-10
6
-8
-4
-16
18
0
10
20
10
-8
-20
-22
8
8
4
-8
-12
10
-22
-6
-2
-4
-2
4
12
-16
4
10
25
18
-6
8
-6
4
-2
6
8
6
6
-6
-2
2
-16
20
-4
0
-8
-12
18
6
6
-14
10
20
8
12
0
20
-6
12
-8
-14
-8
-2
6
-8
-4
-20
12
-10
6
-6
-2
-2
10
2
0
-8
4
-2
25
8
6
-6
-4
-22
-4
8
6
-14
-6
12
2
-4
-6
-16
-14
12
0
-6
-16
0
-6
0
8
-14
-4
14
-4
18
2
14
-8
12
-12
4
-8
-8
-6
-8
-12
10
-12
6
2
12
-18
6
20
-20
0
-10
-12
-4
8
16
6
-12
4
31
-2
-10
-8
-2
-4
8
-18
-8
-16
-20
18
20
0
-22
-22
-2
14
2
-22
-10
6
-8
-4
6
-6
-2
8
20
31
2
-6
-6
-2
2
-28
-16
14
-4
-6
-12
12
20
4
-22
10
-2
-4
-16
-10
-4
-4
-10
-4
4
-2
20
4
0
-14
-4
12
8
0
-2
-14
12
16
-12
-16
-16
-6
-10
8
-28
2
-16
-8
0
-8
-2
-20
4
-28
8
-10
-4
-22
14
10
-4
10
20
12
-22
18
-8
10
-4
4
-4
-28
-8
-2
-12
-14
14
-18
0
6
-14
14
10
-12
31
2
-22
-16
-12
4
-10
16
25
25
-18
14
-4
6
0
8
-8
-2
14
-14
6
-2
4
-10
-10
-8
8
31
8
4
2
12
16
4
2
-2
10
-8
0
0
12
-22
8
-12
10
14
0
-12
-6
-2
12
18
4
-28
31
6
10
14
-14
4
2
0
8
-10
39
2
10
-2
-12
-4
-6
-4
-4
-2
8
8
-22
-14
-4
-4
8
-10
-2
4
-6
0
-14
25
-14
8
16
-12
-6
-2
-2
16
20
0
10
6
-12
-14
-8
12
20
-4
8
-2
6
10
-4
-2
-10
0
8
0
10
31
18
-22
4
-4
-16
10
-6
8
18
-16
10
-2
0
0
-10
-4
10
4
10
-2
-14
6
4
-6
2
14
-22
4
-4
-6
2
-8
-2
8
-16
-2
-8
-6
8
6
2
-8
-18
6
12
14
12
-4
-2
2
18
-20
16
2
16
4
4
-18
8
-6
-2
-2
8
-22
-2
-2
8
20
-14
-28
0
-10
2
0
-4
-4
4
20
0
2
-8
-12
0
-6
-4
12
0
8
16
-6
-18
2
8
-10
-2
8
-10
6
-20
4
16
-6
14
-4
4
2
20
-4
12
-2
4
-2
2
16
14
-6
-22
4
16
-16
0
0
-16
2
8
-12
6
-20
0
-8
-4
-6
-20
14
-16
-14
-28
2
-2
-18
-4
-18
18
8
-6
4
6
-2
4
2
-4
-4
2
6
31
6
8
2
-6
-4
-8
-4
-10
-2
-28
10
6
-2
-14
-4
6
-2
-14
-8
8
-18
-4
-12
2
-14
16
-22
0
2
6
-22
-2
4
4
-4
4
-16
0
-20
0
10
-22
0
-10
-8
2
-6
31
4
-10
12
-12
-6
4
-2
-22
-12
12
0
2
18
2
-2
0
4
-6
2
16
8
-14
6
-12
16
20
2
12
4
0
8
-4
4
0
2
-4
8
0
2
-2
6
2
0
-6
2
0
-10
8
12
-2
4
31
20
0
6
-6
-10
-10
49
6
-8
2
-12
14
18
4
6
-6
12
6
2
-18
20
-6
16
4
-6
-8
0
2
10
-8
-4
4
2
-8
10
20
14
-4
-4
14
0
6
0
-22
-8
4
12
-10
-2
-12
-6
-2
-4
12
-2
14
-10
-2
-12
-4
2
4
-6
8
-4
6
2
20
0
4
0
4
-2
2
-2
-4
-10
6
-2
-6
-14
6
-6
14
2
-2
0
20
2
-8
0
14
-6
16
-2
0
-12
12
8
-14
-6
0
4
-4
12
2
10
6
-8
25
-20
-16
-16
-10
-14
0
0
-10
6
14
10
12
-2
-4
18
-8
6
2
-16
4
31
-8
-8
-10
14
-22
-14
8
10
2
-10
-22
-2
-10
8
-6
6
-8
12
-8
20
-6
-2
2
8
4
8
0
-6
-8
-4
6
16
-4
14
-18
4
10
0
8
6
-16
-4
8
2
-12
4
-4
-16
6
-12
12
18
0
-18
8
-4
-16
-2
20
-8
-10
-12
-12
-14
-10
8
-2
-16
-18
-16
-4
12
-4
-2
-8
-12
16
0
0
8
-4
12
16
0
-18
-2
0
0
18
6
-4
-8
6
12
-14
-4
-18
6
16
10
-20
-10
-14
-2
-8
6
-18
-6
8
25
2
25
16
-12
2
12
-22
12
-8
-18
-6
-4
4
12
4
-14
-18
8
20
0
-6
-16
-2
0
0
8
-18
-10
20
6
14
2
14
6
10
20
16
0
-2
20
-4
8
14
4
-6
14
-12
2
6
12
-36
-22
20
25
8
4
25
2
16
-6
10
-8
-4
-2
-4
10
4
10
12
18
-10
-6
4
-10
-6
2
8
2
6
-2
8
-4
16
10
0
-14
31
-12
4
0
8
0
4
-2
-4
8
-8
0
-16
-8
4
-6
6
-6
-8
-2
-12
-2
0
-4
4
0
-14
-4
4
4
0
0
-8
2
-8
12
31
-2
-4
-4
10
2
-8
-10
-20
-6
2
-10
-4
4
-2
-6
6
-6
-2
-28
-20
16
6
18
-6
-6
-2
-14
20
8
-6
6
0
8
2
0
-2
-2
-12
-6
2
10
2
-14
-20
4
10
-8
-14
-10
0
2
-22
8
6
-20
16
4
8
-20
6
-8
-6
-22
0
-8
4
-8
-2
4
2
20
-8
-14
8
0
0
-18
-20
18
-8
0
-10
-12
-12
-36
-12
-14
-2
-6
4
-4
-2
-2
-14
-10
8
0
-14
-4
10
0
-4
-36
-10
0
0
-28
0
-16
-4
2
20
-18
10
10
-14
-8
-8
-6
-10
20
2
16
-6
6
-10
-12
-12
12
10
4
-4
31
-4
-22
6
-2
2
-8
-10
-20
-16
-10
0
-12
-4
6
0
-2
-16
10
25
-12
8
10
-28
-8
6
14
8
-6
-12
4
-10
-4
-8
-6
2
20
2
-8
-14
-6
4
2
-20
-2
-4
0
-10
10
-12
10
-16
2
12
6
12
12
10
16
-4
4
-6
16
-4
4
-10
20
4
-6
-10
12
4
-16
4
20
-18
4
12
8
-6
-6
-6
8
12
-12
-12
-22
6
-6
20
2
-12
25
10
-6
4
10
16
8
6
0
-4
4
-6
6
-2
-2
31
-12
-10
2
4
8
10
-20
16
10
-12
-4
-8
-2
6
0
-10
6
-14
-6
-6
18
-2
-2
10
2
-16
25
16
-2
4
-36
-20
6
8
20
-20
18
4
31
4
25
12
10
-28
0
25
14
-8
25
20
-12
-14
0
-6
16
18
8
-10
-4
0
0
-6
0
0
18
25
0
2
-22
8
-2
-2
-14
-6
16
12
-4
10
-14
-28
-12
-36
6
6
4
-4
0
-4
-28
0
10
0
16
-12
31
-18
-4
10
-8
-4
14
25
14
-14
-6
31
0
-16
0
-14
-2
-14
-8
-12
-6
2
-4
10
6
20
25
-2
2
8
-4
2
-2
0
-12
16
0
-8
2
-6
-6
10
-8
4
0
-14
-2
2
-6
-12
-4
6
-8
14
0
0
-18
12
6
2
-20
-14
-10
-28
0
4
2
2
8
6
-12
0
-4
-12
-10
8
-8
-2
-14
10
-14
-16
-4
-14
14
2
-2
6
-2
6
-2
14
2
0
0
12
12
14
-6
-2
-2
8
0
-12
-2
0
-8
-10
-16
-2
2
-6
-8
-12
8
-12
2
8
-20
-22
8
-4
-4
-28
-12
-14
8
4
6
-14
6
-8
-12
-16
16
-6
20
8
6
-10
-8
-22
14
6
4
-4
-2
-2
12
8
-8
0
-6
-2
10
-6
-2
2
-2
-16
2
-28
-2
-6
4
10
8
12
14
-12
12
-2
2
16
-2
4
-8
-6
-4
18
2
-4
-8
-6
-14
0
-2
0
-4
-12
4
-20
-2
31
-2
-12
-6
-2
14
20
4
-18
-16
0
8
4
-10
0
2
-6
-4
8
0
-8
4
-10
8
-16
-2
6
-2
-4
-12
16
-12
8
-20
10
4
4
4
-6
-16
20
-2
2
-8
10
-6
-12
6
20
-6
-28
-6
6
4
-18
-10
-20
4
-8
12
-12
-2
-20
-8
0
4
8
-18
-14
2
-16
-12
-8
0
-14
8
-12
20
6
4
14
4
-4
-8
6
-10
-4
18
-12
-6
-8
-18
-4
0
18
-4
-36
-4
6
0
-12
2
4
-10
-22
10
-14
-14
14
10
6
8
16
-8
-12
25
-8
-4
-8
31
20
-18
-8
2
-8
4
2
-12
-18
2
-8
2
8
-4
12
-2
-6
-2
18
18
-10
-4
-6
-16
8
14
4
8
2
-8
-10
2
14
6
-4
4
16
-12
8
-14
0
4
14
-10
0
-4
-8
-4
-16
14
16
-2
-4
2
6
4
6
4
0
-4
8
-4
0
-10
2
20
0
8
-28
6
0
-6
8
12
12
12
6
-4
-2
-18
0
20
2
25
0
-2
-8
8
-6
-8
0
-22
-14
-4
6
-6
-2
0
-14
-6
-20
4
4
0
-10
-4
-16
-16
-12
-10
-20
16
2
-2
-6
6
12
16
-4
-2
-18
-2
-4
-16
6
20
-4
-2
2
10
14
-6
-8
-4
10
-8
-12
-14
-18
8
-8
25
-6
14
6
25
-2
-4
-2
10
14
0
-8
-4
-4
-28
-22
-12
6
-10
-6
0
-6
18
-14
-16
25
-20
16
2
-10
-6
-6
-10
-10
-8
31
-2
0
-10
20
12
-10
0
16
2
-2
-10
12
20
-18
-22
-8
6
6
18
12
-12
8
-8
-2
2
-16
14
-10
-6
0
-8
-8
18
-10
8
12
0
-6
10
-2
12
-16
-18
25
2
-12
-2
8
20
12
0
4
-4
14
14
-2
-8
10
0
0
10
-18
2
0
8
-4
0
4
2
4
6
10
-4
-8
10
0
-22
-12
12
6
10
-16
6
0
-10
2
-36
25
-4
10
-12
-8
-36
8
-8
2
-2
10
6
-12
10
-2
-4
-12
0
-12
16
-2
10
2
14
6
6
-2
14
-6
-8
-14
8
6
0
0
-10
-10
4
0
0
10
10
6
4
-6
10
-4
-4
8
-18
20
-10
-20
-14
-16
-10
18
-2
-16
0
-6
2
-2
-16
6
12
-8
-20
-4
-2
8
2
6
-8
12
10
0
-8
-2
-2
10
10
8
8
20
10
0
-20
8
0
-4
-12
0
4
4
2
-6
2
18
16
4
4
2
-2
-14
12
14
0
2
4
-2
-8
6
10
-18
4
6
0
2
20
-4
-18
-8
-4
16
-2
-6
18
14
0
6
-4
-12
8
18
-18
4
2
25
2
16
2
-6
10
4
-16
20
-18
6
-4
14
-16
-2
-8
-2
0
0
-8
-16
-2
18
14
-4
10
-2
-22
-12
-4
2
4
-22
0
-18
-4
0
-2
6
16
0
-8
2
-4
12
4
-8
-2
-8
-20
-20
-16
2
10
0
14
-10
12
0
8
2
-6
39
-4
-2
-4
-10
-20
14
-12
4
-6
-2
-10
-12
2
-10
4
-2
-14
6
-6
-2
0
8
8
4
2
-4
-6
-12
6
-8
-18
2
-2
-22
-2
16
-4
14
6
8
6
-8
-6
-14
-22
0
-6
2
6
-12
12
-16
-2
10
-16
-6
2
0
-12
4
-10
2
-4
-8
4
20
-4
-2
2
16
-12
16
6
-18
0
31
-4
-2
-6
4
12
8
6
-6
-12
-8
-6
-20
-6
-2
-2
0
-16
-10
-2
8
20
-2
-4
-2
-4
-10
-10
0
18
-2
-4
8
-2
6
-4
-8
-12
-14
39
-22
8
4
8
-8
-10
-10
-18
39
4
12
8
-10
10
-16
-4
-4
31
20
6
20
0
20
-28
-28
14
14
18
-14
2
-6
16
-6
-10
14
-12
-6
0
14
6
2
-2
12
-2
16
-28
-8
-4
10
2
12
6
14
6
-12
2
2
10
4
-4
4
20
10
-8
-2
-18
4
-28
6
0
8
10
31
39
-22
8
0
0
2
31
8
0
4
-2
2
2
6
25
39
18
14
16
10
-8
-8
0
0
-4
-12
-8
2
-4
4
-2
10
-28
-4
-4
-2
-4
-10
-4
25
2
-8
2
-16
8
6
-2
-12
16
10
-10
20
-12
20
-2
-16
10
-8
-6
-12
2
6
-10
12
-2
-6
-8
-6
-10
-2
4
0
-8
0
-8
14
-6
0
25
-16
-22
-6
-4
-14
10
8
12
2
4
4
10
14
-16
0
0
2
12
-8
-12
-22
8
-10
8
-10
10
-2
-18
20
2
14
16
0
2
-8
8
6
-8
-2
-22
-12
-12
-6
-28
-6
0
25
2
-18
6
-4
-2
-4
14
-10
12
-6
4
-8
6
-20
20
2
-36
20
-4
8
-14
6
-14
-2
-2
12
-10
2
8
2
-4
4
-12
10
-8
-12
-4
20
-18
10
16
-22
-10
-8
-2
-4
6
0
-6
10
20
6
-6
-2
-8
-6
4
-8
-22
-20
20
0
-16
2
2
4
-22
25
-28
-10
6
-2
6
16
-4
-12
-2
-14
0
-2
-10
-2
4
-2
-4
-4
8
2
4
6
-10
14
4
-22
-12
25
-8
4
-10
6
-10
10
8
18
2
-8
-8
4
-8
8
2
2
-12
-6
6
-4
-4
6
25
0
0
14
-16
-6
-22
-12
6
0
-10
16
25
-10
-18
-8
0
6
6
25
4
2
2
10
6
-12
31
-10
20
-2
-28
8
-8
20
-2
31
12
2
-12
14
10
18
8
-2
-6
4
-2
2
-14
0
0
0
-20
10
0
0
-2
-2
6
10
-14
-2
-18
-4
0
0
-2
4
2
-6
-10
-10
0
0
-6
12
2
-2
-8
0
-4
4
2
-12
-8
-28
10
6
-8
-2
10
-2
0
-4
-22
-6
0
10
-6
2
-12
4
-14
2
0
-12
0
0
-22
10
-10
-2
39
-20
-6
-2
0
2
8
20
4
-2
4
12
-20
12
2
14
-16
8
4
10
-2
14
31
-14
14
4
6
-8
-6
-14
14
2
-2
10
-20
-14
6
-22
-4
4
-12
8
18
0
-6
6
2
-16
-18
-8
6
-6
-20
-8
8
-8
8
10
-2
4
12
-22
-6
2
25
8
0
16
-6
-4
-2
12
0
-12
-28
10
-14
2
0
-4
8
2
0
18
8
-2
2
6
-6
-6
4
25
18
8
-8
6
20
0
6
-16
-4
-2
-6
-4
20
10
2
-2
-20
2
-4
-20
0
6
2
-6
10
-2
-4
-36
-20
-6
0
-4
-6
-14
14
-12
-10
-4
-6
-2
6
10
-4
8
8
-16
-14
-4
25
-12
14
-12
12
-12
8
-2
4
-4
-36
6
4
-12
4
-10
-28
-8
-10
-6
8
4
8
-14
-2
-14
16
-14
18
-8
14
6
2
-14
2
0
10
-6
-12
-4
-14
4
-4
-12
10
4
-2
4
-20
-18
-10
6
0
2
6
-4
6
4
-10
2
-14
-10
-8
-4
16
-6
-8
-6
-6
14
6
-22
2
-28
-2
18
0
18
6
10
-8
-14
16
-10
2
0
6
-2
4
8
-2
-10
14
12
12
12
-12
4
6
2
4
-10
-18
-8
-4
20
-2
6
-16
-4
-22
-2
14
-12
8
6
14
-2
-6
20
6
-12
-14
12
10
14
-2
-2
0
-8
18
2
-10
-12
-18
8
-6
-6
-18
10
-10
20
-6
6
8
31
6
-28
-12
12
10
-6
6
2
-6
-4
0
-8
16
20
-6
6
-22
-14
-4
-6
4
-12
-14
6
25
-20
-14
31
6
-4
-10
-2
0
-10
-18
4
12
-8
8
-12
-10
6
8
-16
-2
-12
-22
0
25
0
12
-6
2
-2
18
0
-6
-8
-6
-4
4
-18
-22
4
-4
12
31
6
0
-6
6
25
10
-4
-8
6
-10
10
10
4
4
2
-8
-2
2
2
-14
-6
-6
-18
-2
-14
2
4
-14
-18
4
-16
6
-18
12
18
-2
-2
6
-6
14
-10
-4
8
39
-4
-6
6
10
10
-2
-28
-2
-2
6
8
-2
0
4
-12
31
-8
-14
2
-10
-8
-10
2
-4
25
10
14
0
8
12
-18
0
-4
6
0
12
0
-2
-12
-18
-12
-2
10
0
-8
-2
-10
16
-8
4
39
14
-2
-6
-36
-12
-2
0
-8
4
2
-10
8
4
-4
-8
4
-6
16
-18
-10
0
2
16
8
-2
14
6
-4
-2
-16
14
-14
2
8
-20
-2
-6
-14
4
2
12
8
-28
-12
-10
-10
14
-16
-12
6
-6
20
12
-4
16
-6
-16
6
-6
-2
-12
14
2
6
0
0
2
8
-12
10
-12
2
10
2
8
18
16
-8
-2
25
-22
0
2
-10
18
0
31
-10
-6
-10
-12
-28
-12
0
-8
2
-18
4
-20
14
4
10
0
0
4
2
6
10
2
14
-6
-10
-8
-14
-6
-12
-10
12
-4
-16
-2
4
-14
-6
14
-8
0
39
20
-18
2
-4
8
8
12
-4
14
-6
4
-18
20
-8
0
-4
-12
4
0
-18
-12
0
-10
8
0
4
4
-20
-12
-6
-22
14
-12
-10
6
-20
4
10
0
18
20
-2
-14
-4
0
6
8
0
20
-8
0
4
-6
-16
-16
20
10
-22
-14
6
-2
8
-6
-2
-4
-2
-2
-4
8
0
0
2
-12
-14
8
-6
-12
-14
10
14
4
2
6
-12
-10
-12
18
4
-14
12
31
10
4
-4
0
-6
-12
-20
4
6
-16
8
-6
14
4
4
-4
-18
-16
-14
8
-8
-20
8
18
10
4
10
-6
-10
-14
2
-6
-8
-4
8
4
-10
-14
2
18
12
-8
4
4
18
-4
-8
-36
0
2
-2
-20
20
6
6
-12
-6
8
0
12
10
12
-2
2
6
-2
-14
-8
-2
-2
-20
-16
-22
6
-14
14
4
16
14
-28
-8
0
0
18
8
0
2
-10
0
6
-8
25
-8
-4
4
-2
2
31
-10
10
-22
-2
-4
-10
18
10
-6
20
-6
20
-6
-14
20
20
-4
20
4
-10
18
10
12
0
-8
-12
-10
4
-8
-2
14
8
-16
10
-6
-2
-18
-10
18
-4
14
10
-14
0
25
8
4
6
10
-18
2
2
-18
2
2
-10
6
6
-2
-4
14
-10
-4
-2
-6
8
4
20
10
0
10
6
-14
-2
-16
2
0
-2
-6
14
2
14
-8
4
10
14
0
0
-8
16
-22
12
-6
4
10
4
-4
-10
-4
2
4
12
-16
-4
-10
12
25
18
8
-4
4
4
-10
-12
16
-6
6
0
-6
10
-10
-10
31
-2
0
25
4
-12
-8
20
-8
25
-14
16
-12
-6
4
-8
31
-6
-28
-6
-22
-6
-2
6
-18
-10
12
0
0
16
8
-8
-6
6
2
6
10
-12
25
-12
-6
-6
-14
-28
-14
-6
-16
0
10
-12
20
20
-12
16
6
-14
2
-22
18
-8
4
-8
6
-12
4
0
6
4
6
25
2
-2
12
8
-14
-6
0
10
-4
2
-6
-2
0
-4
-6
-14
4
-8
-10
12
16
-2
20
2
-16
0
10
8
2
-4
-6
-10
2
-12
-8
0
-16
-16
-6
-4
-10
16
2
10
8
0
6
-2
-4
10
-6
6
-12
12
6
2
-10
-2
18
2
8
49
12
-2
-10
-6
-16
2
10
-2
25
0
-12
-4
8
-4
0
6
-4
8
-4
-20
-2
2
8
4
-2
0
-6
0
-20
2
6
-4
-6
10
4
20
12
12
4
12
-6
6
2
-12
-10
10
0
-22
16
0
4
14
-6
12
-16
6
-6
-6
14
4
-10
-4
-2
-14
-8
4
-6
-6
31
12
18
-16
4
-12
10
-2
-2
-6
-10
12
12
-8
-18
18
-2
-10
-28
2
-2
-20
2
6
4
0
-8
12
-6
-10
-4
-6
10
0
6
12
-16
-6
-14
-4
-2
-10
-14
2
-4
39
-6
10
6
-12
10
6
12
4
4
16
-10
0
10
31
-8
8
10
20
-14
0
-8
-10
-2
-2
10
-18
6
-16
0
-12
-4
31
10
-28
2
10
-12
0
10
-8
-22
6
-6
-4
20
-6
-10
-4
-16
14
-2
-6
-12
12
-6
0
-8
4
12
20
-20
0
-8
-6
2
6
-12
4
-4
-8
-16
2
-6
31
-4
0
-8
4
-6
12
4
-12
-6
10
-6
20
-12
6
-6
-6
4
-4
18
12
-6
-18
-4
14
4
18
0
0
8
6
8
2
12
0
-4
-2
12
-2
-14
12
-2
14
-8
-6
-8
6
4
-4
4
-12
14
-2
-16
-4
0
-2
-14
-2
-2
8
-6
6
-4
-8
25
2
14
-8
-4
-8
-16
8
0
-10
0
0
-10
-4
0
6
-4
-28
-8
6
12
-8
2
6
-12
-4
-22
-14
20
-4
-6
0
-22
2
-8
8
-4
2
-14
14
18
0
16
-14
4
14
-4
-10
-2
-18
-4
2
25
-18
6
-14
-8
8
-4
10
-12
-4
-6
4
4
0
-4
6
0
-4
2
0
-16
-10
-16
-10
0
-4
-6
-8
8
-6
-18
2
-10
-14
-2
-4
0
10
-10
-22
-6
6
14
-2
14
6
20
-10
10
18
0
10
10
-20
2
10
-12
-12
0
6
4
0
2
-20
10
8
2
8
8
-8
-2
-14
2
6
-10
2
2
6
-8
8
-6
-14
14
-6
-12
-36
2
-8
-6
-6
10
-2
-4
-14
8
-8
-6
16
-8
0
0
0
2
31
0
8
12
0
-8
-2
-8
10
20
2
-2
-6
14
6
-18
0
8
-8
-36
-2
10
4
-10
25
0
18
-6
-14
4
16
10
8
8
-8
-36
-2
16
12
0
-10
-4
2
0
4
-16
6
-2
4
-18
12
8
12
31
2
14
-4
10
4
6
2
-8
31
14
-12
6
-14
-4
20
4
-6
6
-4
31
-4
-14
4
12
-4
8
-10
12
-2
10
0
-16
-14
6
2
-4
12
8
6
0
4
8
-6
2
6
2
-6
-12
0
6
16
-6
4
-6
-12
-20
14
4
-4
-22
0
10
-12
-8
0
-6
-4
14
8
6
-10
0
2
2
16
-2
2
-2
-20
12
-2
25
-2
6
-12
-12
-4
0
-14
0
12
4
-4
8
-2
10
0
4
-2
-8
-2
6
6
-4
0
2
0
-16
-2
6
-8
14
6
-10
-18
2
-4
-10
8
-8
20
20
2
-16
-4
-8
0
-6
-6
-14
-2
6
0
6
-4
-2
-18
14
12
2
12
4
20
10
-16
-2
8
-28
-8
-28
0
-8
2
6
4
-2
-8
0
-4
-10
14
0
-16
-2
-12
12
-2
-10
-28
-10
-6
20
4
8
-20
-16
-2
2
-2
8
-4
-16
-2
-28
0
0
2
20
-2
2
-10
4
-18
6
0
-8
-20
6
31
6
6
14
-2
-12
4
16
-8
0
4
14
14
10
4
-20
-4
6
-22
4
4
-12
2
6
10
18
2
-18
-6
-12
4
-6
-8
16
20
0
8
-12
-8
6
-20
-8
-2
16
-8
4
0
8
0
-12
-10
2
-4
-8
-8
-18
0
12
4
-4
-4
-6
-6
20
0
8
-28
8
-6
20
6
16
-14
2
-18
4
-14
-2
-20
10
-14
-4
-2
-2
-4
6
10
10
-14
14
-8
2
-2
-4
-14
-2
14
0
-10
6
8
-10
-2
-6
-8
25
8
8
-6
-10
-6
-6
18
-10
25
-14
-6
18
-8
-14
-6
20
25
-6
2
-10
-14
6
18
-2
-16
18
10
12
20
8
20
-22
8
-8
-12
-2
20
16
-8
6
-4
8
25
8
-2
12
-16
14
2
20
8
0
-6
-2
18
2
-10
8
-8
16
-4
0
31
-2
0
4
-12
0
-20
-10
31
-8
4
4
10
-4
-6
8
-4
-16
-36
0
14
20
0
-6
-2
4
-4
-22
2
12
6
0
-12
10
4
14
2
0
-10
2
-4
14
8
-22
-28
-2
-2
10
-8
-4
-14
-2
18
18
0
0
-16
2
-2
0
-10
-6
8
25
12
-12
-28
-8
-10
6
20
-8
16
2
-6
16
-14
2
-4
-4
18
-12
-18
10
-6
-2
-12
6
12
4
-2
-10
6
16
-16
10
2
-10
-12
-8
0
6
-28
12
-14
-10
6
-6
4
-20
-28
-22
-8
-4
4
0
-18
0
2
0
-6
4
2
-18
-8
2
-12
10
-6
12
-10
-4
0
-18
-20
-2
0
0
-6
-22
4
6
16
2
-12
2
2
-14
-10
-14
0
-4
6
-8
-12
-4
10
10
0
-14
-22
-2
-2
2
-14
6
-28
4
4
6
-6
4
-10
12
6
-4
8
18
-8
2
0
-10
6
2
-4
-8
-8
12
-8
6
2
10
31
4
-8
-8
6
10
0
-12
2
-14
-8
14
-4
18
10
0
12
-4
-2
8
-10
6
14
4
12
0
-2
0
-12
6
-12
20
-18
-8
-14
-14
0
6
12
12
14
0
-8
-6
10
-12
8
4
-4
-16
0
10
6
-14
-8
12
-2
-6
20
-4
10
6
4
-6
-4
16
-8
-6
8
14
12
-10
4
4
4
-6
18
-2
-8
6
-4
-16
6
6
-10
-10
-4
-4
6
-6
-2
8
-4
8
14
-14
-22
-8
-2
-10
-10
12
2
2
0
12
-8
-2
14
0
-4
-2
-6
-18
-12
-22
-8
8
-4
0
20
0
-4
-4
-14
4
8
2
-22
-12
0
8
10
4
8
25
4
-4
-8
-2
-12
-18
6
-10
-2
-12
-4
20
2
-14
0
4
-16
0
4
6
-10
16
10
-2
14
2
2
-12
20
-4
-20
6
8
-20
-12
14
-4
-4
12
20
0
10
-10
-10
8
-8
-10
-8
-36
-10
18
2
-16
-8
-6
-12
4
6
-14
-8
-2
4
-8
0
0
-8
16
-6
8
6
0
-8
14
-4
-4
16
12
-12
14
4
-22
-12
-14
2
-8
0
-10
18
12
6
-12
18
10
-10
-12
4
-18
-4
0
2
-10
-28
-14
-4
8
4
-2
-8
-6
2
-4
-8
14
2
6
4
-8
-14
-8
25
-2
10
14
-12
-4
-2
12
-18
-2
-10
-14
-28
2
-4
0
-16
-28
0
8
4
8
-4
2
4
-6
-2
-8
-10
18
-28
25
-22
0
-2
-18
0
-18
-22
0
-28
6
-8
-6
-14
-6
-8
10
14
-10
-10
4
18
0
16
-4
2
39
8
2
-4
2
-14
12
14
-4
0
8
-10
14
8
16
2
16
18
-10
-20
-2
14
-16
6
-20
16
10
10
12
16
-18
-8
12
2
18
0
16
-10
-16
-10
-10
-6
-14
18
-18
4
2
6
-8
4
-4
-14
-8
-10
-8
-4
6
-10
-6
-2
-2
-4
-4
-16
8
-18
6
20
6
2
0
-14
-4
-28
-16
-4
-4
0
31
4
-22
-4
4
-10
-8
-14
16
8
6
18
4
-4
-22
31
-8
2
-14
-18
6
-14
-2
-14
0
-6
8
6
-2
4
-18
6
8
-2
6
-6
-6
-18
-14
-2
-2
-12
14
0
4
-12
-12
-10
-8
-12
-12
-4
-6
-8
-4
-12
6
-2
0
-6
4
-6
2
-4
12
4
-10
-4
0
0
-8
-2
2
2
0
4
8
12
0
-6
4
4
10
-12
-22
14
-10
-2
0
-28
4
-10
18
-22
-28
-8
-22
-10
-4
-12
20
14
10
-8
-2
0
-22
0
-12
-2
2
6
-4
-2
-20
-10
-6
4
-18
-2
-4
39
12
16
6
-6
-14
-18
-6
-2
-14
-6
-18
6
16
10
14
6
-16
20
-2
20
-12
-2
2
6
-22
-8
2
-8
-10
-12
-10
-10
12
0
-16
-10
20
-6
-18
-18
8
0
-6
4
0
-6
-16
16
0
8
-10
-2
-10
-6
-12
2
-6
4
20
10
0
-4
-10
6
-10
2
6
-16
-4
-4
8
-8
12
-2
-2
-14
8
10
-28
20
4
-12
0
-22
8
-6
2
-14
-8
-4
-6
4
-2
4
-6
4
25
-10
-10
-4
6
-2
-6
-2
12
10
8
31
-16
-6
-12
12
-8
0
8
0
8
2
-18
-12
-10
-18
0
-4
-2
-6
-4
2
-22
25
-20
-12
2
4
20
10
4
-8
-2
0
-8
-14
18
8
8
-4
12
-6
6
-2
20
14
-4
2
4
-12
20
2
10
4
-8
0
6
39
39
16
-6
14
-2
10
-8
-10
10
-22
2
-4
16
-12
25
-12
-2
-14
0
-22
12
0
8
-36
16
12
0
-12
-4
-4
-6
25
0
20
-22
-12
-22
6
2
8
4
-8
-22
-14
-2
-16
4
-14
0
8
16
-12
-12
-2
-28
-2
12
-4
0
2
10
-4
6
-6
8
8
25
-2
-6
-16
-4
-14
20
-10
-12
-12
-2
-6
2
-2
-10
-18
-6
-6
0
16
10
-28
-12
2
6
14
6
-2
-18
12
-10
6
-2
0
20
16
4
2
0
-36
-12
12
-6
4
8
6
25
-4
16
-6
-4
-6
0
-4
-2
-2
-2
2
12
20
-4
-4
-22
0
-14
6
4
-6
-28
-2
-22
6
4
16
-12
2
10
18
-10
6
-14
2
16
-4
0
-6
-2
8
0
-12
0
20
0
0
14
10
18
-16
10
2
0
12
6
14
4
-10
-6
2
4
-12
0
6
-10
-12
-4
8
0
-2
14
-20
-10
-12
-4
-8
-10
-8
-10
-6
16
-2
18
4
8
-14
-10
-8
6
2
2
-6
-6
-2
10
20
4
10
6
-8
-16
10
0
-8
-4
-4
20
-22
-14
-22
-16
2
10
10
31
6
2
0
-10
10
0
6
-8
-2
-28
2
-2
12
2
6
-2
-4
-8
0
-22
-4
-2
-2
2
31
10
-8
2
-8
2
10
4
-22
-14
-6
2
-4
2
-2
-6
-12
4
6
-6
2
6
10
-8
-20
-6
4
-16
-6
-18
16
-22
2
-8
4
0
0
4
0
2
18
-2
-4
10
2
0
-10
8
8
-2
-20
-12
-4
0
8
-10
8
2
2
18
-16
4
-14
4
-2
-6
18
-6
-6
-16
-2
4
-18
-4
-2
4
0
20
-2
0
4
20
-4
-12
-14
0
-4
0
-8
4
-2
12
-10
2
6
0
-28
-16
4
8
-10
-2
12
-4
20
-20
-10
-22
2
20
12
-14
8
-4
-14
-8
2
-8
-8
16
2
-16
-6
6
-18
25
-2
0
-12
4
-22
-6
-10
-14
-22
-8
-8
-2
6
14
-20
6
4
-16
8
6
10
6
12
-12
-8
-4
18
2
-2
-6
2
-12
2
-36
8
16
0
-12
-8
6
-12
-10
2
8
-18
8
2
-18
12
4
10
2
16
-4
-12
-8
-6
-8
-6
-6
12
-12
-10
20
-4
-16
-2
-8
20
4
8
-2
-2
6
0
-4
2
25
18
-20
4
0
0
-4
12
0
4
-16
-4
10
-2
14
0
12
-4
6
-10
-6
-10
-6
-8
4
-6
8
-8
16
-16
4
-4
14
8
-6
-2
10
-12
-10
-14
-10
14
-8
0
-2
-18
0
14
2
4
12
14
4
39
-16
-16
8
-36
0
-6
16
-4
0
4
-6
0
8
6
-8
-22
-2
-6
-8
-8
-8
-4
-6
8
-6
2
4
0
-18
16
-22
16
20
10
-6
-8
-20
0
