159
120
350
-134
358
-684
79
-68
-360
-51
-687
-388
663
362
-32
-307
-64
381
122
289
-158
-420
74
585
-543
73
-313
-334
66
-72
448
-15
-158
-381
123
-213
334
188
-73
-562
-298
423
512
270
-257
-1051
169
103
361
552
101
-65
222
-269
128
-161
128
-66
-48
225
-671
379
566
-212
287
242
437
128
-118
58
24
35
-69
-229
-393
59
-105
43
550
34
160
-138
-81
-553
-310
64
-220
69
246
-406
-359
-194
-688
218
199
151
905
133
987
-35
141
179
-310
-16
-220
-40
197
-158
-647
344
-340
-115
-109
415
-15
170
286
-330
-416
416
-247
223
-200
48
-176
336
-329
-130
-949
-553
279
-121
379
599
-351
-147
564
168
92
380
-184
3
361
-135
164
463
384
-84
120
99
93
371
-38
-394
-24
-357
-145
-176
55
155
-298
-29
55
313
144
199
386
283
-593
205
-276
111
-43
137
184
264
249
-263
-71
319
414
104
-193
-666
-689
116
-1036
-380
176
-380
113
-394
-265
88
23
62
-152
455
31
401
-111
-298
-185
-193
-366
244
1
361
-578
295
-116
-63
658
-258
458
-435
287
364
-336
25
-266
-91
84
69
280
371
597
-472
112
411
510
142
-6
156
392
413
494
-217
274
-93
-168
-162
-118
44
584
136
144
-264
-125
448
514
-379
-14
-250
-381
241
