-206
469
623
495
-152
440
729
644
576
846
37
199
378
288
-82
314
496
361
-427
262
124
703
913
132
-202
568
732
390
79
547
497
335
-235
659
-599
150
235
338
328
-130
526
1079
563
746
321
325
-47
363
1035
124
810
660
-1852
-585
-180
329
-819
-139
91
-48
685
-87
-458
-1892
734
433
433
-277
583
507
544
1050
-252
-49
402
-501
636
664
227
124
467
360
62
140
765
771
-55
-369
440
72
792
353
142
-34
241
449
358
601
-194
339
871
1482
457
443
652
1048
246
609
-820
-103
1273
213
1374
610
682
608
824
808
983
167
-671
886
277
634
179
542
-166
500
451
709
576
275
-201
865
-329
22
35
267
-39
525
84
938
751
-346
-169
948
916
1485
206
904
651
1078
1097
-42
650
-282
284
478
587
381
-36
607
137
26
92
1274
754
55
527
319
149
337
14
714
1216
691
-260
594
-258
892
347
1116
100
175
286
424
492
723
624
908
-231
431
770
302
-1556
190
-249
147
27
375
772
-664
34
177
-123
-173
-98
-337
588
305
-27
198
1001
523
212
291
664
910
838
483
656
142
336
-1564
-112
225
913
582
-322
477
1153
-315
458
1249
330
519
1097
479
494
-36
96
1000
560
-56
542
213
272
551
12
-288
736
-414
267
1007
1038
386
557
-263
1098
1346
-305
466
124
-15
634
511
909
-489
455
275
711
494
906
376
173
242
-53
612
156
1161
860
-468
-19
-190
494
49
215
822
870
1046
-40
-1517
282
-738
-293
404
46
-224
-54
-942
65
206
685
897
730
602
1268
118
150
-140
48
829
130
138
3
612
102
-90
109
432
417
-264
486
661
1171
422
168
62
139
479
1074
540
844
25
448
590
855
-227
118
665
116
1733
806
14
1075
370
283
235
-83
658
531
474
268
1007
261
244
611
699
859
1021
294
223
334
245
874
-147
564
929
-416
-513
705
1109
-341
363
163
-155
809
859
-333
492
-666
-114
544
-293
470
852
281
915
589
8
670
-233
730
247
809
694
132
103
802
385
95
886
1360
335
737
36
772
1480
364
207
222
1103
160
383
-17
582
-6
856
1400
84
-674
310
-125
479
661
765
538
111
221
667
58
144
616
472
650
-384
1025
-157
909
-272
-685
1193
908
-254
187
56
350
1430
12
672
839
753
596
397
113
51
747
-114
216
-496
16
415
644
688
710
532
658
-13
453
-4730
79
260
129
178
-10
231
344
-471
-89
-293
337
-170
407
374
367
734
31
314
604
195
406
651
182
677
439
956
887
-179
492
17
-822
1394
321
373
237
296
1113
731
852
1052
428
902
